{
  "_layers": [
    {
      "Weights": {
        "Storage": [
          0.035474722070670345,
          -0.042525144113099878,
          -0.029087457717765969,
          0.00048748931697736186,
          -0.043852731745425082,
          0.049813856359380237,
          -0.093926913371262646,
          0.066631447257259335,
          0.0072207613112016391,
          0.056954534365939523,
          -0.025770275882391558,
          -0.012460388884201378,
          0.0033437707362113335,
          -0.061177273645154955,
          0.05646861065380978,
          0.12410035639994342,
          -0.042485245085601427,
          -0.0061210024689292725,
          -0.039779780193667437,
          0.034037353950946973,
          -0.11372450630134998,
          0.016187867715613393,
          -0.14914130918158205,
          -0.011651208736737083,
          -0.067169176137590159,
          -0.032515088713037439,
          0.0043696551460799815,
          -0.039766883819640948,
          0.015145491967925608,
          -0.029249393118753578,
          -0.047761964496671645,
          0.031383188091657209,
          -0.051729516584725119,
          -0.0992392783188968,
          -0.0090277945494996216,
          0.0439494909926468,
          0.024624204665978651,
          0.067290956317321321,
          -0.038870433242350108,
          -0.010812066987845871,
          0.10366165334010349,
          -0.061110244940019869,
          0.07150042067074118,
          -0.00572583527363158,
          0.017063513218700289,
          -0.021057371097830707,
          0.053791548029709091,
          0.014384179701355056,
          -0.0735118361600419,
          -0.0876689365071988,
          0.043756786224052394,
          0.064451217608845437,
          0.16265712071934016,
          0.029280692545485609,
          -0.082866089564883866,
          -0.090308812906784233,
          -0.026413776104429083,
          0.036138941683643039,
          0.060772514427100383,
          -0.040513749819012956,
          0.044268672281250109,
          -0.039457846393042686,
          -0.0088479114407257076,
          -0.021477524028825939,
          -0.063902209575576,
          0.069342199380343236,
          0.045496361917126305,
          -0.0072189519003565943,
          -0.076963322806221021,
          -0.042629161434218826,
          -0.0062043832958346154,
          -0.071564412818467357,
          -0.035778418380561151,
          -0.0709400078351409,
          0.02180190009554122,
          0.056906526355002041,
          -0.093441749787546949,
          0.045108309357840215,
          -0.055372677025392107,
          0.024149276665300767,
          -0.054405522306965742,
          0.018044388266952677,
          -0.053931499461361054,
          0.11969829327324016,
          0.024285279682725491,
          -0.0032690596518902535,
          -0.025440987535369927,
          -0.090321941395933025,
          0.045859827259714533,
          -0.061693172593003859,
          0.10757622310229384,
          -0.018107457699513586,
          -0.058118156070636133,
          -0.0099398932029482832,
          -0.0092736990985946254,
          0.027179404277964014,
          -0.034880633241593191,
          0.049879069751690437,
          0.013017879711272806,
          -0.0726606696224588,
          -0.0057147660747388336,
          -0.056475321940401245,
          -0.053695183333811548,
          0.015876457212806321,
          -0.0997765238498577,
          -0.012804395162053537,
          0.0011466811718000727,
          -0.052143181074928574,
          -0.0426545344540538,
          0.010080899343583494,
          -0.0077320510052868623,
          0.0424894184086127,
          0.029408789354804142,
          0.065628421281128779,
          0.046561056230420859,
          -0.035423554598374041,
          0.03262073251722461,
          -0.016080592895602649,
          0.013321376924991187,
          0.0775528199424574,
          0.0664502522585958,
          0.050410856571313528,
          -0.0976656522699021,
          -0.015890065285936991,
          -0.058103918858325429,
          0.022509427879006637,
          -0.019029264891558283,
          -0.0739610560865106,
          -0.01099833876576938,
          0.024811036719998285,
          0.057551411901532887,
          0.005543541163233817,
          -0.062888624760656139,
          0.010289215288447791,
          -0.12399450539500964,
          -0.020142461233008162,
          -0.0316400664638788,
          -0.058381913087191449,
          -0.02952353364887688,
          0.0059603212513939779,
          -0.088895810851221849,
          -0.0032383181118231029,
          -0.019778546219511594,
          0.048386035413884705,
          0.023039104167204092,
          -0.093618925741167619,
          0.010933941495490684,
          -0.0851358588724858,
          0.024526093413403952,
          0.028156331592749259,
          0.049196510598602486,
          0.011804822848662475,
          0.0056504927916753191,
          0.009549519725013526,
          -0.071496015515553873,
          0.099513485709018648,
          0.04250162803820489,
          -0.025651678731079396,
          -0.0735075256415897,
          -0.0084049998337989377,
          -0.035494544532821581,
          -0.0058737705810804524,
          -0.0618534121824964,
          0.089338588220524665,
          0.067715985473012524,
          0.016246926821941069,
          0.049190446662306167,
          0.087101783405429234,
          -0.0064319859167156351,
          0.049639599567621831,
          0.025307715444251738,
          0.095981169212057932,
          -0.022000307384015955,
          -0.052295902704726512,
          0.018020835797477187,
          -0.002843403482296487,
          0.076685869260641235,
          0.062443211710269696,
          0.011003081002380405,
          -0.037437501617306267,
          -0.036106342022781519,
          0.06093762964327043,
          -0.10342161459049561,
          0.051243538347821353,
          -0.063419958373009927,
          -0.048746577993449516,
          -0.0037850426508866069,
          -0.028071193489989838,
          0.056933885828871142,
          0.017684747324555525,
          -0.029143662276313872,
          -0.050204043617737795,
          -0.026410462099331813,
          -0.026310410592928136,
          0.051631860303167305,
          0.0607235330173912,
          -0.053774904030360025,
          0.051186265088442671,
          -0.010177780836667169,
          -0.052156999395027645,
          0.089970709447789038,
          -0.031093235236169723,
          -0.045935636353427171,
          -0.046823450461378834,
          0.0053883194493673419,
          -0.04067526688672702,
          -0.054311497672429841,
          0.038457572711675006,
          -0.002405636734798169,
          -0.0023176852551975735,
          0.072747531453109318,
          -0.060191584991208323,
          -0.062816656133124565,
          -0.058563329800260772,
          -0.022722194902766748,
          -0.047307607860033338,
          -0.03121565757595679,
          -0.0055638840493646233,
          0.049787407629526943,
          -0.010046878581124819,
          -0.026860511223455796,
          0.075586452931996381,
          0.01425195283258162,
          -0.11167592708102833,
          -0.018634688028371489,
          0.094981751245113238,
          -0.043314631748814961,
          -0.034715898446074887,
          -0.050625320337434727,
          -0.093423411501995915,
          -0.067581799267051088,
          -0.030841810262958382,
          -0.083576828999794767,
          0.038700014011981657,
          -0.09980806169315494,
          -0.03026601087847515,
          -0.050296628920195832,
          -0.059770350865172912,
          0.0012872690345979894,
          0.030828603858347205,
          -0.020603001713704272,
          -0.091638062486560853,
          0.039181396610014949,
          0.019558971139322617,
          -0.00087471170218077665,
          0.05501671459305249,
          -0.068120553574394449,
          -0.033291143447540673,
          0.031539712611976668,
          -0.0029238136646473488,
          0.068258496876651156,
          -0.045783062872719431,
          0.10187932571288398,
          0.059770293464244846,
          0.015909652279762761,
          -0.039778624795280992,
          0.063763177788177958,
          -0.0034020519057781388,
          0.039070326771379713,
          -0.066336442125744285,
          -0.018667628921581574,
          0.00046686787987483482,
          -0.018388916919648994,
          -0.11103206936185823,
          -0.044577222802475128,
          -0.023236093634630389,
          0.0456530641067552,
          -0.0015115050889119811,
          -0.00042478772895180911,
          -0.0079968962431828938,
          -0.034340678299900444,
          -0.052963672941902261,
          0.0703858190645124,
          0.012998747762622371,
          0.0023008811415719632,
          0.062152260178826919,
          0.060898087204061237,
          -0.024062933169431353,
          0.0321291925178576,
          0.029313808564647478,
          -0.11296387812064336,
          -0.054745960476940629,
          0.0058792644756052942,
          -0.1003630091154195,
          0.017839937919435497,
          0.025414276716130463,
          0.048642498259764758,
          0.017118204026908012,
          -0.062048728796659056,
          -0.00078670088371249824,
          -0.0007449295541184476,
          -0.041364215574536387,
          -0.036637990382643447,
          0.055849026242918494,
          0.060389644500133746,
          0.051669218592351858,
          0.021555052787075646,
          -0.080173921046621757,
          -0.0052379546874350251,
          0.043378588162041307,
          0.049245376230503519,
          0.031740592031309953,
          -0.0568351948393679,
          0.10464378453190287,
          0.06683475968826616,
          0.031927433039536095,
          -0.038126904714774652,
          0.00632750493383291,
          0.043953721800519867,
          -0.021057493767856681,
          0.017119195157343933,
          0.13278825187657256,
          -0.036697659703651193,
          -0.060958631082922363,
          -0.070018326218377308,
          0.079225845777691192,
          0.08636422454661119,
          0.0018725496935858121,
          0.063576760273732755,
          -0.040539766735414373,
          0.024863602198731488,
          0.078915114539285014,
          -0.038139597670337762,
          -0.011533290123191972,
          -0.014765423546599628,
          -0.0718114943367384,
          0.014389020207740329,
          0.0114259386657687,
          -0.064994902342470767,
          0.037264136423632563,
          -0.011294439717662969,
          -0.087645162078825833,
          0.025762101619467719,
          -0.040783714606179092,
          -0.0013231371937920593,
          0.042978365240050165,
          0.00639698391594604,
          0.063007877340460539,
          -0.094137897964592127,
          0.052338614847256625,
          -0.031728797168222835,
          0.029969468519123243,
          -0.0585980989371466,
          -0.086848561389431839,
          0.091428329005910261,
          0.017061585541455267,
          -0.063884228391086151,
          -0.025972160757097826,
          -0.039250286759193717,
          0.0071930201540891352,
          0.017993145807624678,
          0.073201714550709521,
          0.0291391490624332,
          0.10694415065949757,
          0.074983922283677659,
          0.023246515511000852,
          0.088501384524125468,
          -0.01776416403461336,
          -0.012811475364191931,
          0.065594673279921523,
          0.0010502751738886056,
          -0.002921509020883002,
          0.043934697211331392,
          0.018784677425311959,
          -0.0029319852017124196,
          0.032692375945796805,
          -0.023032579500130074,
          0.067144043322568639,
          0.079851062491882022,
          0.053729719960946817,
          -0.066087409147236542,
          -0.021984096942521719,
          0.092359642401369152,
          -0.02199137272137465,
          -0.047273196132014347,
          0.011447629567808069,
          0.018557564345998714,
          -0.028117364247887137,
          -0.053293080995537145,
          0.047873335536787957,
          0.054976834148453523,
          -0.075628972059134741,
          0.031196191014124412,
          0.084178755430164273,
          -0.086883334261369849,
          -0.052938190875406264,
          0.027506522134449089,
          -0.017456605224727386,
          -0.033314581865332468,
          -0.011576995838220147,
          0.063524444132221289,
          0.024166454406567176,
          0.00015238643856545407,
          -0.056080955789294507,
          0.046752421293316838,
          -0.0647122994150717,
          0.042690969234333832,
          -0.005460261545696116,
          -0.033708909563318783,
          0.043469606800918104,
          0.071729575297103346,
          0.079073368173374486,
          -0.077304883085166531,
          0.058141576627471991,
          0.082626002293753983,
          -0.0033496915221036846,
          -0.044758967383803548,
          -0.047506166123549277,
          -0.022995915612046863,
          -0.01069468967830862,
          0.015180709597915662,
          0.067390650548503128,
          -0.012722418459284466,
          0.014735256340612703,
          -0.098858078728284948,
          -0.072832621302242259,
          0.0046877306495192745,
          0.066805117858344351,
          -0.068755814285730174,
          0.016301405195781844,
          0.085215422438140676,
          -0.085588271913521807,
          -0.076346356364370871,
          -0.013864897708920867,
          -0.014168258632235947,
          0.013622363415996139,
          -0.03354716265857019,
          0.033868793050366448,
          0.057195623094219536,
          0.010379513032236212,
          0.054476204336441736,
          -0.03135938396608455,
          -0.059201657293500243,
          -0.09140864221533164,
          0.017028313796348341,
          0.024332637461073423,
          0.017582661163692736,
          -0.16608371102629776,
          0.046212301167077148,
          -0.042437865187125882,
          -0.030877011668267878,
          -0.02605021077381476,
          -0.010343671560778143,
          0.0051557996309146634,
          0.014485065392965953,
          0.052743335900875543,
          0.0055487471774122747,
          -0.0087217387664183625,
          0.0019301715426831827,
          0.01433526930345305,
          -0.044136445134301573,
          -0.094702451565575468,
          -0.0469793352241627,
          -0.0012404120716435767,
          -0.0052915291376992935,
          0.052521021013222619,
          -0.084645145605121347,
          -0.012307538317309113,
          -0.086661632918458409,
          0.072662748176693145,
          -0.0142939845012818,
          -0.073515155531656592,
          -0.00980822431061566,
          -0.0499152533798041,
          -0.061285209662930863,
          0.026715149414435747,
          -0.052230465812968835,
          -0.076024427041176693,
          -0.082254974424958008,
          -0.02412688735583831,
          0.014792939381026642,
          0.0072787575710069408,
          -0.01819325194184845,
          -0.044466554037073565,
          0.0326903796987965,
          0.031355595043841146,
          0.039343319292761005,
          0.0096509153320230925,
          -0.058539424183853189,
          -0.066152774119608612,
          0.0027918400775800169,
          0.092182889548041172,
          0.078326121367825,
          -0.038374876319348578,
          0.093706108518119863,
          -0.031302864632540686,
          -0.095052025852253252,
          -0.016946505771035632,
          0.0035270517353371495,
          0.0027355667153198529,
          0.07443157639933097,
          -0.0902291612272536,
          -0.087239744888562037,
          -0.0042356350698233109,
          -0.034337807955920285,
          -0.098529050303616653,
          0.048786675725796418,
          -0.065104958998686929,
          -0.041764773627882119,
          -0.011662206282184237,
          0.00742137145010794,
          0.0056205687738174548,
          -0.02693651559779825,
          0.070652959556361042,
          -0.05050606121932312,
          0.0025490978207440848,
          0.075951727396902965,
          -0.036055335195949542,
          0.081507140221990987,
          -0.010853069427498445,
          -0.034496323668015319,
          -0.007364577914046642,
          -0.078636106844081011,
          -0.04625063441046301,
          -0.01615119446844996,
          0.0020802200180673196,
          0.056062483238840853,
          -0.0042917935274837437,
          0.051159468714936283,
          0.054476142016619822,
          -0.031163137690125485,
          0.016961794333808986,
          -0.037850654978089905,
          0.033050418999511694,
          0.046634486058828577,
          0.031404977149677778,
          0.08527421542929986,
          0.059713905591396492,
          0.035417203429737254,
          0.0047661466726083143,
          0.013523310262523239,
          -0.088186082265871754,
          -0.11356113715118568,
          0.04221853917800085,
          -0.062364986593143386,
          -0.060348944453281227,
          0.062469950126519895,
          0.099013637101298221,
          -0.0049226234575403677,
          -0.0044374849288751376,
          -0.07847167530624137,
          0.044209941437156133,
          -0.014751731964431433,
          -0.0080469711086694432,
          0.12548074308035037,
          -0.092552061936796964,
          0.00013569637544352952,
          0.081140822120620432,
          0.014138966096165341,
          0.020370059762178875,
          0.0053819158806379854,
          -0.11377947792808603,
          0.078490499535622843,
          0.048383011504668769,
          0.002529325097443197,
          0.022139927990994315,
          0.064074227874232587,
          0.011544645433812518,
          0.0008670615479467209,
          0.0398567678022527,
          0.039062101892579588,
          0.02349932759948507,
          -0.048004139634687713,
          -0.017490478924045847,
          -0.039136327185491794,
          -0.018622182683582861,
          -0.014877742678137407,
          -0.054584609810838125,
          0.0040154843983838326,
          0.058804665268353776,
          0.0048513807669674832,
          0.016689798639417459,
          0.0985576907091825,
          -0.05402790052775748,
          -0.03698071753309852,
          0.0068190331285170368,
          0.015561817423499002,
          -0.00260624073119565,
          0.092407784367946666,
          -0.011589949053098337,
          -0.073497005585369271,
          0.064065082956207983,
          0.044110129588739791,
          -0.0456414026308242,
          -0.077355568265886285,
          0.021076687323373765,
          0.031968295586451694,
          0.055980047441714122,
          -0.010648128049935012,
          -0.013728151513495573,
          -0.034293805914924369,
          -0.042280174320603665,
          0.066322496472499243,
          0.040124221380657944,
          0.043750564545947404,
          -0.089764628353310658,
          -0.004182816880291625,
          0.0088084459779169851,
          0.058303880679616706,
          -0.019977397898331192,
          -0.051816917966091336,
          -0.06102114935640697,
          -0.019903913654155361,
          0.038134924422606187,
          -0.039849938703769204,
          0.0033894897314008196,
          -0.0065163070832688214,
          0.0036352852410500222,
          0.0075788016833321014,
          -0.012769539856556059,
          -0.033491881078948689,
          0.0066566039775062032,
          0.037512209176162145,
          0.081373808719725133,
          0.0076157628951324654,
          -0.06818427821423613,
          0.017381673400550097,
          -0.064829430840107727,
          0.013051479509527193,
          0.029099040622843984,
          -0.013739818176327939,
          0.0070696012765769384,
          -0.010694078485236284,
          0.002533302613717339,
          0.01982395581051135,
          0.022529510154322509,
          -0.040961937687333055,
          0.0358745458553458,
          -0.077830132384305875,
          0.035884671478699975,
          -0.019463878153961497,
          0.019776959230959835,
          -0.017596280231506778,
          -0.030482431390563655,
          0.0079444900012301933,
          -0.075729105161824434,
          0.016681699295756577,
          -0.04270231356861319,
          -0.033216905699238151,
          -0.04430941529421091,
          0.069800656295709987,
          0.011809282169064133,
          -0.0974116700564338,
          -0.028409285091116454,
          0.045169042500525031,
          0.0048993885405976207,
          -0.037445072186949438,
          -0.021700034112746083,
          0.069262085414023233,
          -0.022551854817558028,
          0.13650194981618785,
          0.031671667773370528,
          0.049063713174615817,
          0.0215240583463598,
          0.01480172983432197,
          0.0064649063496600148,
          0.032501373275778456,
          0.069506975673865476,
          -0.02464663450070988,
          0.012203334006244178,
          0.070135984601493714,
          -0.00826377750302827,
          -0.026336032659120493,
          -0.050540981963521,
          0.0088652130475745921,
          0.035486613350833196,
          0.024780600116299442,
          0.008764877558891878,
          -0.026390695374364032,
          0.067669690733659665,
          0.06746051571123908,
          -0.032476960062219763,
          0.06717777065439598,
          0.0011690877356026078,
          -0.022942412821541032,
          0.0085557732639338756,
          -0.0064188147558876096,
          0.0428590289066305,
          -0.036793550537297916,
          -0.036060321255560718,
          -0.026275162516274306,
          -0.0577866167698502,
          -0.015186094911754091,
          0.023002138141893398,
          0.0084563451479268865,
          0.040219956787023795,
          0.063064409992150947,
          -0.020163023911854792,
          -0.0058565117241971849,
          -0.042657952385896876,
          -0.10376216639933183,
          0.014148786159376146,
          0.023620969572387521,
          -0.082362089730486657,
          0.0081773526693441675,
          -0.0515187616014731,
          0.030610264803150829,
          0.0013326627915896804,
          -0.061502144051460775,
          -0.079988582958199342,
          0.036376118171244615,
          -0.029847691623903362,
          0.073218357612546761,
          0.10294009302941183,
          -0.050360379439897435,
          -0.016222444214048479,
          -0.0025340858345803672,
          0.026940147392708811,
          -0.0072421702819934607,
          0.032606958633873306,
          -0.010606486945151858,
          0.040004399637829889,
          -0.0057967545232594907,
          0.04534826303184121,
          0.02363023358068269,
          -0.070237382908644272,
          -0.075632213413578842,
          -0.031343574651218065,
          0.019965773104186176,
          -0.035628474590480561,
          -0.026554964879213754,
          -0.017918950631090641,
          0.052267324292992585,
          -0.099733452028252553,
          0.047245717847069373,
          0.055942539590191909,
          0.0284238885800344,
          0.015678260166362777,
          -0.004347162618885559,
          0.035005139608982556,
          0.063805179860468464,
          0.022418562576572234,
          -0.022009475445391242,
          -0.030225385559901785,
          -0.032403207747903083,
          0.017868413506995178,
          -0.021981252774250878,
          0.043719239338291666,
          0.0270360351683691,
          0.038086550386967143,
          0.10823856452347552,
          -0.0038581534051673038,
          -0.0013676190633012254,
          0.025485052842819617,
          0.069882713573003519,
          -0.070379774448037322,
          -0.11181057305288111,
          0.036030686439157814,
          0.10060399191709511,
          0.046167045147317287,
          0.0342001002667041,
          0.0247437507557941,
          0.029987529096167007,
          0.007710535008420674,
          0.10713896224784387,
          0.0077793143283812873,
          0.068065363070664783,
          -0.094389113008242861,
          0.0452087848883502,
          -0.030261463662712037,
          -0.026890968655296534,
          0.0075734417848888945,
          0.051242843101397623,
          -0.035783478353683756,
          -0.054562589232071815,
          -0.027759921380944116,
          -0.0042248282852361246,
          0.0084850707684662151,
          0.0064857969345156708,
          -0.083806602046788733,
          0.005880234199582066,
          0.0040391276476314571,
          -0.02507234476784919,
          0.033554160249046124,
          0.02652809047637953,
          0.024027323611115772,
          0.077278635755204744,
          0.05814000286662744,
          -0.031305679936402195,
          -0.03730144976319593,
          0.045270513113671369,
          -0.014082032159417319,
          -0.1227654809506922,
          -0.004090394734037172,
          -0.011968512677101903,
          0.027224185053069571,
          -0.048570878249491786,
          -0.06514667531683449,
          -0.0067894861580140211,
          -0.0088634892284820289,
          0.028302436535474536,
          -0.04965517083463275,
          -0.035962668831774416,
          -0.068926215891537218,
          -0.025769438742293937,
          0.046816104467676589,
          -0.023102567168259626,
          0.06786242978695145,
          -0.06145154927544895,
          0.010478783067220039,
          0.018827986087919184,
          0.04862762186376627,
          0.015935860578148456,
          -0.038928338936836268,
          0.10328301552038785,
          0.017253396592012575,
          0.001432691531394842,
          0.033106516981685145,
          0.014615189177031486,
          0.0089531214079065884,
          -0.059683811704587468,
          -0.0811438765038598,
          0.019904020248190015,
          0.0047929238719551905,
          0.03971755036490994,
          -0.0081291984320078087,
          -0.0098395055778655,
          -0.03038695149936314,
          -0.042449629252653671,
          -0.01557368647212084,
          -0.051043407166248819,
          0.043114031087827839,
          0.046430122855214626,
          0.024552683180621069,
          -0.086558027583985883,
          0.0024727974310442395,
          -0.034076023356607164,
          -0.017821927590565573,
          -0.094451435250531943,
          0.024536412872353992,
          -0.042008782475455447,
          0.0067626143505563844,
          -0.020187721468457261,
          0.029099053860112651,
          0.015577847840448588,
          0.092525264745161193,
          -0.054673011963035652,
          0.02440345230796296,
          -0.081594500394012726,
          0.070354376110889211,
          -0.0067474834320452514,
          -0.0096998615881047027,
          0.052543582269949062,
          -0.029957790311960442,
          0.066846906756445779,
          0.050369267675981592,
          -0.002610179572501585,
          -0.13568945565801518,
          0.050569704577092846,
          -0.0301359450284421,
          0.041865815626656755,
          0.012390322453758935,
          -0.020150403433571041,
          8.3871550004168847E-05,
          0.013638708367279191,
          -0.068855126812933445,
          -0.048413373738837306,
          -0.02694221682626596,
          -0.0088285932640912515,
          -0.014013029923740962,
          0.051882620246609341,
          0.011408568869288769,
          0.040212977112219356,
          -0.0047830745713200416,
          0.057578904329761968,
          -0.14627350588679569,
          -0.013168515043026742,
          -0.0540454394838963,
          -0.034887357032732672,
          -0.039320322773778782,
          0.012653884732991788,
          0.058112035111328328,
          0.01877662842376392,
          0.10449070007140757,
          -0.016991977542305005,
          0.018927237707231086,
          0.013048961967892299,
          -0.036599835684798958,
          0.059744380213206071,
          -0.062073612867013177,
          -0.047145387003834367,
          -0.00021483265821305695,
          0.015746046192802961,
          0.055867134346675694,
          0.086820483735440435,
          -0.011448223505309966,
          -0.039206182463004065,
          -0.02021145256164443,
          0.070856919790923054,
          0.0029695038627370568,
          0.012324502309906083,
          0.0032054475125741643,
          0.033464007908426692,
          0.035456388193814393,
          -0.01646519841718597,
          -0.11217841153761318,
          -0.066432100521768941,
          -0.12234325197776912,
          0.078674937242370707,
          0.078033976330957072,
          0.060743607816724325,
          0.050611140656542292,
          0.015184702308879486,
          -0.0043438115732774953,
          -0.051708537231376472,
          -0.021520234168756151,
          -0.010771421364857342,
          0.029555974449682266,
          0.0059655593939303463,
          -0.051004625499881405,
          0.031083421706396688,
          -0.045076060577282,
          0.023455220722145839,
          -0.01646512367357205,
          0.0021240919002144011,
          0.012947751286203136,
          0.14563759902310425,
          -0.034073571454546765,
          -0.016303175669071232,
          -0.06862868721166987,
          0.040806426854275137,
          -0.030600771836032263,
          -0.025062053778014015,
          -0.020120472040486861,
          0.03672860177420325,
          -0.064366070416574342,
          0.1013155355120814,
          0.0058922753448747006,
          -0.032893248830612176,
          0.024557778327794561,
          -0.081971658086042135,
          -0.00470371047005037,
          -0.0057258252763904586,
          -0.050474979075212666,
          0.04330912531257812,
          0.012387804280290137,
          0.026036619882203692,
          0.025413021042540434,
          0.0907797000319741,
          -0.03276726980478168,
          0.056743120125862849,
          -0.021251645178389903,
          -0.016580955928795708,
          -0.11941099468322439,
          -0.0020956744089100504,
          0.082355266325865054,
          -0.084945580544967578,
          0.025899112459514963,
          -0.025383985011199203,
          -0.025120221241646246,
          -0.00047992825841782421,
          -0.065649622642121541,
          0.034742782928712704,
          -0.02951457238828286,
          0.0038518471119022937,
          -0.13516421560921224,
          -0.089820285940561767,
          -0.09882243497765629,
          0.027424472373563304,
          0.059668220507928728,
          -0.039170098876132237,
          -0.0045676506452502052,
          -0.022557620203423379,
          -0.053565024406000916,
          -0.069977586780097523,
          -0.034281735463709273,
          -0.028999338399673513,
          0.067862029496475074,
          0.029929939935001107,
          -0.033046020063036349,
          -0.071281105807388029,
          0.089398049955210931,
          0.049049387758949049,
          0.020048008648418381,
          -0.021985823922030658,
          0.010215345080141108,
          -0.07729544064719697,
          0.018277138757067442,
          -0.056602932044194122,
          -0.011887660719206387,
          -0.046377663965022471,
          -0.037514039739852664,
          -0.0546058018960359,
          -0.10889038353166812,
          0.023198433073138593,
          0.068743606562621254,
          -0.013277260278930182,
          4.6223114900860888E-06,
          0.086721528047904145,
          0.03068543753368987,
          -0.027853878269623232,
          -0.072155453897709276,
          -0.066874785090054525,
          0.080679948497129866,
          -0.039386760056343048,
          -0.0033317562612707463,
          -0.00080365282658106951,
          0.053422878991112366,
          0.056234406681075516,
          -0.013040160922281274,
          0.00625141790048438,
          0.040320258393764789,
          0.083682578199392357,
          -0.066176294444942343,
          -0.094110986393494633,
          -0.02284215925482129,
          0.082641168543624619,
          0.031102532904108641,
          0.08812474211644,
          0.058087768190612607,
          -0.024288925048071397,
          -0.052606018055361387,
          -0.11796991008603071,
          0.0090684995571829324,
          -0.013888986212174778,
          -0.074511551699320444,
          -0.040707557219325785,
          0.038699106620197064,
          -0.11784733717103092,
          0.00074812918989935312,
          0.0058437537367507578,
          -0.015592911053702446,
          0.018152454862069088,
          0.011629573267678973,
          0.027425141335753165,
          -0.042871397471331243,
          0.02797972072488231,
          -0.05340808328035259,
          0.0037137059405360439,
          0.00489014004255045,
          -0.0091372389880732176,
          -0.013591713092035248,
          -0.0952435798469723,
          -0.059044241868188449,
          -0.023320214331996096,
          0.023623432603481161,
          0.10753833395793619,
          0.018010020077256057,
          -0.014848799090066625,
          0.026704333318368183,
          -0.0099750757804637231,
          0.03767679657553541,
          -0.11812774220954925,
          -0.032371285420044339,
          -0.021266792482716124,
          0.030539094013455639,
          0.039222072130770613,
          -0.10995694153167695,
          0.0010983700197393807,
          -0.068203531166404929,
          0.032857894631543948,
          0.05361204671112809,
          0.08268794805481737,
          -0.054388873498995037,
          -0.015912708987923758,
          -0.014181779748638015,
          -0.046207940036585585,
          0.05551698086382121,
          -0.00205131110329688,
          -0.12350696824694185,
          -0.02533906083641187,
          0.028314379522608037,
          -0.013158596454286665,
          -0.03387354417790496,
          0.0077709997999982567,
          0.039299337106673111,
          0.038304388330838657,
          -0.023327020818112137,
          0.044113511965420377,
          0.030298391737638056,
          -0.00048303876784081961,
          0.037694327782722192,
          0.0325615149408686,
          -0.0073099664081887348,
          -0.021941410174220695,
          0.040768373724935893,
          0.014800384307414025,
          0.032443903411569726,
          -0.0019431683442607281,
          0.0041872466357390954,
          0.040839809844803517,
          -0.053063917510997788,
          -0.063086328844323608,
          -0.08330125991066159,
          0.01046509907939577,
          0.084143039200543224,
          0.032633570894078243,
          -0.10435391814425053,
          -0.0017131670259150386,
          0.01561365170475015,
          0.068035235585204065,
          0.095906727236887118,
          -0.073170865305025354,
          0.043954763975776766,
          0.0015870495044566601,
          0.0933917887881293,
          -0.027295105007568436,
          -0.014044429892554829,
          -0.029034513280590937,
          0.015976537355481341,
          -0.028577589192356805,
          0.014508890066849741,
          -0.0031454260076440054,
          -0.021226435547995161,
          -0.030949821009748624,
          0.003385553208328799,
          -0.093968913471059637,
          -0.066576454635552326,
          -0.040526816497836085,
          -0.043700483475471272,
          0.0018041677978786659,
          0.0041616412818074183,
          0.032255646667836618,
          -0.063880748242654939,
          -0.072748195054617368,
          0.065757170925410932,
          -0.068464256005290922,
          -0.060045310830457416,
          -0.061110037950345392,
          -0.027075084330221211,
          -0.033953014860998935,
          -0.010401714403131821,
          -0.00046188418209624664,
          -0.0272457934882894,
          0.056416442004859541,
          0.013788101408363684,
          0.00086899800832392494,
          -0.004022873053110252,
          0.02050229945959756,
          -0.0035445448300600365,
          0.09464303417891301,
          0.064289032205036983,
          0.033101727049944664,
          0.019106149331126931,
          0.014953071635928968,
          -0.035437471790574347,
          0.058394039346393097,
          -0.057628609845484215,
          -0.00888781428660997,
          -0.049817324023983693,
          -0.021524208146456069,
          0.038351997006917916,
          0.003391069773355705,
          -0.093887116628851644,
          -0.062326816315512359,
          -0.094198430093489521,
          0.025782562593766302,
          0.1005036214253162,
          0.0044753605348020076,
          -0.087897957979259839,
          -0.029488346471094464,
          0.031277674390372379,
          0.050250992387261773,
          -0.047999350571806126,
          0.0059852237059425757,
          -0.038192846431601951,
          0.016826775178997583,
          0.0055515522560838273,
          -0.0097222957757340262,
          0.010118688006533037,
          -0.13715471502537921,
          -0.011027418393555664,
          -0.022965981360387085,
          -0.041455267270748296,
          0.056136191348845,
          0.13945394685409421,
          0.032795450268283358,
          -0.019749309506712685,
          0.089352678128374829,
          0.03612098559381037,
          -0.019884239655205915,
          -0.038912269547555771,
          0.062547388726143779,
          -0.034684308139271688,
          -0.0372102194746729,
          0.029693333495411513,
          -0.026534063364383027,
          -0.036748471945731755,
          0.095269287080272533,
          -0.05294167311392433,
          0.0072938967407352581,
          0.00677221913777715,
          -0.046598084610311487,
          0.00069686807771513317,
          0.037662828639664768,
          0.029527678296849956,
          -0.022112635653256069,
          0.10820668596508747,
          0.012149436972287727,
          -0.027423464543190553,
          0.0033968717230458026,
          0.06153102142048901,
          0.024690921406160981,
          -0.06041944181252322,
          0.078817938082492336,
          -0.012937452133417108,
          -0.0084534390410705724,
          -0.012865637744214915,
          0.025868899501263389,
          -0.037083574619466424,
          0.078804493149301907,
          -0.056472659060812204,
          0.092067439180909053,
          0.016643319475436132,
          -0.13486481458883573,
          -0.0802270278156664,
          -0.028205264291577818,
          0.027845455891211131,
          -0.018341587046750978,
          -0.007961173916030094,
          0.059208526078250043,
          0.057022480177910839,
          -0.023866307260328609,
          -0.085790635348395539,
          -0.042788279787713629,
          -0.076648933574631442,
          -0.051817528374535453,
          0.022384059659951574,
          0.032689012728506932,
          -0.067235708341143577,
          -0.0631068663344012,
          0.01606326413532734,
          0.019548493752487236,
          0.0031304188919515927,
          0.034839269875736073,
          -0.0626798017482915,
          -0.028385278298816565,
          -0.058793722126916331,
          -0.019863640983757359,
          -0.029038680874164651,
          0.020213026335052415,
          -0.018393241262723535,
          0.0361742168217645,
          0.013757243047908327,
          -0.0012217871605529839,
          0.07907647148239666,
          -0.061052329613050162,
          0.0081278958149548237,
          0.059538312225897748,
          -0.018326943433169752,
          -0.019792920112128576,
          -0.04527625793293464,
          -0.081270877449173329,
          -0.036854118600051326,
          -0.015195296366743199,
          0.067410331059054682,
          -0.0033386043077132158,
          0.040366659316141314,
          -0.025060766123566572,
          0.029469619463266459,
          0.060467436441427269,
          -0.029377121434025977,
          -0.053878415344648226,
          0.096953744868409963,
          0.10868228086498997,
          0.085799533486897672,
          0.048648603372927847,
          -0.049163353736594168,
          0.00438274992422033,
          -0.0191791306310272,
          0.066356754394375,
          0.01928622282034614,
          -0.046581774172177751,
          -0.084817529297682978,
          -0.057551712595582484,
          0.024429634081055026,
          0.033332980841181165,
          0.071189770664104146,
          0.0612251511000404,
          0.048049248141179668,
          0.015131438306733308,
          0.087313855439237961,
          -0.068459643011655608,
          0.023426253329769477,
          -0.0071908600105764723,
          -0.044844841745242184,
          0.029594023245006314,
          -0.062891406963146171,
          0.12090645265085251,
          0.0027677319722726923,
          0.038349928824325544,
          -0.040070705795628984,
          -0.01450961466313151,
          0.064808200210495132,
          0.0474045113224314,
          -0.032116858736603929,
          0.048221694157070068,
          -0.041141255647888911,
          0.071152602734952761,
          -0.065135326184917783,
          -0.066098034786726031,
          -0.054926393357122232,
          0.086499353919452029,
          0.018803950500332536,
          0.034244814924546708,
          0.0043700492530887531,
          -0.017012281021203595,
          -0.036446823070614656,
          0.02391532073773121,
          0.058994453182776178,
          -0.048204302125754731,
          0.032294055336080263,
          -0.040759552942518984,
          0.0689905897371281,
          0.032534060718274735,
          0.016257483369943791,
          -0.00566614205295627,
          0.038466376602168534,
          0.0473196946478937,
          -0.0067886884891633541,
          -0.070275995683417566,
          0.074458853369653716,
          -0.0073254559835702442,
          0.041374897042217793,
          0.095113592718983633,
          0.055269202753892764,
          -0.025636849850035819,
          0.014217375013334033,
          -0.0065350376115800024,
          0.049699253534237174,
          -0.011309044827112837,
          -0.025551897489780911,
          -0.0576455017957612,
          0.065084521122733982,
          -0.04636264934476083,
          -0.016140621153121978,
          0.042250135651335265,
          0.031942148577249772,
          -0.059582929366454436,
          -0.061989176467974527,
          0.024745952886091493,
          0.10792752386701036,
          -0.006965745931336597,
          0.055589063303413469,
          0.057383054259513282,
          0.0728292867053999,
          -0.052460005421334416,
          0.024543705950837668,
          0.04861246675424178,
          0.058724298611740063,
          -0.086280595172581728,
          -0.043661470419841752,
          -0.04450037703884889,
          0.081781205128543852,
          -0.0041768172713443933,
          -0.079393382956878547,
          0.078586868405351271,
          -0.038030245580959764,
          0.010643262446714916,
          0.038607361740899994,
          -0.022282409235900115,
          -0.098910253118847241,
          -0.0208984492278738,
          0.060696511655499184,
          0.084673990164370258,
          -0.10004915667883874,
          -0.0091090166110577749,
          0.092601911500547515,
          -0.10879903284030085,
          0.11327073369570077,
          0.017165820152492739,
          -0.013812838032299973,
          -0.059374764262844638,
          -0.044117108823741882,
          0.021329260657557469,
          0.010997054756962254,
          0.019492767880369365,
          -0.077531360466605234,
          0.014452050544175352,
          -0.04839482519680164,
          0.0071102909539665585,
          -0.012267247035879933,
          -0.0043087742068708733,
          -0.0529039897913838,
          0.031961899258429849,
          -0.062422603643990861,
          -0.13626727469661612,
          -0.052655748344609996,
          -0.040806390941344639,
          -0.01827242500574142,
          -0.048811373334693695,
          0.038103721698446606,
          0.022437363190260382,
          -0.025404311948465656,
          -0.040124230841686578,
          0.0057169067534223184,
          -0.020221757080566404,
          0.008993354338046225,
          -0.016619720316414156,
          -0.012414767537696119,
          -0.079662553234668046,
          -0.11052241232643016,
          -0.035180347835395823,
          0.079725978622522231,
          -0.047351090485547538,
          -0.052892122005477792,
          0.045571469819298174,
          -0.031483851173922162,
          0.018585074298619195,
          -0.011825582010259558,
          0.0072146279766571305,
          -0.10310906055177167,
          0.063504231881067366,
          0.016933446864813469,
          -0.10077656527038713,
          -0.012601899064632705,
          0.03042290127160802,
          0.027267734472406446,
          -0.00088154801132854315,
          0.016132544203207529,
          0.0415961840066753,
          -0.0037548018631514942,
          0.076573773094100364,
          0.058500083130713608,
          0.023898897809472634,
          -0.067915486435312589,
          0.029934304479479503,
          -0.062596721879583317,
          0.041757456630859675,
          0.011376866403489488,
          -0.013562667971655694,
          0.013021196740888613,
          0.012386099117016739,
          0.059912397782243665,
          0.064590216296635319,
          0.034059427823690654,
          -0.048699649503842445,
          -0.04405708423619014,
          0.00652108959835425,
          -0.014566160417873911,
          0.080135851545172679,
          0.078015466455653923,
          0.035750708921861614,
          -0.013500070610784839,
          0.024248171441760339,
          -0.030385846263850085,
          -0.05748777331314088,
          0.033766136467427328,
          -0.020477457725323518,
          -0.076074162577296323,
          0.013247977200062168,
          -0.037614483473155408,
          -0.035051643942461609,
          0.031707414841893558,
          -0.0426936393195315,
          -0.055865546712631622,
          0.085559408903677164,
          0.029521635850630942,
          0.0091527020460208178,
          -0.07620014060824723,
          0.014744568107107007,
          -0.049058676197206524,
          -0.021765345005072604,
          -0.073850989589987162,
          0.0620420812452812,
          0.0010734275540921624,
          -0.0036255627007235952,
          0.01221048219739887,
          -0.014552383200204796,
          -0.010979818781461981,
          -0.045549652224796677,
          0.014942818183983381,
          0.081971169110924461,
          -0.088301417162654355,
          0.044922556865508473,
          0.03439081627129683,
          0.048639990030744741,
          -0.042998820998838116,
          -0.06825272575240128,
          -0.018290239160889291,
          0.0091716258752187682,
          0.034338989170683384,
          -0.0012425857166322054,
          -0.023955813651762293,
          0.016743602330372458,
          0.062662665720919511,
          -0.039707763031169276,
          -0.00010836611208582108,
          -0.03133898922910569,
          0.0016652399648880763,
          0.067149504595523463,
          0.036598091992598149,
          0.010089356925558695,
          -0.023451221177040318,
          -0.041891338769384764,
          -0.06103658143018692,
          0.073378748986976855,
          0.0379046420370355,
          0.051927901317740964,
          -0.052711670938795356,
          -0.0079965871952821285,
          0.047465452962323629,
          0.011872486601557571,
          -0.11052859314294167,
          0.0065828740426526035,
          -0.053843352213463889,
          0.056195134201977928,
          0.11510020989258291,
          -0.096714390882226761,
          0.025278609215831371,
          -0.047223002549757906,
          0.052024269944357313,
          -0.095203402925958969,
          -0.04342483895819358,
          -0.022822479499810984,
          -0.086775314443867213,
          -0.033493758243580293,
          0.061151730187395378,
          -0.013256666400873909,
          -0.062384540748676949,
          -0.01672475032479007,
          -0.031893979381477949,
          -0.053488071070091528,
          -0.0067421805293897573,
          0.0031634445830182115,
          0.033378534702070979,
          -0.12186688816768705,
          0.023399240337168031,
          -0.0464883779855461,
          -0.0045350529642336317,
          -0.080383927950513273,
          0.046115487390140569,
          -0.10105660456960097,
          -0.024488568138325062,
          -0.023760926767290656,
          -0.065448623576154275,
          0.05643751416859933,
          0.032232045293736578,
          0.093375824919881875,
          0.021275380194018277,
          0.044200563575472605,
          0.035110607185014145,
          0.0025081452572750357,
          -0.03540648399229377,
          0.044673036352113282,
          0.011274581233078246,
          -0.0016144698990261776,
          0.073584044122204262,
          -0.041171206723233586,
          0.050947721091951129,
          0.0079400101736768081,
          -0.003288251179188564,
          0.024182027246323744,
          -0.060638154112757588,
          -0.085774932680724253,
          -0.075472528297326119,
          -0.041616179995384826,
          0.032333652534137246,
          0.028533114003153823,
          0.085954588485906827,
          0.036240366284915886,
          0.072103329671355,
          -0.024196201873827552,
          0.0067667288484646359,
          -0.0233125377535157,
          0.035124160108621662,
          -0.020443364353891689,
          0.019248310980514657,
          0.0080420616320051111,
          0.097448054865698255,
          -0.033325093247664396,
          -0.060181562031537281,
          -0.0094150516938191868,
          -0.043259279490475047,
          -0.087591510960518634,
          0.043724346393953152,
          0.0081575114786481915,
          0.018576030766844463,
          -0.083956065228423818,
          0.0089034739303565386,
          0.024299622221800956,
          0.019622435476330979,
          0.03136575374523292,
          -0.019255546387570495,
          0.057291763407961493,
          -0.043255109118760314,
          0.0020630203048395048,
          0.044532470189251751,
          0.074308587149936739,
          0.042052408356121958,
          -0.0060174812756438913,
          -0.077596942489164045,
          -0.011055440805601965,
          -0.00905630793124712,
          -0.047610510691899165,
          -0.065888176838268822,
          -0.063613425793679818,
          -0.00706068367679808,
          0.067532285482794191,
          -0.10398724892964029,
          -0.064815501338181827,
          0.032190186545631563,
          -0.065884250866048155,
          0.10773065864806421,
          -0.05458663461598337,
          0.00919342843959804,
          0.051156722769184426,
          -0.056578543479247324,
          -0.0038051400184785341,
          0.0093469133019114768,
          -0.033586192207229366,
          -0.013083486049616178,
          -0.022136755770257446,
          0.0511740933221469,
          0.034520182783466052,
          0.0077668806865463331,
          -0.0632340896476539,
          -0.055417908510736892,
          0.0895983165997281,
          -0.040448011435572008,
          0.081947328948561174,
          -0.06989329939243033,
          -0.0959941045974999,
          -0.076846872821658363,
          -0.0086113787348137752,
          -0.0029439043865212458,
          0.053953632227057562,
          -0.041878607466728481,
          -0.082925299164254188,
          -0.057853813512921091,
          0.0033779488245593539,
          0.0065511485824961456,
          0.032152264791630011,
          -0.1317842241843977,
          -0.030913615193149765,
          -0.010834960458390906,
          -0.0010905092700964744,
          0.099893212354254385,
          0.013448756357980951,
          0.041016556764399838,
          -0.020146806602017255,
          0.049299293154227507,
          -0.099672832443867876,
          -0.0650425964040316,
          0.0368470348626181,
          0.064174188387304987,
          0.011506940169048515,
          0.06873683838436101,
          -0.016907684461299109,
          0.048430458701682264,
          -0.05986752055427088,
          0.01747188059450647,
          -0.011507395349749839,
          0.09209155479293861,
          -0.022935453476859262,
          0.053730784788984715,
          -0.0012824866585467358,
          0.1308330399448861,
          -0.066568983777171173,
          0.090278397874278146,
          0.021945149685008838,
          0.105724287273775,
          -0.064592660911957478,
          0.030490075968766479,
          -0.027517185375029892,
          0.030883434565308492,
          -0.065140955025446562,
          -0.0034281379188212504,
          0.013311653746099453,
          0.011436778076024549,
          0.035508860474190419,
          0.038294992423763628,
          -0.012222137838966637,
          0.019951709594729691,
          0.0705526379793136,
          0.011242717648982312,
          -0.016151192552155441,
          0.036927755466212721,
          0.015832841953326588,
          0.0026438657207976815,
          0.042295032574724792,
          0.016111685023507568,
          -0.058096031440560858,
          0.0471281119062204,
          -0.05386146572054943,
          0.0705787279317335,
          -0.0074650057533237222,
          -0.082067999329501443,
          0.0030539762982485282,
          0.0571320997080284,
          -0.031672092797054463,
          -0.0068457538646827165,
          -0.1462908994908009,
          0.029935725916022702,
          0.076129955567478785,
          -0.033832788179752139,
          0.027921004297298085,
          0.059521486486377909,
          0.003191104261529118,
          -0.025139501688903405,
          0.087924326795681948,
          -0.059883232955152375,
          -0.032683668128859165,
          -0.0095959421237442749,
          0.047474928342997311,
          0.053295215028100251,
          0.068953340106353636,
          -0.02472627712780601,
          0.037799381397626258,
          0.060392029346993809,
          0.10199278642514512,
          0.042029906580279316,
          0.046086045406791176,
          -0.087187035617066519,
          -0.047639264249916491,
          0.015665937501234083,
          -0.014218688182613945,
          0.10044500938864197,
          -0.0091492146002475523,
          0.035267975804655995,
          -0.0070992262206947118,
          -0.015931725894950389,
          -0.092220998917252328,
          -0.085920882311188884,
          0.10640873482089172,
          -0.020458030414882207,
          0.10077656941632268,
          0.062229131635191892,
          -0.10434624066270891,
          0.0094051500532164531,
          0.039758750642389866,
          -0.020785259697381965,
          -0.04064318819095307,
          0.0091359141609739375,
          0.017290519700779626,
          -0.077631832928597808,
          -0.067060328243059936,
          -0.03042864387908532,
          -0.031846799516567312,
          0.0016839829329482463,
          -0.0027351568735799448,
          0.012518898418632747,
          0.041009615456092621,
          0.0044949447246615875,
          -0.10980144202925529,
          -0.010187119598638474,
          0.038051578152853892,
          0.017014911472713768,
          -0.052382334758173207,
          0.0084846409208562332,
          -0.037887552026058861,
          0.035050739643845918,
          0.0096824591597757925,
          -0.016589809060627677,
          -0.0327881530339116,
          -0.0045758966641045512,
          0.02327891055204534,
          -0.023022599918809044,
          -0.0090647295213732628,
          -0.03495766749755206,
          0.00890777138810645,
          -0.058772160591802222,
          -0.076231911689728538,
          0.013461803254339261,
          0.044754861239546036,
          -0.033463769848158173,
          -0.085413581978562636,
          -0.024081408882761571,
          0.10418327537881271,
          -0.037165302592460217,
          -0.017547483960672381,
          0.0065362007807507373,
          0.16030616657865848,
          0.073610040477273223,
          0.0097035821600032664,
          -0.063360933474057,
          0.062525927120675368,
          0.0081653919605384519,
          -0.0066495948768642964,
          0.054956044860349593,
          -0.0835940890674811,
          0.069446482023979975,
          -0.037699645303678052,
          -0.039606856637842615,
          -0.030172146741027892,
          0.029266412567341239,
          -0.01239186206770913,
          0.059882774039693755,
          -0.014344432992928891,
          0.011150989379799102,
          -0.034241037593726181,
          0.033441271583176814,
          0.0081540981488674117,
          0.011780687155744686,
          0.078271328106113369,
          -0.024954370657694149,
          0.011451676323480008,
          0.10230992769726996,
          -0.0412626124993809,
          0.076662550811439953,
          -0.0253618441014951,
          0.043451499936563338,
          -0.0883852102920937,
          -0.058900910938425054,
          0.0048100586189166149,
          0.053265295235366862,
          -0.044899226757381339,
          0.073218518320530682,
          0.0028643565316809425,
          0.07002093049663069,
          0.021485658168885976,
          0.055913722258565217,
          0.065978478352826733,
          0.0096416395573592061,
          -0.056827990346387677,
          0.0653323522322325,
          -0.036876471782557214,
          0.031754778915742549,
          -0.0036152696767836586,
          0.043058989515013163,
          -0.038410513916269311,
          0.025297178728967504,
          -0.065895791593897829,
          -0.059790200645589341,
          -0.044244871963592579,
          0.088605274175707224,
          -0.049006959931133451,
          -0.046519299804744944,
          0.038537781325807978,
          0.064173085922750853,
          0.0022358439655190032,
          -0.11630691467569081,
          -0.0087746597628100571,
          0.058906365496534746,
          0.049214365574895044,
          -0.0803034013570602,
          0.031069184066379117,
          -0.015137116910504322,
          0.043303752155760135,
          0.015592974245181983,
          0.0066944020546015363,
          -0.056820858444725217,
          -0.11944552771779225,
          -0.094381020820441308,
          -0.054987786542353687,
          0.069910610152544767,
          0.034998800830905175,
          -0.057201849283092458,
          -0.095480284233978779,
          -0.044823420591302579,
          0.048569827380780362,
          -0.034388067449043783,
          0.004162878651896156,
          -0.028985181777722361,
          0.011167317501304272,
          0.050740415364029123,
          -0.016673681318813062,
          -0.068396559680818814,
          0.010783156414961304,
          -0.024200502960083092,
          -0.00033348170322497418,
          0.064044359658985223,
          -0.020384876762748794,
          -0.052297027247315615,
          0.0053201393817664819,
          -0.019980824862102932,
          0.0099652063785437422,
          -0.019305036314432804,
          0.0013825318748278582,
          -0.050445518186996482,
          0.036711101675543908,
          0.033568011957534956,
          0.0027569781093968486,
          0.094967655214155788,
          0.079822197021588173,
          0.0051938939897154387,
          0.01031283530377341,
          -0.055478541487648018,
          -0.10956433704936365,
          0.072888766773270677,
          0.016560296430519251,
          -0.025769559976903521,
          0.0285018780157969,
          -0.011262469719659421,
          -0.089900049489027634,
          -0.010811663902475739,
          -0.054297042916522459,
          -0.012687873189329353,
          0.027872640099741178,
          -0.0037328452946924886,
          -0.09986939137147928,
          0.011449719587767549,
          0.023005574197634642,
          -0.064796452796841653,
          -0.012357766165132497,
          -0.071286213710744714,
          -0.0062135172810233886,
          -0.00035114352953936071,
          0.025202483900852116,
          -0.048282705675149806,
          -0.033634389109621986,
          0.0776974883443069,
          -0.037882771087632418,
          -0.031887930513160016,
          -0.02698098348952525,
          0.021522150165240193,
          0.0022094391710371286,
          -0.031513484465620877,
          -0.019149699765924982,
          -0.028561063550165119,
          -0.0071478913520387488,
          -0.012760970606045101,
          -0.015199388154852955,
          0.016777048540259,
          0.0080171897261099336,
          -0.0024859363554276333,
          -0.11276760481266505,
          -0.022189904151581757,
          -0.022413570158353879,
          0.089553187688714453,
          0.056591397569844812,
          0.019595510174634227,
          0.015224769338649522,
          -0.057923780752149087,
          -0.012215571943395554,
          -0.0739326916496717,
          -0.10242273676822622,
          0.053749934765059612,
          0.031204175839868419,
          -0.04924352558836103,
          0.0028846620444578186,
          -0.00085204319051963417,
          -0.09905749299929606,
          -0.030129182271857971,
          -0.016152477650669961,
          -0.044675742040049857,
          0.055859739115484572,
          0.00783611399005192,
          0.088421586569862529,
          -0.0070563652349127136,
          -0.039947714703702952,
          0.031714631871676995,
          -0.10351328246128497,
          0.022511800038563998,
          -0.0895567443850986,
          0.04216345180903467,
          -0.093290571170974335,
          -0.059432195446121806,
          -0.056756631455476422,
          0.039131901050956673,
          0.0804821896698534,
          -0.00022089674580546046,
          0.00469549506770621,
          -0.039226314593103863,
          0.080272966104197013,
          0.017764312455920694,
          0.0061068401278404506,
          0.036716463272224477,
          -0.043506942252283715,
          0.031114853587062404,
          0.002753068385000253,
          -0.032913855872862961,
          0.05280314227444572,
          0.01645289986798161,
          0.029655057587087908,
          0.045675020288004305,
          0.038800818393301476,
          -0.037253912395901437,
          0.023504116869275102,
          0.023177577442881785,
          0.045366409572689573,
          -0.020322626367815091,
          -0.022067609595985534,
          0.07493889183193253,
          0.017394220854796725,
          0.017066605064395134,
          -0.022216308531704313,
          -0.033668692087469365,
          -0.02270041612193657,
          0.019066386357969079,
          -0.0016939465011067785,
          0.034119581369492342,
          -0.00076537492876230175,
          -0.0639787128032251,
          0.0026713942446212557,
          -0.081990060381950738,
          0.0259867308993304,
          0.0030591304067724753,
          -0.083610709638489281,
          -0.012715530207736135,
          -0.020096639651828764,
          -0.01214805380208149,
          0.035300128240197085,
          0.051100868684628029,
          0.070982751522466581,
          0.022424882915012691,
          -0.016961280771446055,
          0.10124352735764468,
          -0.020567628541390517,
          0.055329413268974247,
          -0.041863075183092964,
          0.023570068248889214,
          0.0341257477690365,
          0.032494813389949716,
          0.034586967652130256,
          0.035841766662391063,
          0.0041347617503983821,
          0.013490426312628949,
          -0.10160132302684044,
          0.055841310272576862,
          0.076006629571979581,
          -0.025693977381316215,
          0.041765825461455387,
          0.082747251354429119,
          -0.014122309056068968,
          -0.036425205172226187,
          0.017878359143590823,
          0.015973535370753193,
          0.015830256570556762,
          0.034336709359792605,
          0.043699916754745265,
          -0.036566131742901707,
          -0.041876691391050568,
          0.033320761089314976,
          0.0034919883689938386,
          0.11043233128245665,
          0.0040318178190073238,
          -0.023599712041880581,
          -0.022604586154294521,
          -0.019665508721625514,
          0.058259262711333214,
          -0.066200049362050123,
          -0.050838463154047706,
          0.0617603404946599,
          0.0097476242208017413,
          -0.0024597300320256853,
          -0.031668523872193405,
          -0.020015831588170063,
          -0.056924369732726889,
          0.047766726861810285,
          0.054929954686213339,
          -0.023067478345301463,
          0.1303361863480175,
          -0.03159805092018951,
          -0.054990911944862143,
          -0.0089926812076574544,
          0.12459698143803136,
          0.092742534576176761,
          -0.028045788128586546,
          0.083244084691339662,
          0.029699988978978697,
          0.027064143562128697,
          0.0747716981392112,
          -0.081009067373034691,
          -0.043117142918491239,
          0.037456508112015244,
          0.00073368630302835078,
          -0.029818604571363344,
          0.013977347914456989,
          -0.020974679073860057,
          -0.048313348503171295,
          -0.04837347004946288,
          -0.09841723751713416,
          -0.023757809029556105,
          0.0055665192410746132,
          0.027235322003944011,
          -0.091746937997555067,
          -0.0019559137363749858,
          0.030055435063633864,
          -0.04913374770858546,
          0.0079706644474980323,
          -0.0011320474057989053,
          -0.12137483395324075,
          0.053924989409410255,
          -0.040937538473648533,
          0.051261027370859476,
          -0.02698246412235044,
          -0.012436286013756116,
          0.06591630675410208,
          0.036453968497983567,
          0.0067407566347190634,
          -0.084780446139897936,
          -0.0016711501008961716,
          0.010237268869106779,
          -0.046326133720123251,
          0.079789130869129476,
          -0.014674646960722475,
          0.022229925398200696,
          -0.019223442073668703,
          0.0078269810472802979,
          -0.046709940998909849,
          0.019450577486148975,
          -0.019061537251952986,
          -0.0009543236889359161,
          0.050800774253372094,
          -0.0053686221911500341,
          -0.016634449169383211,
          -0.00916826284295718,
          -0.020027798291085575,
          -0.0660071457191958,
          -0.034352920388921064,
          0.021958021174371387,
          0.060920399567600182,
          0.0020395193602830495,
          -0.068391512537192653,
          0.035372253475891915,
          0.11029656223233937,
          -0.0015340358669875655,
          0.06208577418728433,
          0.013547770760100808,
          -0.0099222763063281979,
          -0.030071180266881225,
          0.039741014183226689,
          -0.00013093095944633843,
          0.067158894096038188,
          -0.050702088156693491,
          -0.072026408813416959,
          0.018211385156418868,
          -0.083478419959455541,
          0.012397379366151937,
          -0.038496433669778833,
          -0.0741196442674479,
          0.046097047949042631,
          -0.044532899286772183,
          0.0016240569976372489,
          0.03058658386655343,
          0.063115955625622666,
          -0.0093725821899738049,
          0.020498264806710922,
          0.014892542732349618,
          0.012941193690703909,
          -0.0097726105295483836,
          -0.010442853818849619,
          0.014447728878272607,
          -0.10925041965223709,
          -0.06989085460910216,
          -0.032537937238560084,
          0.0017856323539352764,
          -0.037996259810420166,
          0.089818788203346142,
          0.0405951160499848,
          0.049508858725649876,
          0.0091475726321691691,
          0.021268059229689718,
          0.010770645929761067,
          -0.01817725158197735,
          -0.080139866428036263,
          -0.08926530482333446,
          0.046248155253812845,
          0.015513178708873024,
          0.059847326356230648,
          -0.0882479687737458,
          0.047598300722555262,
          -0.015281625044745095,
          0.00795926363346235,
          0.0089473534954706,
          0.024168239158372098,
          0.025171055103787997,
          0.013391452097475326,
          -0.0531322672403449,
          -0.015303901921053163,
          0.042485203341562493,
          0.038549751497390969,
          -0.016563214097280066,
          -0.0456638926117225,
          -0.02351620871141127,
          -0.089033583126548507,
          0.06075310166090199,
          -0.0576570661716423,
          0.013168930192100655,
          0.051424460937071793,
          0.010740095058966023,
          0.025479110801787188,
          0.036281135903888193,
          -0.070955267992478033,
          -0.015982857601618373,
          0.086630645158374944,
          -0.13482370785795181,
          0.0787992012579718,
          0.06830068540291416,
          -0.004671905104262325,
          0.11547845899480418,
          0.030572194767480392,
          -0.092783863569616765,
          -0.005405564307253358,
          0.093765300686381878,
          0.077224103105653127,
          -0.0071113601816517229,
          0.0014433358668853378,
          0.0045750583211996779,
          -0.09632438315192586,
          0.029116281427665511,
          -0.0013194898643368838,
          -0.055585554832739546,
          0.011125926957171923,
          -0.048729207903555831,
          -0.031241404091369093,
          0.010499683092058596,
          0.056647456728050986,
          -0.062789936966478832,
          0.0038279296750587115,
          -0.047307044358686129,
          -0.067382868866658313,
          -0.12744283614426116,
          -0.090220867692735351,
          -0.01949666366372366,
          -0.080285321442185836,
          -0.082907934160393,
          -0.034571414321007216,
          0.031173822399558411,
          0.014014826732364311,
          -0.033261830378094527,
          0.0021596675036283683,
          0.049854092038455776,
          0.050416710518251945,
          0.048231087927882249,
          0.046690345236697885,
          0.039581659289470189,
          0.015667333284566945,
          -0.034364530554845604,
          0.00010096616435358696,
          -0.036224933407156913,
          -0.0077129544918994528,
          -0.0046667360360249524,
          0.010076069352263413,
          -0.014267095404371313,
          -0.014027615317984984,
          -0.0034281004545237679,
          -0.0031634687661149983,
          -0.0090110188130691268,
          0.059524055332989968,
          -0.055422791053384615,
          -0.0090029429268363159,
          -0.019969332486615931,
          0.045117533399195421,
          0.014072522266812354,
          -0.038378737357637492,
          -0.09175449983254326,
          -0.062070803573772607,
          0.0011396499700618043,
          0.14187657734752929,
          -0.0061789213137327112,
          -0.11461314046837492,
          -0.00511901018543698,
          0.076521175554206566,
          -0.024526539579377012,
          0.0054905283966283688,
          -0.075705264131393238,
          -0.014529159224071022,
          0.064785754398470535,
          -0.038596913528502821,
          -0.10396110276211196,
          -0.038358105801359343,
          -0.033522038626566227,
          0.055998553806862139,
          -0.062992242665379866,
          -0.0026318118436081429,
          0.024668580182908007,
          -0.051220151004018763,
          -0.029045449370928771,
          0.064493134443208866,
          -0.018296899637381878,
          0.0040631994698312988,
          -0.0032921269043608313,
          0.077003532612356429,
          -0.013381125909987,
          -0.07526188422397137,
          0.016961537777826059,
          -0.013704310457581605,
          -0.042165169073870863,
          0.021452278313973158,
          0.04526985084122255,
          0.026507050379616138,
          0.025028912665153797,
          -0.062685998554170036,
          -0.0057851591540157375,
          0.0415775170366084,
          -0.0026722298919902949,
          0.00088661746564026346,
          0.016317268695083893,
          0.013673700348138213,
          -0.021290616671262655,
          -0.048195839074994307,
          -0.058564041694131173,
          0.013415829242793676,
          0.043238769723057104,
          -0.0099904103833736262,
          0.0093234454564975859,
          0.011733824739469653,
          0.034876919390862272,
          -0.023062801284243584,
          0.044321356486176459,
          -0.064164542085741919,
          -0.081465969605008168,
          0.044843766290262356,
          -0.018094046738048132,
          -0.00052909716896216768,
          0.038297233275690838,
          0.016970505080800009,
          0.012031432939882606,
          -0.09595817241525155,
          -0.027054182925563327,
          0.10917417877766049,
          -0.016906753065617102,
          -0.01649119887491424,
          -0.033361720156299832,
          0.01851293094304967,
          -0.04249511614920444,
          0.029917959799769491,
          -0.060050858651205678,
          -0.00067550450188135836,
          0.011825589986437244,
          0.098060470911410139,
          -0.026314142067846543,
          -0.0019747916108054406,
          0.029330367399666348,
          -0.045146522966522031,
          -0.019159521388702496,
          0.0576388099885622,
          0.12855586968081115,
          0.043430402040955336,
          0.0013371828643755595,
          -0.025902631236452114,
          -0.035127697438952,
          0.060029215410092485,
          0.063540694358564243,
          0.033498100163391414,
          0.046043204909762041,
          0.085034619739686193,
          0.051357114479459537,
          -0.010417775858447208,
          0.014031337885770026,
          0.0538163934554809,
          0.080364270133393742,
          -0.046980686280405838,
          -0.041695498601826572,
          0.056163894823706879,
          0.06509166680140871,
          -0.032834012894314618,
          0.053157792858613,
          -0.044420417721740955,
          0.012229510692681236,
          0.0019832327625794377,
          -0.013464384591553797,
          -0.0926395332075723,
          0.08015381280234074,
          0.044337014751294493,
          -0.0035261279958155312,
          0.013064050899780912,
          -0.10031631078405348,
          -0.044539263347611595,
          -0.0213435208171737,
          0.0088907356824515175,
          -0.15111272618908908,
          0.042933260160656433,
          -0.02897043740419963,
          0.021801408934181303,
          0.053813795715211568,
          -0.081131229455338849,
          -0.046375104613127278,
          0.031355408022939436,
          0.0067874100684008646,
          -0.012449441100469621,
          -0.022595478774433572,
          0.071571137340720889,
          -0.015072290024772375,
          -0.00043050900836147756,
          0.0063143561830099311,
          0.021767047909656053,
          -0.0042104700729350356,
          0.018340807629868602,
          0.0046547851643658541,
          0.025384773276522717,
          -0.064852502889994876,
          -0.043754745627450027,
          -0.076932969247993283,
          0.074883798085410416,
          -0.0021875070448816635,
          -0.0084848871826043275,
          -0.02912522676444643,
          -0.021362720829485177,
          0.03369648681840947,
          0.0038984732840716676,
          -0.0825453199455566,
          0.029358690503998211,
          0.084796172933854039,
          -0.057731624444469852,
          -0.040427305122915119,
          -0.049967772518645787,
          -0.001374358610692085,
          0.032697459425651582,
          0.062614733059004946,
          0.0073154111258150727,
          -0.0035616286898946677,
          0.13416573163373435,
          0.060244439272718109,
          0.057870818804957348,
          -0.08429976605079928,
          -0.00189484693453024,
          0.13534055476075643,
          0.10286042302438642,
          -0.019159314364530614,
          -0.013067329896328203,
          -0.040864927120102278,
          0.044948884400230142,
          -0.055939248284245187,
          -0.045270142645504531,
          -0.013283459672362835,
          -0.022019748704928288,
          -0.011379020975689281,
          0.1291151358683682,
          -0.012361491669890715,
          -0.016766227651904751,
          0.04482793045356908,
          -0.04378017922877963,
          -0.0759037188338375,
          -0.041457221143009405,
          0.033569483643296705,
          -0.019690134747875957,
          -0.087659331075223682,
          -0.033156837177549012,
          0.097501944368868221,
          0.040798956395964134,
          -0.072435207475463365,
          -0.0099864623741019124,
          -0.026388458314953848,
          0.002336554649392265,
          0.055721037393473817,
          -0.018325422401223625,
          -0.02351575356962839,
          -0.022627570629418683,
          -0.055783785789163848,
          0.016719603491925521,
          0.05915980124834766,
          -0.00811628355304601,
          0.038378687355408551,
          0.0381656064925421,
          0.0154499600577622,
          0.0035437675928835333,
          0.0058024094719913519,
          0.049984964899511659,
          -0.023779513360469053,
          -0.024526148142156777,
          0.020065091080276213,
          -0.06834385521002713,
          0.017952262273821937,
          0.0018773122899917282,
          -0.0076353839865922618,
          -0.0683509453350423,
          -0.0070448290947795469,
          -0.0087346932238620955,
          -0.10296463558611889,
          -0.015358303956420422,
          -0.017304231692983844,
          -0.056244933652174457,
          -0.024289899963526238,
          0.038823956235618989,
          -0.067360834466756253,
          0.029147756239578666,
          -0.01315009484326987,
          0.078477812582619766,
          -0.014388881598655718,
          0.066604188870409572,
          0.0033174519905713904,
          -0.08909368499974,
          -0.003333636402153992,
          -0.062717388037015848,
          -0.0121785450463498,
          -0.0095087343646787573,
          -0.0395393671884962,
          0.13126961366308459,
          -0.0475443212669195,
          0.074064855482377928,
          -0.013945869036574587,
          0.013639176662560565,
          0.021388454580903098,
          0.032587251802608033,
          -0.071841801410922973,
          0.011327954589739266,
          0.006754032996406977,
          0.048897355799546342,
          0.0478133354941086,
          -0.0130710107477186,
          -0.039619504851483481,
          0.061862805322614178,
          -0.0023417374125988652,
          -0.070674732870502854,
          0.052221715512633264,
          -0.02263064453913307,
          -0.089997194715289025,
          0.016171353484709362,
          0.011676193353239833,
          0.039025469286358791,
          0.023973425588370009,
          -0.06452659745290476,
          -0.0038298031793572115,
          -0.046932608850801152,
          -0.00840574061250491,
          0.12969108255292786,
          0.080215081543087763,
          0.054013836504214874,
          0.014619116262918598,
          0.081756920207769271,
          0.054741317635560463,
          -0.041198523757617185,
          -0.041895113153486319,
          -0.011032287054378729,
          0.10567532023284686,
          0.10318664536410342,
          0.0012510229168116839,
          0.022427165149230471,
          -0.010257634738705572,
          0.014224449282060707,
          0.045458717566022933,
          -0.01046713907004468,
          0.0127074956581148,
          0.069443357051408847,
          -0.045639870383538533,
          0.02821334144121956,
          -0.079450092669986,
          0.069700320467943444,
          -0.013709030451478149,
          0.053963240788319392,
          0.063226405945306166,
          -0.057239684580388278,
          0.010572960454569399,
          0.016095696694018786,
          0.094128500073950433,
          -0.0049027587298708661,
          -0.063606690988970677,
          0.060444368652856767,
          0.028498653188945226,
          0.016136734686846375,
          -0.035355866863278171,
          -0.0032641757194252579,
          -0.028723304942567633,
          0.074875572564636755,
          -0.025438515518103041,
          -0.0098323749591534542,
          0.041851690652483176,
          -0.01216226702820376,
          -0.041584793706559479,
          -0.037692727530039369,
          -0.094787073885880466,
          -0.015694678349937919,
          -0.054388074423866631,
          0.015705185763382517,
          -0.0062569248651248369,
          0.032897570209703027,
          0.014745516896471264,
          0.017298718953841795,
          0.021143366073615534,
          0.01956774946770529,
          -0.0773264959549083,
          0.10128080506299041,
          0.015211769870839071,
          0.0098379279212840384,
          0.0030746867200099883,
          -0.042020230809670794,
          0.036397297194586148,
          0.072670922118818732,
          -0.065587235661746665,
          0.11718489887170498,
          -0.067207382027395693,
          0.037891970018323985,
          -0.0024042204273787395,
          -0.01513771170104831,
          0.043149231247477722,
          -0.037733265489938286,
          0.0054655015361658368,
          -0.048136181854292963,
          0.064558829941640319,
          -0.047013261458088804,
          -0.029108982347823671,
          0.037464755104388132,
          -0.01716379651153303,
          0.008971227764156077,
          0.042526007213521781,
          0.099849993298370687,
          0.020353547184262584,
          -0.013886323091219286,
          0.046444891731411114,
          -0.034646106471926209,
          -0.0064686647687639248,
          -0.048505114934981317,
          0.025409260335898156,
          -0.051663715886408515,
          0.00047835238145435408,
          0.015771179637586865,
          -0.010206471424092216,
          0.0991770063350516,
          0.10750645540271714,
          0.023491795707099094,
          0.0092241827301480488,
          -0.0058133750168094245,
          -0.017932823864761947,
          0.0082142333272410932,
          0.094618012841110571,
          0.022612517942645207,
          -0.016894164514128476,
          0.010285682319907372,
          0.025938662545979253,
          0.012385196788172554,
          0.058406725678488064,
          -0.050787747354718742,
          0.062515568531564841,
          0.052785285882525249,
          0.024954301269989695,
          -0.011256427395696909,
          0.089515875348419968,
          0.039133630836096292,
          -0.063434724729486053,
          -0.0018010604104523832,
          0.028322624349191569,
          -0.1078565500936432,
          -0.04214647029535485,
          -0.0020200754611796028,
          0.033917892684549839,
          -0.044405212494407167,
          0.0660987684521146,
          -0.017296010444455577,
          -0.074560493306420644,
          -0.020906585677955208,
          0.0016329796785438402,
          -0.10115822716767756,
          -0.13169440662472229,
          -0.015723793291682858,
          0.018541427843587491,
          -0.036840689308151667,
          -0.08012443644223155,
          -0.013935354810842154,
          0.024958786320238444,
          -0.082540425957058169,
          0.020976588542386036,
          -0.10490446914833546,
          -0.064962805713223548,
          -0.0018343567732890301,
          0.056473019413294349,
          -0.027368421827868767,
          0.021013848696571306,
          -0.029992151729350217,
          0.079535049213154865,
          0.069053177325634013,
          0.023303439487506915,
          -0.10791746574500823,
          -0.015826056444342707,
          0.013610917808339677,
          0.047589671993490935,
          0.0099807599985485551,
          -0.033177794572925835,
          -0.024235431467853331,
          0.0629875002652433,
          0.019112714289955188,
          0.067869293388282848,
          0.054376661654598653,
          0.0437294700618904,
          -0.085882604598583837,
          0.010641897299978676,
          -0.025213186213990404,
          -0.040621679595522653,
          0.0965329949886093,
          -0.024325547874284495,
          0.015129993840104338,
          0.048108854864811354,
          0.014728874693038305,
          0.092671530558293566,
          -0.0069907574422020296,
          -0.010618371677180865,
          0.065775384171957565,
          0.034960066146392521,
          0.019743625726186476,
          0.014273892633757029,
          -0.0272910423851544,
          -0.014788935257312025,
          -0.037580728563958908,
          0.047827191765200436,
          0.065305717624764129,
          -0.019703039469634774,
          0.0028969983738211013,
          -0.062502409480932511,
          0.025912426826040849,
          -0.034890022234911895,
          -0.14447122200249929,
          -0.025109663754665314,
          0.061018807856493905,
          0.016948103972933903,
          -0.012238906858458002,
          0.055830816958200254,
          0.012940274216052502,
          -0.033406944571050555,
          -0.016487906850211561,
          0.00090423232772269971,
          0.036046942968803848,
          0.0032104032451822058,
          0.083503746600075063,
          0.054713270780243843,
          -0.055614075022080836,
          0.055908351346615814,
          0.041203789255194558,
          0.012164077911767181,
          0.040959663519291964,
          -0.051121234051431909,
          0.11452875473506008,
          0.001998919694928557,
          0.049893746692082484,
          -0.010395750951917245,
          -0.022769402925130137,
          0.10011524483403818,
          0.068220622626393293,
          0.016928990953582673,
          0.051629046240904274,
          -0.019228302814079678,
          -0.024179759205495668,
          -0.031605659696924082,
          0.03114349309386559,
          0.0027381845253967776,
          0.0564383865065594,
          0.0402276074032025,
          0.023062248002205174,
          0.06617396364301753,
          0.041174175468087458,
          -0.023708100401312885,
          -0.0855211160683161,
          0.043518687575910833,
          0.065870507158551486,
          0.022805428053522238,
          -0.027697571326223622,
          -0.012616836778583327,
          -0.022243629611995431,
          -0.0357588069071021,
          -0.075186184138414269,
          -0.012545606202833666,
          -0.049727710696553025,
          0.091560483800025988,
          0.045685882748710618,
          0.0062877566324363691,
          0.013238861588106226,
          0.086771684690771539,
          0.03315736432160659,
          0.044757299299645406,
          0.037499972971549674,
          0.056451407421486112,
          0.073695821238804624,
          0.0028258920646565245,
          -0.053732419029065635,
          -0.016806822160409247,
          0.0087896370261073015,
          -0.030032850685081283,
          -0.049595896191197128,
          -0.051953355817973064,
          0.011781337209550807,
          -0.018519186696459529,
          0.0028802695912177223,
          0.036237412417321757,
          0.038838356751686495,
          0.046499893788251923,
          0.026454649702223627,
          -0.044416800439211077,
          -0.0071166984311219162,
          -0.053668630848916175,
          -0.047960971427622116,
          -0.016468080283980613,
          -0.022408975342120892,
          0.0048699644278511391,
          -0.0822743495192136,
          -0.00085861332929682162,
          0.0066793170169522371,
          -0.011408141808500661,
          0.045160039627247094,
          0.020843256557375876,
          -0.0684761973033899,
          -0.026806701690954254,
          0.063843512138759634,
          -0.03214405177474116,
          0.0056843426796747221,
          -0.06705466618812235,
          0.019576391364248793,
          0.12654523287852895,
          -0.038459053119621806,
          0.039749974494187094,
          -0.024834070976560894,
          0.0202452692568008,
          0.0049805638423479582,
          0.091161496156540942,
          -0.0409610265793004,
          0.082064999334370684,
          0.039526026790441392,
          -0.022921153607649875,
          0.0652274612283291,
          0.0067023170250048109,
          -0.074822880058223684,
          -0.017844126436297968,
          0.02016575323905016,
          0.048972787246525352,
          0.0058320231219144564,
          -0.097553934128903314,
          -0.015280540269456645,
          0.024876325080788787,
          0.019240235615039073,
          0.028961956219701372,
          0.045437269421451709,
          0.037092887136338626,
          0.047057602740937267,
          -0.0638695820953123,
          -0.054562007096950804,
          0.0355788631454668,
          -0.038761709095803475,
          0.080545721599439943,
          -0.04197559407567119,
          0.0001752133558813566,
          0.020805493885092417,
          -0.048554205165514383,
          -0.05180979923315715,
          -0.012902377372060906,
          0.057545847518596517,
          -0.0802317268548106,
          0.11110845921835849,
          -0.10171933428313229,
          -0.042418389773155749,
          -0.016110860707277224,
          -0.042505475111892212,
          0.050125413701216343,
          0.061405121888965949,
          -0.034463733534167471,
          -0.00812443104333779,
          0.089220449688801218,
          -0.027360358218641717,
          0.002848801419234057,
          -0.048728348281847196,
          -0.0055014418665996663,
          0.037650737518559095,
          0.024001660884097248,
          -0.13494636227504508,
          0.02738113019421623,
          -0.035723489109338209,
          -0.025792121291708086,
          -0.020518664840457442,
          0.025343779095648465,
          0.017745573927887753,
          -0.0025658564270275679,
          0.043203556943012131,
          -0.0078392517110742257,
          -0.044991458263956882,
          0.000647193334638689,
          0.026432851187769609,
          0.015656282833452714,
          -0.088096685103242867,
          0.0047016388488113512,
          0.070135435105709659,
          -0.0083780035190801384,
          -0.041374455182956592,
          0.054899122484503619,
          0.036824561473535918,
          -0.060399721792357308,
          -0.072424539952209571,
          -0.035481799053821324,
          0.012070775806105466,
          -0.01471507887528916,
          -0.043138023214213089,
          0.021373567174309358,
          -0.020360313892699156,
          0.053305179028289483,
          -0.076655478943949334,
          0.071009359736831951,
          0.014024512682585718,
          0.01078366402746456,
          -0.083609590326314071,
          0.030228541146670854,
          -0.040639663431695366,
          -0.012012131127373387,
          -0.038604367405613814,
          -0.04506487914169046,
          0.017206607265802032,
          -0.00243912048290625,
          -0.092705211264545256,
          0.029738287136870146,
          0.081671631760735122,
          -0.063092430946893166,
          -0.037578031781847508,
          0.11468119290039924,
          0.016588447524452585,
          0.0010221114592300451,
          -0.031859622872966578,
          0.029734776944454103,
          -0.041959326136876064,
          0.044343340372478939,
          0.039830509509778726,
          -0.028045107294321903,
          -0.045528830389879177,
          0.069269360992734258,
          0.030602737702673695,
          0.11482104251968407,
          0.011046575130924564,
          0.00884964962981855,
          -0.024740529915075898,
          0.074975533120053242,
          0.0047097227069814833,
          0.018730350189379782,
          -0.06491067996173501,
          -0.0046005642927045782,
          -0.013745590179339082,
          -0.04862298594471165,
          0.087927713329603863,
          0.01561718832159634,
          -0.037740836588635487,
          -0.057842823636088808,
          -0.075820489731907845,
          0.041450387285267357,
          0.00039626593510055756,
          0.06467063668255886,
          0.086992371493711335,
          -0.0066664776940959592,
          -0.057874814446295955,
          -0.036397159068740796,
          -0.00069943976132546973,
          0.04650260702636641,
          -6.0578650617583628E-05,
          -0.032547553968012642,
          0.073968458682780416,
          0.046460264547271882,
          0.040010089770709335,
          -0.013885096752396117,
          0.041851674290795678,
          0.085635398705866173,
          -0.03547597636627664,
          -0.045199103270151572,
          -0.044300820478232944,
          -0.064857273786211422,
          -0.00363219894247489,
          0.009692097581130427,
          0.0069782510245862206,
          -0.17026131544882914,
          -0.00769799240888156,
          -0.013071598790116717,
          -0.0078340490861328813,
          -0.019239604297676936,
          0.091027261281113367,
          -0.086194881904935267,
          -0.044757728840596374,
          -0.10355607366811553,
          -0.037550077013741509,
          0.11021248655167956,
          -0.036162830766142143,
          0.073127229254321136,
          0.039132278386596067,
          -0.0055850299687103177,
          0.026047772774423671,
          0.0775423639161682,
          0.014669451818074292,
          0.044787870890950085,
          0.0058471219171253022,
          -0.059257724185164673,
          -0.072124484853374082,
          -0.024491742680577442,
          0.021458124753909423,
          -0.015740115744890652,
          0.023420112140566728,
          -0.087817017946544465,
          0.062505918199864827,
          0.10983177404262602,
          0.03859066874033143,
          -0.034379246665874184,
          0.0067516680571370977,
          -0.029427566957066918,
          0.0875431758350043,
          0.094817650025469782,
          0.068608227068569783,
          0.019293742116919685,
          -0.0033715895209019916,
          -0.023548209868430474,
          -0.043194304658145076,
          0.039658993839612272,
          0.031929111407432632,
          -0.01616460540244331,
          0.063068775698603641,
          0.1036876407425634,
          0.0038401174298691269,
          0.055359182192796834,
          0.0058934471655558724,
          0.027424672180746342,
          -0.061647761282387657,
          0.042372996811188758,
          -0.011976593652820295,
          -0.0073956542181154231,
          0.018444981949226343,
          -0.029241561574382961,
          -0.030725944101358382,
          0.0047717910321433375,
          -0.040621648248055406,
          -0.019188898146534291,
          -0.017048642112934907,
          0.038392036208312205,
          -0.013456289795344698,
          -0.026830370728189411,
          0.029652102558256784,
          -0.022190023982595473,
          -0.02502241046244728,
          0.027783994789298473,
          -0.05536087838163295,
          0.064421202219056908,
          -0.033560725392171316,
          0.041311749479232142,
          -0.048680892284517857,
          0.079737986393492236,
          0.012899853544410587,
          -0.094730081406045635,
          -0.0074832406751384646,
          0.070284204966731142,
          0.017708546369595596,
          -0.039774538100325184,
          0.070314419769269013,
          0.0611639142008846,
          0.063868852899953435,
          -0.0023865231041492888,
          -0.0750695148903258,
          -0.027942838633975359,
          -0.061054378562051252,
          0.059251411037393828,
          -0.012806561605338952,
          -0.017050022805172038,
          0.041902834088192266,
          -0.012222485412417853,
          -0.011346109336334436,
          0.0081663497492832429,
          0.013945698987536561,
          0.0594868984553185,
          0.081843548763648286,
          0.0660036911768022,
          -0.0085099906940790376,
          -0.07822011161869781,
          0.010301055845865055,
          0.022799136021396525,
          -0.004866510851346836,
          0.06496766351513697,
          -0.037529508287045987,
          -0.0014622770993207442,
          0.0497231209700954,
          -0.08265345383179333,
          -0.034526867582129382,
          -0.05765963808673006,
          0.11370796333684022,
          -0.031780538672512494,
          0.0077471488600632295,
          -0.021110628234150483,
          -0.036590553483604363,
          0.0460623265883613,
          0.012869521906300526,
          -0.048918367171405547,
          0.06639188108849986,
          -0.0227085092684312,
          -0.12964594464715082,
          -0.043587821661386722,
          3.0317915313938624E-05,
          -0.038058033444766631,
          -0.049108631397350021,
          0.054572923243743007,
          -0.0037419122186733286,
          0.053553484709806434,
          -0.022752170522603917,
          -0.025449334526428828,
          -0.01365746878196478,
          -0.0068440336320923865,
          -0.10382824004119173,
          0.017072752307546377,
          0.044566439137970495,
          0.062556914853920786,
          -0.067613950021790561,
          0.04002931836126955,
          -0.058527790304565057,
          -0.059284029874884042,
          -0.084774535564296261,
          0.047915457668103935,
          -0.0099387538604192235,
          -0.022702794046622825,
          0.028431120802099651,
          -0.091495430854403023,
          -0.00518942594527972,
          -0.037108991234486279,
          -0.0019731199340696907,
          0.046779740139474821,
          0.043655215055261737,
          -0.015183391431942682,
          -0.074689840857983844,
          -0.015476483657783115,
          -0.0073483834527181772,
          0.02223395706347718,
          0.020149122990753464,
          -0.032891855910483922,
          -0.0029783881020065267,
          0.036683361776892659,
          0.024991236427596642,
          -0.00067971561305134689,
          0.068040705266643589,
          -0.030758769858832052,
