{
  "_layers": [
    {
      "Weights": {
        "Storage": [
          0.17403614269133,
          -0.048470494487481044,
          -0.11577510184029791,
          -0.03240779576457626,
          0.03068331485351,
          -0.0079424217622732,
          -0.078129733757770936,
          0.099751364482015811,
          0.076996909573933736,
          -0.18131217720073045,
          0.14480396065922579,
          0.25331778958388451,
          0.079206230829399843,
          -0.11408425784609111,
          0.21838984714383153,
          -0.17521085529922348,
          0.026133278084766873,
          -0.14818466419655574,
          0.034776483656339605,
          -0.0527895795910279,
          -0.22429339948125007,
          0.18875655430336127,
          -0.10292231168941814,
          -0.15724216752055323,
          0.28996887066469335,
          -0.11860198574883135,
          0.046638733959537132,
          -0.035854036797393664,
          -0.03651429934445713,
          0.15454297328141983,
          0.057151362358894509,
          -0.081818967627248926,
          0.024980219656496664,
          -0.029526277396808968,
          -0.049176458124851129,
          0.03144369016238286,
          0.19831641856033796,
          0.0756984275071394,
          0.029835551813488969,
          -0.051764777671613443,
          -0.041443769801282809,
          0.28444707996920182,
          0.11821958903522965,
          0.10562701413077788,
          -0.073789372412447443,
          -0.086574618000354236,
          -0.075781352777246985,
          0.21950903011491674,
          -0.05823845298123579,
          0.00831941008872672,
          -0.051637935338474272,
          0.0370580305915422,
          0.33675920655767816,
          -0.048901303459161806,
          0.10541290817892014,
          0.015989327799208666,
          -0.11755241290837314,
          -0.11525163098450573,
          -0.081135165883686231,
          0.037648957430358107,
          -0.058075616444361884,
          -0.18036222849492545,
          0.1148179252951254,
          -0.0046128981688099806,
          0.046417253284073506,
          0.0479874064821973,
          -0.1067743087191291,
          0.070439821028210461,
          0.013119013548374955,
          -0.099694542032617461,
          0.22334603075652651,
          0.12091464797045104,
          -0.0739569654014925,
          0.0023819170445637558,
          -0.13527398485840114,
          0.10367193656820488,
          -0.010877338773462386,
          -0.05558028388155347,
          -0.16991156514471847,
          -0.1089081984078044,
          0.15423937575603372,
          0.045285446182310521,
          -0.092251413857052475,
          -0.092577760271539133,
          -0.22832118951402236,
          -0.053496672811398534,
          0.022546102805411458,
          0.090544908664188212,
          0.16562938530080304,
          -0.13850989503472666,
          -0.061263825488905591,
          0.076424765071403639,
          -0.0956960765539004,
          -0.18782511583391437,
          -0.011414988352941502,
          0.0019783052363165536,
          0.14997687008705909,
          0.1617887152636692,
          0.053462533335233021,
          -0.01784379588797836,
          -0.015251683016322291,
          0.085030497221076931,
          -0.22719740492817908,
          -0.080736169693757284,
          0.13238677038403665,
          -0.0467138458388613,
          -0.09955720423461055,
          -0.22878457331892954,
          0.16389448158969833,
          0.066291092279067571,
          -0.17411857845453582,
          0.12818808596463702,
          -0.14012200548373191,
          0.0042049364379960364,
          -0.028965332716038534,
          -0.054029535085184349,
          -0.0997201420962018,
          0.092201224419315289,
          0.0590476725741479,
          -0.21820492933318247,
          -0.11172356987881574,
          0.065641579572824585,
          -0.058077605784250044,
          0.041931580656994129,
          0.077186505798408259,
          -0.23216991983234908,
          0.032859710219532955,
          0.14827410321224402,
          0.19022170190792709,
          -0.12022850846627164,
          0.082680653779870231,
          0.015104118002587475,
          -0.12061088644026599,
          0.058544711832874977,
          0.18407400175917188,
          0.15323225948645097,
          -0.026928483268739135,
          0.022005055893286711,
          0.14768114582795061,
          0.21746265188870845,
          -0.13802970473827855,
          0.079943190872654071,
          0.13110237174609535,
          -0.15709704233988,
          0.31858422423760818,
          -0.028639908691543817,
          -0.047627909034628227,
          -0.18880249728448883,
          0.028250203454852105,
          0.12187291249637044,
          0.11473990049857526,
          -0.16647434600830954,
          -0.042983619049015251,
          0.0935860886943632,
          -0.025550460516549862,
          -0.20182420383104224,
          0.23629126085006402,
          -0.17051041437213388,
          -0.0088212245771489752,
          -0.027503898895139847,
          0.15515947862293678,
          -0.035781444855644724,
          -0.0039373699534774823,
          -0.10519974250041207,
          0.016814620224043363,
          -0.013055933542326705,
          -0.11026547200932146,
          0.0767483753307523,
          0.19729906891067436,
          -0.079617665059078274,
          -0.11877613789137617,
          -0.10412884718607877,
          -0.056448982373278833,
          0.14490865001756592,
          0.036171513158021251,
          0.031503488527654465,
          -0.12325251053109962,
          -0.067329131233798342,
          -0.11194007691560401,
          -0.068496218057130492,
          0.11050140020768948,
          -0.25484878872672884,
          0.028106396478027585,
          -0.10098816079609713,
          0.021455559185812212,
          0.036243321901079463,
          -0.087223465504743913,
          0.29400396962026815,
          0.14327961175744525,
          0.046135425410942232,
          -0.12323984318086649,
          0.12501537675931657,
          0.057646602093761795,
          0.14379558585943208,
          0.096222242558050938,
          -0.061168576512948623,
          -0.10634844110494644,
          -0.19612371776847667,
          -0.19261656065265823,
          -0.12219839704653411,
          -0.0050756023095147266,
          0.0733111018217724,
          -0.012672717853302753,
          -0.13545470183786693,
          0.10196214909021566,
          0.11627140628459216,
          0.08779675713073351,
          0.0994566036037044,
          0.029248870491260889,
          -0.028374677375207651,
          0.089314827321787679,
          0.074660747307038686,
          0.1769563985381086,
          -0.046203370097008895,
          0.17759099968243514,
          -0.11331605633275908,
          -0.0033140206949800496,
          -0.16828964363386986,
          0.0099122803226210365,
          -0.0159684892380842,
          -0.13845297719601948,
          -0.018898775394101563,
          -0.0040052908166530185,
          -0.019758519295142843,
          -0.076063823316021309,
          0.013682072111950544,
          0.053592310323830356,
          -0.1326621295416737,
          0.18407938491428302,
          0.10548415309387049,
          0.15893379513723035,
          0.076557901189740346,
          0.12403388609230742,
          -0.10039058614980341,
          -0.16541123413328856,
          0.143795400057233,
          0.20741515991153625,
          0.068690795583829387,
          -0.062967877537837516,
          0.055005555822982333,
          -0.01352564845784919,
          0.061907506829310295,
          0.021249358636388285,
          0.091937790344228457,
          0.012186296916412265,
          0.077216652265060123,
          0.010533137314386669,
          0.14970409121439934,
          0.057042265385413342,
          -0.038497568098332477,
          0.0032899400644089511,
          -0.00087976139607213576,
          0.0707567096882674,
          -0.13010316469013369,
          0.18725181563651228,
          -0.0806971078422782,
          -0.005445263010138755,
          -0.0064099736275362532,
          -0.075232699077172532,
          0.042704896538768571,
          -0.25785408835973411,
          -0.2051582672918803,
          0.17703940574790447,
          0.027441124617012362,
          0.15284719382498269,
          -0.022325903402389685,
          -0.00459242158563476,
          0.11063600560099934,
          0.10575353122897192,
          0.033242186527117634,
          0.24344367641660508,
          0.18565695320812725,
          -0.078052078902823577,
          0.25701296223953451,
          -0.014506726907762686,
          0.019564648197747472,
          -0.17588950552861218,
          -0.016552213229858621,
          -0.024668521906756436,
          -0.34973798715865745,
          0.027969950031591778,
          0.11391037533071356,
          -0.0056743915241622318,
          -0.012611041784707186,
          -0.024437798512543612,
          0.189985480151506,
          -0.055716740387638304,
          0.14145858329095129,
          0.09836104537525274,
          -0.0036046022452379234,
          0.13216403755583703,
          -0.0095395977693720629,
          -0.058468143978875134,
          -0.13730875338862139,
          -0.14211081889364344,
          0.02586811695918698,
          -0.040297493435705191,
          -0.064746744449218463,
          0.11689573320049683,
          0.046045060184560414,
          -0.07372668479179853,
          -0.045044395216651829,
          -0.061494705881981651,
          -0.15684860729232736,
          0.16314921184346956,
          -0.012606301207282351,
          -0.0612415344811728,
          -0.039091658958147882,
          0.094508768012699765,
          0.09079951769182304,
          -0.12360967484599859,
          0.091884496780554478,
          -0.0043450080037466627,
          -0.16357911013364246,
          -0.025449795049552255,
          -0.051258261801603824,
          -0.015547109173221971,
          -0.16894597888089366,
          -0.061750036238657026,
          -0.021018999342453163,
          -0.17438151168520666,
          0.033166561693877071,
          -0.043156670437591513,
          0.20381332993885848,
          0.074906831562040421,
          -0.13765944123140003,
          0.052480909703840235,
          0.16037308993849772,
          0.10613952454710811,
          -0.071159976756300938,
          -0.061210931967669788,
          0.024415749392403908,
          0.034638080551384558,
          0.15941813813316988,
          0.056533438842888306,
          0.025401721863485344,
          0.0342849584236593,
          0.091063993223998912,
          -0.020185384805097153,
          0.052690067605036209,
          -0.130878763961282,
          -0.0028550466254833986,
          0.11538888778780239,
          0.048980292989640468,
          -0.084304529233220737,
          0.012791239631670502,
          -0.13568826003378756,
          -0.17884874377912904,
          -0.1440208637907798,
          -0.025661075404317994,
          -0.006717080895445933,
          -0.035169904949478449,
          -0.15805621294901143,
          0.10377360676475489,
          0.13695944333811674,
          -0.19673103649023621,
          0.022378767485359292,
          -0.061372792252178239,
          -0.052372421038662312,
          0.10177416909681268,
          0.084460046979964634,
          -0.040264016184056589,
          -0.061619858136730515,
          -0.17040061223642974,
          0.089890946462289,
          0.2546132635602979,
          -0.13903689023941629,
          0.13503287750231666,
          0.17131572158997488,
          0.049149439489940064,
          -0.13085781092544715,
          -0.12616982850188271,
          0.091617168612108335,
          0.25676499023163163,
          0.075909735633725522,
          -0.18664084938468212,
          -0.025302944106475253,
          -0.14317814888319896,
          0.1224443231502617,
          -0.11425975882719276,
          0.19117871768721684,
          0.076373677786067948,
          -0.015905566142753975,
          -0.11109762051982518,
          0.16381814495732072,
          0.12045660288518005,
          0.00070533046299366771,
          0.31978212839056519,
          0.022504731530636111,
          0.056568997308935047,
          0.079229030459954844,
          -0.16482773573066561,
          0.24905822985633444,
          0.071903975288381439,
          0.14500810210699408,
          -0.123749020920147,
          0.16864931406141062,
          -0.29735736516536493,
          -0.13527278426990547,
          -0.0192358618425264,
          0.070745414202639426,
          0.16915358513466744,
          0.014597774480248762,
          -0.10496942989526059,
          0.0346025599722576,
          -0.058377218940862383,
          -0.0043105125223188868,
          0.013110147180117788,
          0.13040976544266616,
          -0.0737207766045975,
          0.091281066735086333,
          0.1073469613732672,
          0.12064242483521284,
          -0.062126425509268293,
          -0.068490412039196508,
          -0.048629332401529717,
          -0.18982146613458847,
          -0.10023438540279789,
          -0.21527145516753377,
          -0.21547338751570486,
          -0.09260656677312272,
          -0.0084518815858549388,
          0.011840619670195852,
          0.030786656336192791,
          0.016458875684221469,
          -0.090820460690761176,
          0.18698689519557349,
          0.15870091024497016,
          0.25404242840092039,
          -0.026632396820264234,
          -0.0039590366343553347,
          -0.10104674673070339,
          -0.058612773677699417,
          -0.061527683797744905,
          -0.076425672181254747,
          0.31134318659900145,
          0.021621389572661215,
          -0.15741313942096213,
          -0.12748798919443741,
          0.035525380566511826,
          0.14405433968694117,
          -0.012856311774294379,
          0.10129462012242552,
          0.039360365251626256,
          -0.18184929113619819,
          0.056917642267521829,
          -0.10322601337960734,
          -0.056219740496936517,
          0.16346590158566121,
          -0.087740714834053476,
          -0.00017970074712075554,
          0.15640751598647393,
          0.22129844699598006,
          -0.044276838488401221,
          0.050662238258787247,
          -0.11515128049356685,
          -0.047231325865391249,
          0.13791375983120749,
          0.0023236851523903896,
          0.011483305515480361,
          -0.020143105045290037,
          -0.16922486933394082,
          0.21302019657938953,
          -0.1284737902868055,
          0.15806772707689482,
          -0.021765930985240642,
          -0.07588225589692163,
          0.15872540270607424,
          0.14597526569508756,
          0.019785075785996427,
          0.08056956776571747,
          -0.01392452737998268,
          -0.10163954061319998,
          0.016332917572845052,
          -0.04091630140507814,
          0.0079599721701624458,
          -0.10111160011592976,
          -0.092856200531204788,
          0.036969159428889481,
          -0.0263960463576524,
          0.011118713435304892,
          -0.16997999290019078,
          -0.14474176175061762,
          -0.11827843375569767,
          0.11481508201449228,
          0.15502402601361195,
          0.0037054891208196717,
          -0.03320110485940396,
          0.28402854479352768,
          -0.049614476773099395,
          -0.080450465625740444,
          -0.034105399764302047,
          -0.026680356468800577,
          -0.25218748113250811,
          0.068749896225305918,
          0.12552977410885904,
          0.013584725448250318,
          -0.053170782421107392,
          0.052305737278437528,
          0.08247972671817716,
          0.17987735150093306,
          0.10642577870237686,
          -0.14623976890884821,
          -0.041325289419284275,
          0.085474934520351167,
          -0.1073054434209179,
          0.10314046271279965,
          0.17808800312124709,
          0.071353750422890383,
          0.029441938235408707,
          0.00990140351461205,
          -0.11399629358409656,
          0.1329787716199558,
          -0.11622961659632701,
          0.14219511380665684,
          -0.11742513317098847,
          0.30697320403851464,
          -0.1153963039486374,
          -0.01695907518846012,
          0.08465273895069865,
          -0.035623973851544741,
          -0.0635396789479959,
          0.21791150623235378,
          -0.10076791495416712,
          0.034686498791297329,
          -0.091872635215339268,
          0.13126664687997475,
          -0.031643884253924781,
          0.043764005492382983,
          -0.19154272835779154,
          0.071207528019762878,
          -0.083468897947139811,
          -0.10776917415459231,
          0.11955322360236262,
          0.13204733956190573,
          0.26478353297790785,
          0.058579037298645685,
          -0.13967501051846423,
          -7.1053236166869222E-05,
          -0.15128549165152097,
          0.22564603154940438,
          -0.0053595165295604969,
          0.13727001419520293,
          -0.00716751317965519,
          0.20904659347851728,
          0.06388598706199973,
          -0.21383028139238597,
          -0.021051943591633107,
          0.053308511279588126,
          -0.022775098714550406,
          0.1510735833632991,
          -0.051564773764881722,
          -0.28907536744009238,
          0.12436084527710882,
          0.12037986821489609,
          0.12452433970026079,
          0.030264139150894872,
          0.058088984192178332,
          0.14902085082721181,
          -0.086609364645216139,
          0.12108998969010654,
          -0.11463510679408435,
          -0.11975135365074911,
          -0.022204651313531904,
          0.015147104466065979,
          0.097789869978904473,
          0.0056695478268552436,
          -0.25495525327494745,
          0.04624983474580735,
          0.19687699958089547,
          -0.07682141909804352,
          -0.060918809157483329,
          0.27978152331414585,
          0.022014850068132065,
          -0.0023335552412656379,
          -0.0688487173697334,
          -0.0023367095266238857,
          -0.065067867008020058,
          0.080428572658394967,
          -0.14551361340101054,
          -0.16932631615137134,
          -0.28044165302277019,
          -0.055204985511833775,
          -0.076798533757041168,
          0.083281446273929069,
          0.046760851791964639,
          0.06078841280729242,
          0.039026026414781971,
          0.0651921457813768,
          0.051083639666496913,
          -0.15131528307974834,
          -0.0099348873316920262,
          0.10510756177206251,
          -0.079231780217400238,
          0.088289317396675879,
          -0.063196425134618164,
          0.030044191932302018,
          0.044860210562101564,
          -0.074426247521311162,
          -0.13276446854488386,
          0.026324392155537474,
          0.11462705071055064,
          0.079122624015437085,
          -0.10425227980177081,
          0.01607624632417512,
          -0.0554573396442233,
          -0.11377166734377145,
          -0.0329261647710866,
          -0.00800077295954417,
          -0.34418370484309685,
          0.020030820661184383,
          -0.030733350711629852,
          0.058993617170963568,
          0.077829346473083427,
          0.19764029034317049,
          0.14556252894458852,
          -0.18543537375079658,
          0.037641221646713977,
          -0.10575046889950436,
          -0.20037999287174982,
          0.13749717129446168,
          0.018454141805107155,
          0.074746180483048916,
          0.034338598177676122,
          0.010616903554088338,
          0.046495748700990852,
          0.1494779899311259,
          0.11499033574762048,
          0.037581927695969249,
          0.16813044752298464,
          0.073003250041474274,
          0.034777817382367238,
          -0.02202026198589058,
          0.055980015309026222,
          0.0027078895001357776,
          0.2114136207246716,
          0.16098007931565805,
          -0.21683786934464094,
          -0.0067755299054406432,
          0.0068849247288579572,
          0.037558793250029109,
          0.0014424135010169428,
          0.11254589609726251,
          0.13350602010257911,
          -0.2403284576346417,
          0.15057360856836358,
          -0.057909796772165824,
          0.19067356526746526,
          -0.012682853488531511,
          -0.098491073458384662,
          0.065017683673752033,
          0.0071843682249036808,
          0.024747950664970077,
          0.011757899773864863,
          0.09178042559166863,
          -0.1532267105253545,
          -0.049867936407038044,
          -0.17952951312145349,
          0.034364924882834491,
          -0.020071470326707835,
          -0.029485924488818496,
          0.035346069977574959,
          -0.097788839074531578,
          -0.04078022688081611,
          0.019542608943790972,
          -0.02056113910351557,
          0.050958589455058309,
          0.0058841535596985736,
          -0.12566361970574944,
          0.028264137239909354,
          0.099230153125840312,
          0.11663663244452234,
          -0.090858263108539089,
          0.0040241126738582867,
          -0.15190836396870261,
          -0.24403701287574436,
          -0.15267509766951223,
          0.19475472604014565,
          -0.0927127459347347,
          0.029709913575052545,
          -0.083680963373481021,
          0.070222757487085091,
          0.000674739114096423,
          0.22812666685690541,
          0.047996649266977824,
          -0.0064352548134224558,
          0.145713671716657,
          -0.0084129433972405712,
          -0.0806431442968708,
          0.063566486032426622,
          0.1271233922212795,
          -0.13211452938171936,
          -0.21603078515360169,
          -0.1167802041057714,
          -0.036388220908064352,
          0.012088392155107552,
          0.041608293745905772,
          -0.10579807854011042,
          0.048512750068029388,
          0.012349830411031373,
          0.096373810158420614,
          -0.015681631172615066,
          0.023967898528708606,
          -0.18346446504767538,
          -0.085722886144717181,
          -0.066008023789902948,
          0.098133522870669468,
          -0.06771819736930082,
          0.050255446960694755,
          0.094146978297390035,
          -0.15384820362177656,
          -0.0066852463895143554,
          -0.012167409402832405,
          -0.18463070716661903,
          0.022273777531977838,
          -0.11709781757777261,
          0.10104640003883454,
          -0.19221669678051859,
          -0.0030133521521910132,
          0.042673791141286534,
          -0.087051755707709164,
          -0.032815630309365941,
          0.12189659182162785,
          -0.12230288225422753,
          0.10527614351911202,
          -0.010460560399508195,
          0.0063163462864352969,
          -0.027025805553582673,
          -0.053232540893956681,
          0.022002960301772664,
          0.22251391106143467,
          -0.03975874284738793,
          -0.002871336514202634,
          -0.012024766183990602,
          -0.03479170916881455,
          0.2681519188885329,
          -0.024833341269090356,
          0.078984099305589861,
          0.057754396523796943,
          0.252948924160613,
          0.075995649846485144,
          0.1033584313189152,
          -0.0012879760245703828,
          -0.027430426871783629,
          0.17020833273146238,
          -0.013968018132617164,
          -0.12565317763865322,
          -0.18690946542005332,
          0.11067288310029383,
          -0.025830790557900836,
          0.20406037427490667,
          -0.072626285956939457,
          -0.23114687738879044,
          -0.028764387564042877,
          0.028696993874840333,
          -0.0073580095984447516,
          -0.0343273239262375,
          -0.06446060508419893,
          0.09752437912702544,
          -0.036465455125610578,
          0.1193968152887432,
          -0.0064491514697991035,
          0.043919936732659932,
          -0.083246561641702951,
          -0.2486916809050167,
          -0.01869273803443211,
          -0.11136726515155415,
          -0.17994760931625423,
          0.091998329196545311,
          0.095132137170238149,
          0.12550340582097222,
          -0.10118168385225365,
          -0.087435719227894754,
          0.064208074647654712,
          -0.017975638610245131,
          0.11326449984123828,
          0.10092169225659194,
          -0.051606516270966789,
          -0.045411364841741048,
          0.1553177785104134,
          0.045040052646709863,
          -0.12775679919311525,
          0.0095580581243573312,
          0.058401148571801759,
          0.025578835514953102,
          0.014519069458246846,
          -0.00085361796365059854,
          -0.02020015229543453,
          -0.0047814980094484918,
          -0.00986025752656447,
          -0.0044882927610656971,
          -0.04390407139896977,
          0.19262198595630503,
          0.052662883248393112,
          0.083070812404177033,
          -0.092885909405813288,
          -0.0011371913821908075,
          0.058442882331460735,
          -0.10449570857959468,
          -0.0080654020299613677,
          0.05237047983391057,
          0.099902598644700039,
          -0.10295919223302548,
          0.054353143177829188,
          0.09826459974949113,
          -0.097799530193527842,
          0.012583394593357106,
          0.0080241084086404586,
          0.021894171048217882,
          -0.044470424265945829,
          -0.010045029132559375,
          0.050876953464291323,
          0.023653918573652614,
          -0.10345268904121181,
          0.18928540217314963,
          0.079128160834089717,
          0.01662512165087391,
          -0.061874318164378946,
          0.18255023349602423,
          -0.08909608823646431,
          -0.20234948481300766,
          0.1546512439693018,
          0.11626820403784879,
          -0.028605985600574448,
          0.00083207046206691519,
          -0.087966226048998009,
          0.063564762142374262,
          -0.062387938624027764,
          0.11582171163085968,
          0.01192654001963226,
          -0.041206200769817479,
          0.16538648357981994,
          -0.037926234707447715,
          -0.0019674476513218938,
          -0.034569392043502636,
          -0.055939343053139211,
          -0.029301489623793281,
          -0.10425999326906014,
          0.044957640189468594,
          0.086022029757521684,
          0.037134262446107215,
          0.026760750815299404,
          -0.014431660060174439,
          -0.0074506608545604281,
          -0.12970410383340983,
          -0.12205222149733214,
          0.044270528760417115,
          0.086302458333580412,
          -0.11563471985136045,
          0.12278704813784967,
          -0.043625095605365274,
          0.07182185199389321,
          0.030690773290106544,
          -0.041296609709789024,
          -0.036113315026367179,
          -0.29806387450149746,
          0.0382214684822218,
          -0.25835725611683519,
          -0.075595128312595711,
          -0.016082849946935335,
          -0.19180488572946688,
          -0.039185161083636226,
          -0.0032846451597283253,
          -0.078026216806842588,
          0.070156147123558832,
          -0.094520843803433757,
          -0.095470966132602447,
          0.14444482133502423,
          -0.0791171167113546,
          -0.074618170987291038,
          0.026485120403633072,
          0.10715913346980067,
          0.01828739478929059,
          0.11575635770845778,
          -0.15982715907616374,
          -0.00040407480699815139,
          0.0021453620971565493,
          0.032053867968423237,
          -0.077091660931998221,
          0.0459061218482679,
          0.10572052179006841,
          0.02253961736680379,
          -0.095450108492622684,
          -0.11307333787235543,
          -0.12074247227572345,
          0.0015137495038842186,
          -0.16703628788177249,
          -0.18610487455657823,
          -0.029555068800550539,
          0.022221311769979813,
          0.063297853729460271,
          -0.11855584034444884,
          0.10005841276681542,
          -0.035524498605435544,
          -0.026296341781759932,
          0.052739549713485254,
          -0.1398563520578904,
          0.095552209187852413,
          -0.16010286106028621,
          -0.16662196511985722,
          -0.15991313939611651,
          0.19910682088895057,
          -0.1264338118204146,
          0.041658006729389747,
          0.042869822435841941,
          -0.032291482530095846,
          0.27596153558272452,
          -0.1480844190165814,
          0.010458927040672087,
          0.13429586265674998,
          -0.080204883371550864,
          -0.14943841072683356,
          0.034696929804464621,
          0.06655576037935064,
          0.021733831039449605,
          -0.25906460028849448,
          0.11685794339743324,
          -0.1924902558439763,
          0.0891197268535879,
          -0.034711079884740995,
          -0.015680423322142763,
          0.034919868607475694,
          0.071017331811096512,
          0.042844454821985158,
          0.066102595369368675,
          -0.0042354954383220693,
          -0.090049772952244853,
          -0.059188468227441879,
          -0.085869199551705022,
          -0.041099365709937427,
          -0.1980046066203501,
          0.097095280669380238,
          -0.039701104596653096,
          0.15403729804580385,
          0.15993037680726513,
          0.067854248641718171,
          -0.011231249701526946,
          0.037780669521446528,
          0.0583926216208997,
          0.10324084721848419,
          -0.0494916264952925,
          0.066127190856411444,
          0.20133220753150033,
          0.036841649566068592,
          -0.0056764900565162485,
          -0.11546654954940216,
          -0.12812710438694619,
          -0.0363015331029296,
          -0.080025004016061246,
          0.10572159845633199,
          0.062107736784412094,
          0.054781030939034032,
          -0.28870829315879143,
          -0.034577038364704611,
          0.0733388304130231,
          0.014536645979742942,
          0.1567251753993141,
          0.023686411931035763,
          0.049942925925108239,
          -0.047262592724210531,
          0.043358167782143131,
          -0.072578084055283071,
          0.005009127415177908,
          -0.11012123421046717,
          0.052255220818086666,
          0.00532262380110881,
          -0.03835748448908835,
          0.0022660831666122629,
          -0.015265890244681612,
          0.030678690049393251,
          -0.1950491003714081,
          0.13509954791885065,
          0.11781898371678441,
          0.079850657535402672,
          -0.015501095201396538,
          0.0519112661807004,
          -0.082906732930402544,
          -0.0087574358484218,
          0.18626701499058784,
          -0.23880352132199564,
          0.10697015294896113,
          -0.11446692809315052,
          -0.12026752175253261,
          -0.085358712958476551,
          0.095704635234001217,
          0.0060393377407551244,
          0.051423409997392817,
          0.0017284926813884148,
          -0.086125922778690425,
          0.058268019807212613,
          0.085331630441554437,
          -0.14570167214189572,
          -0.021349907145172906,
          -0.047867472148523396,
          0.12304092061572915,
          -0.20509834369578031,
          0.13925002622150026,
          0.0087821811656741012,
          -0.021213078511893128,
          -0.0075956142975750172,
          -0.00062446924624489719,
          -0.00036122843620571381,
          0.0089395514380843349,
          -0.11592602055914691,
          0.14415021833663683,
          -0.13104252630930305,
          -0.092272455054360547,
          -0.012446857587486664,
          0.1532552340349049,
          -0.030676075558630573,
          0.071431452421395078,
          0.14605766338218445,
          -0.13831949679072242,
          -0.16931596804240381,
          0.065236968345204982,
          0.18360749262061285,
          -0.00091672489001640915,
          -0.0944638083317495,
          0.032495067150776859,
          -0.0332392339924671,
          -0.10922483551608657,
          0.18607516093183191,
          -0.026775402746856747,
          -0.17591703758539148,
          -0.051875124787444556,
          -0.027726804272997538,
          -0.086885565851785862,
          -0.085633848448621666,
          -0.10749548791638096,
          0.029333798577354322,
          0.21347205884151879,
          0.040220710293342017,
          -0.0033306379578757722,
          -0.097262931159766364,
          -0.059140520836238941,
          0.12401934877612361,
          -0.037857638164835582,
          -0.14421995196631057,
          -0.072218125830915858,
          0.12993343059776752,
          -0.0751825361127028,
          0.075099060738001988,
          -0.041620922801920812,
          0.11188616934296829,
          -0.090851114169668568,
          -0.06711415739667953,
          -0.053190471998499494,
          -0.072965454631227375,
          0.0086018462948346981,
          -0.093387354951276522,
          -0.027966566656246798,
          0.10411643777616879,
          0.0042352287537097836,
          -0.10616711666243853,
          0.15684288727828483,
          0.064269920810737347,
          0.0641193871684371,
          0.14941975302217589,
          -0.22406595342569388,
          -0.028259328444916482,
          -0.21908390269191808,
          -0.09140254681504717,
          0.0934618012333231,
          -0.15149267443636971,
          0.17399787578407863,
          -0.099812313701027153,
          -0.02988699277867668,
          0.056953887272712077,
          0.13319743022302805,
          -0.16879705059138689,
          0.018125530654215304,
          0.091842643756955084,
          0.05825786284419511,
          0.29288283564245082,
          -0.076405568764338974,
          -0.079297287370812486,
          -0.14073121434448155,
          0.086577081286418167,
          -0.17956815345646254,
          -0.1172150335659608,
          -0.0277839526767651,
          -0.062475567321716365,
          -0.05108433007433677,
          0.10294311208281587,
          -0.012265936457018836,
          0.011759065755985929,
          0.034918994865418204,
          -0.011429657244186547,
          0.12390610846584874,
          -0.18118853698776191,
          0.020987202713295978,
          -0.073401665342868266,
          0.1123299657769032,
          -0.090676641949836087,
          -0.081642589989507,
          -0.15313901254181575,
          0.031165626831081154,
          0.066191233871262883,
          0.13252329317860687,
          0.15464713908229571,
          0.022146918301378778,
          0.16062524816917079,
          -0.12780508828917433,
          -0.049000669428356888,
          0.082647688456321589,
          -0.019567083558024376,
          -0.21355534192499587,
          -0.17294251903340088,
          -0.0467460726882154,
          0.046347896666745568,
          0.07248346695608314,
          -0.054729801304865981,
          -0.044715091709597185,
          -0.016857381513428749,
          0.047216855548434807,
          -0.15687052200616153,
          0.20116096872335795,
          -0.10357104201031733,
          0.1078877372713192,
          -0.24270982864664697,
          0.057382896276239555,
          -0.0912565429350091,
          -0.1338274712401592,
          0.20994239544003079,
          0.11795004432120375,
          -0.028878823232364067,
          0.073248888998337647,
          0.23382180042925113,
          0.19223010293959605,
          -0.1345342426513402,
          -0.0383583871095221,
          0.0039743935461205417,
          -0.031486486836326974,
          0.17473079095442323,
          0.031219827766142117,
          -0.076583788144063317,
          0.23693547228985484,
          0.042392538216071987,
          -0.05760892900705105,
          -0.026266213276349367,
          0.11800572721939044,
          -0.0847988089399019,
          -0.041334267599040034,
          -0.081496631076492257,
          0.028923684845418306,
          0.0956229535218357,
          -0.10023983961777884,
          -0.20733991280072647,
          -0.13671928446773882,
          0.057060383088385215,
          0.152881946434452,
          -0.075467882406322309,
          -0.11237771730598023,
          0.17695027704548505,
          0.13317975354689604,
          -0.097426102708503423,
          0.16061550854782464,
          -0.13824238507747022,
          0.06699658887215712,
          0.055676607638809855,
          0.13519087408869673,
          -0.1508980715107851,
          0.12403804011225733,
          -0.1890350133998841,
          0.03880249183220736,
          0.0329026231798553,
          -0.10282224858021227,
          -0.11394926827843209,
          0.312501082087039,
          -0.072119568450417657,
          -0.014107007294837076,
          -0.30160763076864316,
          0.04870998474538777,
          0.070229350534109586,
          -0.097285001355799788,
          -0.012016714625723287,
          -0.2514021013671181,
          0.065567556921634212,
          0.090765146414995918,
          0.12488474115256143,
          -0.037271974266927556,
          0.0283582370281396,
          -0.0053193845978678957,
          -0.022595100104157106,
          0.28340309982399481,
          -0.27527866386884142,
          0.072876963652755491,
          -0.011685981210165574,
          -0.013337358896174134,
          0.047252137578167611,
          0.061683515974221732,
          0.00094260274537072137,
          0.075620179486689851,
          0.019085253988864112,
          -0.057319109318184173,
          -0.093688485724994761,
          0.019673883966738345,
          -0.094932439805739191,
          -0.091629940464984252,
          -0.0024039559283157538,
          0.048097195053814108,
          0.020185695484576258,
          -0.0370029914735715,
          -0.0037213668232071243,
          0.16960613232821872,
          -0.1613596491249569,
          -0.080164369641474345,
          0.11677903495406282,
          -0.051833290209080937,
          -0.17455276331717781,
          0.066988665968615566,
          0.048867856340210965,
          -0.0057558134730350142,
          -0.070329075809858033,
          0.27097649060448364,
          0.016521709130640088,
          0.013086315335419397,
          -0.099676807674171378,
          -0.064307317825633731,
          0.014326971221610193,
          -0.034287265627634476,
          0.078814937311758843,
          0.10458772610252118,
          0.035334076208412411,
          -0.14876875424714334,
          -0.11367352408543106,
          -0.018389085636613584,
          -0.21064089310634035,
          -0.032434232809038593,
          0.061937345624750222,
          0.15979253701827639,
          0.022717924996979642,
          0.14382950223882113,
          0.003838873814895236,
          -0.13608680600542322,
          0.19169265486424089,
          -0.015172997294808416,
          -0.065110292281404067,
          0.19752025225318859,
          -0.0110312229242184,
          -0.12725460544946374,
          0.19227102582957514,
          -0.030187088561151598,
          0.32708562520991447,
          -0.046124618398806459,
          0.016482819953910759,
          -0.067057664201148032,
          0.043941372800308132,
          0.011702911497322241,
          0.055559786781807584,
          0.00059612536558737274,
          0.074663818119211869,
          0.15048538380416832,
          -0.089693940273429182,
          0.079072381004519257,
          0.094886436226467169,
          -0.18508481756380366,
          -0.0319470670382483,
          -0.22370271836966604,
          0.10184277621273083,
          -0.0993589718087255,
          0.02145010612835703,
          0.18922917982507884,
          -0.055401450422807072,
          0.035195503006099131,
          -0.044655474523712796,
          -0.2123892317912448,
          -0.121062504043257,
          0.01896234590439163,
          -0.0545005942659292,
          0.011759165603717286,
          0.080624936884128334,
          -0.067845393880649252,
          0.10912206278998801,
          -0.036899507874351117,
          0.016008023163306934,
          0.020861822007068275,
          -0.17884672711134336,
          0.009488216161972006,
          -0.049935500898803935,
          0.10549433615232905,
          0.081039282778083033,
          0.024917476955862029,
          -0.061128027318684275,
          -0.097862065860584768,
          0.23724586835685579,
          0.032595254701103242,
          0.17834112494574955,
          0.15689272584493233,
          -0.10488281678499743,
          0.031648909567783927,
          -0.06304833632233571,
          -0.066251334985530361,
          0.10208337478469839,
          -0.044859148834785395,
          -0.052778350872596087,
          -0.086635384274435651,
          -0.0080563898998453742,
          0.21807473278295364,
          0.30350282184932104,
          0.075200235444426888,
          0.13029643134015159,
          -0.099547804203180323,
          -0.064257567251932143,
          0.17069226370773774,
          -0.13072204590872971,
          -0.27712782554586862,
          -0.06113387171694986,
          0.017488041736963448,
          0.16340257466884325,
          -0.12747896900048736,
          -0.16192152771044815,
          0.11419999142708051,
          -0.16153673429329693,
          0.028671300154930326,
          0.026965111620158931,
          -0.00715424516470032,
          0.10022973630265472,
          0.24207909432560745,
          -0.18413326514506159,
          -0.11907821367281389,
          0.028436901533295054,
          0.089699870031045778,
          -0.088342750398606118,
          0.098459222384490924,
          -0.10079285473993599,
          0.14750252478723647,
          -0.0072721545424206625,
          0.29354972537577734,
          -0.047588206151979937,
          -0.022623582819599076,
          -0.043599545190905017,
          -0.16353711390957978,
          -0.12218077503410679,
          0.17215160925728787,
          0.10710910765664935,
          0.015085611923261329,
          0.044407776452222082,
          -0.10407419166179672,
          -0.00250160693651489,
          -0.062220506294077008,
          0.045429471036071742,
          0.077811347213599807,
          -0.18717975678861776,
          0.092865539481545911,
          0.057725218220258293,
          -0.028267652321543556,
          -0.20118769064510547,
          -0.062646668519833387,
          -0.079431924116312988,
          0.061142940199995166,
          -0.061773615949490462,
          -0.086274041689200179,
          0.19197922347051855,
          0.023622708064251787,
          -0.11587496371683988,
          -0.0086442319349622678,
          -0.045019029104293416,
          -0.030923713092880119,
          -0.08498214631445665,
          0.35932781037792377,
          -0.15928383801006435,
          0.024867547644120486,
          -0.13233300182328983,
          -0.10602863362531124,
          0.16194545846103325,
          -0.034645280919280153,
          0.0099231602899139074,
          0.12535135299455327,
          0.1830982700456136,
          0.037715303402735691,
          -0.11141096993806807,
          0.00221548434029394,
          0.22455521853522484,
          -0.034636949123341712,
          -0.02410803577590177,
          -0.12559986427533124,
          0.0022089364831030314,
          0.1371663298636549,
          -0.10700607872367332,
          -0.017418254505593037,
          0.0041006238139136833,
          -0.034535190096944487,
          -0.0016034294714697681,
          0.21661695353044341,
          -0.24510505622637746,
          -0.0731693014981916,
          0.02745362934046993,
          0.089174362655802045,
          0.036497902915575156,
          0.0022516811788215545,
          0.054322088568648036,
          0.072603595058429449,
          0.11363687418692406,
          -0.12987755673718865,
          -0.10998423668962586,
          0.02870950426950419,
          -0.17824563510045183,
          -0.053272233968716387,
          -0.126710490389414,
          0.058809737668930134,
          0.1663954163513949,
          0.094972456627846313,
          -0.042736168212964824,
          0.11267396064112843,
          0.10043825663572473,
          -0.10109296384743564,
          0.0638871721178888,
          0.050804887476022062,
          -0.12795658912402408,
          0.10258336411746737,
          0.13176841425999447,
          -0.033727079807477689,
          -0.074198980536481232,
          0.16465161533222863,
          -0.035362639615605172,
          0.050726722944196417,
          -0.090569900809225,
          -0.099017367244993382,
          -0.11067518524313358,
          -0.15192697431342964,
          0.050546701481246258,
          -0.063482549726295828,
          0.012701669969001191,
          -0.048388207920284684,
          -0.025356190240332289,
          0.032444203565219189,
          -0.042904429498892276,
          0.10202476782377508,
          0.018655982113286024,
          0.14056491709117447,
          0.029139230729708407,
          -0.061942606894438715,
          -0.076747367580131509,
          -0.0731262256261905,
          0.063631687491892,
          -0.086621251734830512,
          0.022195020776224088,
          0.16984432487264489,
          0.19400857608176714,
          -0.02097847928568607,
          0.15340547939380311,
          0.0976571411874892,
          0.088476126394067239,
          -0.21866621058905497,
          0.060950229825869971,
          -0.11892364997444423,
          0.023318208954412584,
          0.11529834899590445,
          -0.035671129369889427,
          -0.00367152324322658,
          -0.15586913895555432,
          0.0773638852665431,
          -0.10328128522715604,
          0.25925165217083235,
          0.18389831248436717,
          -0.039495215372038969,
          -0.17796005034706894,
          -0.15583142580493228,
          -0.023854865285115663,
          -0.03212469225910556,
          -0.24470762798358853,
          0.13834270275914365,
          0.12083321566892488,
          0.11833669208625916,
          -0.1155455946216216,
          -0.090669314739761045,
          0.063519247635516959,
          0.14487671082342715,
          -0.1902462940055169,
          0.013850573357854274,
          -0.04351790888226649,
          -0.015410563581680126,
          -0.0076294666863475913,
          -0.25978915124320168,
          -0.0086599944396438984,
          -0.037274221616636592,
          -0.10272327834801753,
          -0.16076528710564256,
          0.019968206961580335,
          0.071717769117784519,
          -0.052264375606919017,
          0.070161420394277821,
          -0.020103699156390778,
          -0.00792353996387155,
          0.13529525132633904,
          0.025600590117766317,
          0.11591586258490305,
          -0.030153293933640826,
          -0.016845218728543464,
          -0.059749230251909043,
          -0.13674558654232985,
          -0.083125768121931162,
          -0.05319000964966783,
          0.0070149488225915504,
          -0.20574851066600688,
          -0.13208796690557104,
          -0.0625503751881636,
          0.17280659868692674,
          0.17748348711768855,
          0.050618955893836866,
          0.0517060498445632,
          -0.073514103092187255,
          -0.089973534246933079,
          0.059614135107951945,
          -0.066370264781514032,
          0.046110656132353517,
          -0.094165079069904081,
          0.0080174428016057432,
          0.12013732274500102,
          -0.023781614819225517,
          -0.12948882769181713,
          0.099130553991252007,
          -0.23818908195937472,
          -0.039641036645765515,
          -0.28882194646933496,
          0.26543583767178269,
          0.041184251117259131,
          0.04061481017425464,
          0.010856478914637934,
          -0.12835054365426204,
          -0.030406158470937524,
          0.13298326187174567,
          0.018337244072029343,
          0.046811897107729504,
          -0.11157136219413047,
          0.15752384542232808,
          0.16775100143721416,
          0.038224861132455275,
          -0.2051659749262659,
          -0.24164122998598078,
          -0.077725931266999948,
          -0.21083758611308362,
          0.059796980439210633,
          0.053951371544616884,
          -0.083903987653323867,
          0.19334660207349813,
          0.28114473493684777,
          0.11526890642499266,
          -0.098814185527988083,
          -0.053427972013752996,
          -0.034192547747047962,
          0.15257142510285371,
          -0.12572051714427615,
          0.032304143821709347,
          0.040620898848579709,
          -0.028356201101286425,
          0.083802848014375139,
          -0.25853429292581176,
          0.0073569854434377725,
          -0.095848653799213784,
          -0.14128732949727224,
          -0.2325164718241782,
          0.17022452688982834,
          -0.040259128701877596,
          0.0068997271144485188,
          0.07253671756276793,
          0.033850658903061472,
          -0.18995406480333357,
          0.12714154311039477,
          -0.031076173195054117,
          -0.16068277351641075,
          0.010730236059124355,
          0.018148403733331694,
          0.074141963475502365,
          -0.011721411049777607,
          -0.21795033984627488,
          -0.23975873571911807,
          0.055870296567542568,
          0.073810795986077815,
          0.050690004228490876,
          -0.081198165322328611,
          0.1617388223379124,
          0.21854663298808893,
          -0.067966624778071888,
          0.005070954917903295,
          -0.19523541244150217,
          -0.0672777989750384,
          0.039013961086001372,
          0.014794704009375447,
          -0.028163657437372459,
          0.037911448929666705,
          0.10458381193385377,
          -0.089749523702138415,
          0.27454158725755828,
          -0.0069973166530762883,
          -0.15149394414791365,
          0.065756815662624368,
          0.23068797964275456,
          -0.01492010419553688,
          -0.16514891503118029,
          0.0017076872288772295,
          0.068831218999217084,
          0.19846014600031164,
          0.1179964762555096,
          0.0540085746714774,
          -0.018533530833925834,
          -0.20342409948840709,
          0.011692165666726871,
          -0.14643545816932235,
          -0.22447102148675488,
          0.046215072514761153,
          0.050081961593481474,
          0.015049933671823482,
          0.0616056902511231,
          0.053026607030465772,
          -0.021940687786104449,
          0.048736394362668724,
          0.15947067718484004,
          -0.080031197811864491,
          0.004673924972965017,
          -0.039433644834602162,
          0.11649027708467787,
          0.040337079047637177,
          -0.2282680295803978,
          0.16931678379222942,
          -0.15952128374419294,
          0.28020130035952112,
          -0.045469514673826032,
          -0.073225339615064139,
          0.071470202344825928,
          -0.10199969718451506,
          0.14714435079335961,
          -0.084339556733228446,
          0.096208571506801052,
          -0.026123461843622221,
          0.001021657443289068,
          0.03622376461634428,
          0.021123589962540747,
          -0.14903067138639312,
          -0.061257138410004623,
          -0.027938852287123204,
          -0.16523027895859152,
          0.14114296852371175,
          -0.3014451530016195,
          -0.085364225461423152,
          0.13364058861874942,
          0.0082282616559237118,
          -0.17725204225212407,
          0.090986790588913083,
          -0.136769200739522,
          -0.011884337553912596,
          0.022696156613406883,
          0.032074600522869291,
          -0.080411552314283416,
          0.060650568255605657,
          -0.010643105033699786,
          -0.095326237346475884,
          -0.04992378246404542,
          0.13144924427961252,
          -0.18947318580388883,
          -0.12550198275843072,
          0.044563563439016116,
          -0.11241358251485842,
          -0.22731390982420135,
          -0.090517815912131067,
          0.058207598149897379,
          0.0966244010785928,
          -0.11380252216843255,
          -0.048043563097071487,
          -0.07709552515090308,
          -0.089369985781604516,
          0.023529663709662241,
          0.045886548531381216,
          -0.11086260117891661,
          -0.046695618092617359,
          -0.072156762055718221,
          -0.042053736601176291,
          0.068901755252981242,
          0.0074722106698117477,
          0.073929256054913489,
          -0.033503565146056215,
          0.027246299359669705,
          -0.29514747024058752,
          -0.1132721435421946,
          -0.24710495463670043,
          -0.10898997032690382,
          -0.200992334079355,
          -0.099506229590997614,
          0.11497163892288563,
          -0.028324408420043849,
          -0.11777516042359247,
          0.11260679431105605,
          0.14530554511670674,
          -0.11112548916011608,
          0.036314078004807071,
          -0.14212425996649827,
          -0.045183276056554672,
          0.07202928315031859,
          -0.12799855919537637,
          0.15504290403998494,
          -0.03773884661944682,
          -0.054580342137952174,
          -0.12461067069927721,
          0.13964636193428429,
          -0.10336872458317632,
          -0.013509954121114743,
          0.0592863847278478,
          -0.0126792142617805,
          0.076245456752778051,
          0.08657065218666,
          -0.16229465499115664,
          -0.2632824256605934,
          -0.043020199175497618,
          -0.050635755813583996,
          0.099597096427488041,
          -0.024742864068532128,
          -0.046843394457860218,
          0.18950677926145146,
          -0.00473900744495102,
          -0.10466863240731296,
          -0.045457416930498741,
          0.093839015301962175,
          -0.076192106045096325,
          0.12036297845933855,
          -0.27337894794132123,
          0.0330972080769463,
          -0.024188770208642872,
          -0.20500224125450989,
          0.032929388425817246,
          -0.19344656515343664,
          0.028979402450193616,
          0.12198899611490416,
          -0.17020136904819519,
          -0.057066352041991945,
          -0.072154171181278134,
          -0.026969748727061583,
          0.013465147434949134,
          0.092347982173438786,
          -0.035517299287159167,
          0.12111793193135777,
          -0.071187319797573215,
          -0.056006065276474455,
          -0.011280803969771975,
          -0.051632891079660008,
          0.038980145312821408,
          -0.038897887183260337,
          0.012452416112048049,
          -0.042042409683677333,
          0.11817947366053347,
          -0.14173812686402854,
          -0.0036003646668436489,
          0.20904120317258879,
          -0.031937137235191752,
          -0.3351933789054008,
          -0.050002102728962106,
          0.20538960081355584,
          -0.031264508238706183,
          -0.018156603634501813,
          -0.0069493669735240645,
          -0.034702623232569549,
          0.016578617058920272,
          0.0023749667719311536,
          0.056671631571643941,
          -0.15095746856697667,
          0.049803611756512788,
          -0.13420810930001503,
          0.014184304517100541,
          -0.17562265498941482,
          -0.00051565315075019057,
          -0.008724312661462499,
          0.067743347959402983,
          -0.053448831359657896,
          -0.098212533650032546,
          0.037812468501351504,
          -0.00878418003976488,
          -0.14475627806812788,
          -0.0998353993905794,
          0.10316043854430042,
          -0.02503426946160258,
          -0.072241093510026375,
          -0.07405595217473665,
          0.063249589224382452,
          0.016376491739646178,
          0.12163574786304798,
          0.014041960378811171,
          -0.081298724230488964,
          0.029037203339392886,
          0.20641686014780616,
          -0.042491165117504087,
          -0.14445107682127395,
          -0.077061714081479118,
          0.0686768532444093,
          -0.054601612227483526,
          0.087963250772806839,
          -0.042851793528490771,
          -0.017168809703105366,
          -0.0177413924423306,
          -0.010612290743078704,
          0.12947115060669029,
          0.030464919224418165,
          -0.18063259122394568,
          0.010707217484573948,
          -0.1268042989945812,
          0.050421520139700117,
          0.088757817748610177,
          -0.013776133407388241,
          -0.10082178445717029,
          0.0028993398687326994,
          0.031979020127799872,
          0.037268869006456026,
          0.081880298958554754,
          -0.038735810726916772,
          0.014295697996666324,
          0.029642981199520208,
          -0.081198298177653644,
          0.11671877418632771,
          0.07732022574793361,
          -0.039574088336272684,
          0.11590109576489262,
          0.13093913185484632,
          0.10611670408284872,
          -0.13370226445436717,
          -0.019954165288667405,
          -0.11813186540086787,
          -0.059774553250537522,
          0.0960203890797056,
          0.0918199119812846,
          -0.02642103048145129,
          0.19213729215364303,
          0.022316467536212779,
          -0.035106896323039656,
          -0.08981033670115042,
          -0.055025739128896183,
          0.13055510560101968,
          0.036772318387732206,
          0.0692325669269809,
          0.0041010780429516919,
          -0.054807006211308809,
          0.0064261275155977913,
          -0.046290735154284689,
          -0.024700639095769403,
          -0.13295491015296915,
          0.10455187745777349,
          0.085274759015408763,
          0.0034177942666880185,
          -0.071101446587063008,
          0.054546689295588278,
          -0.12298988724771716,
          0.017722870597734294,
          0.023140077694362056,
          0.0086541481638077681,
          -0.027265477788180954,
          -0.032458468710485446,
          0.036255033488104375,
          0.18898331993264131,
          0.21522823198508631,
          -0.0539762323145733,
          0.11834323495179629,
          -0.044889513893907232,
          0.029144360907687253,
          -0.15244794480625262,
          -0.051100841657450075,
          0.17787430255283054,
          0.061651553617902324,
          -0.021866316720609971,
          0.22191479541313086,
          0.0752799506079812,
          0.079587472182989172,
          0.021436647239788671,
          -0.051843718012609362,
          -0.091811356408719513,
          -0.24257772664607802,
          0.040953391789068316,
          0.0727658387930101,
          -0.15737483514898234,
          -0.094243861566568624,
          -0.12056637812144759,
          -0.079807950623317248,
          0.02107810539445985,
          0.03612347786677636,
          -0.12333161208809339,
          -0.061969933851820959,
          -0.030191770336134485,
          0.084058953051039,
          0.027846155242802269,
          0.19088251292754674,
          -0.171960390574161,
          0.13952560922837892,
          -0.087838560356613749,
          -0.016499555879260722,
          -0.050613241785956178,
          -0.052350164347412256,
          -0.025493456534617664,
          -0.0634684270450094,
          0.052303398001353626,
          0.091402058900423563,
          -0.070194643616358923,
          0.039975312740627843,
          -0.067407148169086176,
          0.098273671743240393,
          -0.13662273440182857,
          -0.2042203324182742,
          0.20989398536292422,
          0.054953236288583784,
          -0.028724998067425331,
          0.024275046714538642,
          0.2062558158463117,
          -0.01662584896074978,
          -0.033635527870645138,
          0.079698700751493559,
          0.098622142990376527,
          0.03229585178655995,
          0.0043701686784643574,
          0.0013885752311315503,
          -0.013619900801664442,
          0.13828756270200104,
          0.1256859973979374,
          0.058231158559025657,
          -0.098949460134921383,
          -0.0028402174972508346,
          0.11568260772157092,
          0.043837594936923796,
          -0.014891257816918059,
          -0.10240770898552422,
          0.04697910440580777,
          0.16105009123209366,
          0.12434623411966263,
          0.13966029733746538,
          0.16101705351129045,
          0.062064467396145996,
          0.082898388752855282,
          -0.10197272719175192,
          0.00394822224506029,
          0.3293630056850963,
          0.10797178198483216,
          -0.071868326794138127,
          -0.10084042522341058,
          -0.020747246252824904,
          0.0016777003813217867,
          0.046791054593849447,
          -0.0658422033836814,
          -0.047302762026016625,
          -0.1465345707880277,
          -0.057811425942363479,
          -0.0062183336044529507,
          0.058202930701845089,
          -0.09518591014685171,
          -0.0018497274710175804,
          0.023831364438364068,
          -0.11274484615724503,
          -0.11741700778000394,
          0.075272544251570012,
          -0.17398279563189431,
          -0.038932665557951551,
          0.00795595811208578,
          0.011696757629311506,
          -0.019569825197536111,
          -0.038002368531541007,
          -0.029343169667781051,
          0.086768366152400467,
          -0.127444193374076,
          0.030439211061885702,
          -0.054434214990210034,
          -0.14415944228066002,
          0.15236833116462636,
          -0.14095030857594218,
          0.09534192647171838,
          -0.11889942456485142,
          -0.0067799283925890023,
          0.18759999628777488,
          -0.020177772124378178,
          -0.14834437261091174,
          0.10367836767077888,
          -0.14658422563785037,
          0.0006430560779272336,
          0.05638558493983413,
          0.026739360914028856,
          -0.0080800380078004056,
          0.076222446178539655,
          -0.016341093308362642,
          0.15469505605332384,
          0.2207849622937266,
          0.050262390522562657,
          0.040146319423813248,
          -0.15900888531933119,
          -0.08429284330475055,
          0.020657326680107061,
          0.006473684488315954,
          0.077950696560076083,
          -0.018460183346537318,
          0.17748393346777552,
          -0.074632923019675626,
          -0.016971829761983671,
          0.061298955826704048,
          -0.14044987869298994,
          0.104914364532809,
          0.13842409567053623,
          -0.031885136326245664,
          0.12016800670823206,
          0.066305333425301816,
          -0.047957483594192926,
          0.075390696445554073,
          -0.020980010705952293,
          -0.042051621040854144,
          0.097906582529306618,
          0.0040752594176712859,
          -0.040397910046225449,
          -0.017969000586163721,
          0.16836648945327226,
          0.063649413730719667,
          -0.05368546716880062,
          -0.12786422223276381,
          -0.13944632218204239,
          -0.076894975323907516,
          -0.027156288804720673,
          -0.14442555961066536,
          0.099772130012220753,
          -0.017597641987767816,
          0.075559389667260474,
          0.031913688967270266,
          0.0016136920217538547,
          0.10349320171517172,
          0.16531913802475159,
          -0.11683326787051491,
          -0.22046248538848831,
          0.1043161513180155,
          -0.16207375792707793,
          -0.066983901697137929,
          -0.031503699509119312,
          -0.012396850235503807,
          0.024083367837901038,
          0.01217496853136223,
          -0.11026251249788394,
          -0.24914452946762744,
          0.11006971098604654,
          0.037809136766380431,
          -0.10586739852299992,
          -0.15082306807261286,
          -0.30571954131091789,
          0.012072018148139334,
          0.00934037140542718,
          -0.0010082259948051733,
          -0.03464009746505442,
          0.097703515580567127,
          -0.12529634592567307,
          -0.1758658580264848,
          -0.12001342480431144,
          -0.0652624975963765,
          0.0036830454759650185,
          -0.074778361569417737,
          0.006820212857764788,
          -0.17957554542630949,
          -0.096412015417309149,
          -0.006335219016617228,
          -0.17821677109392378,
          0.18545826845512456,
          -0.11054878907517582,
          0.067142618136143015,
          0.028030148127903467,
          0.1200823381319666,
          -0.12243484239389205,
          -0.16627782805801505,
          0.0020478695111029108,
          0.02680883770245401,
          -0.0023793060499523329,
          0.037636673522022789,
          0.08604340986448529,
          0.090971352853018286,
          0.080458961787400737,
          0.0048372163115794481,
          0.07638655955343196,
          -0.14165442804768563,
          -0.11959476559264953,
          -0.017697960764883326,
          -0.0756335545335037,
          -0.149821030941121,
          -0.0025227467767496774,
          -0.14036198363977742,
          0.11774777309798315,
          -0.12844716213105936,
          -0.087128388870638757,
          -0.12194454567568466,
          0.23851720595866163,
          -0.10820417469426974,
          0.018668289447314561,
          -0.044520946082257894,
          -0.06948645975843025,
          0.12113205428631524,
          -0.037830577009420253,
          -0.14543885363056916,
          0.10687872696616388,
          -0.018159057778108643,
          0.039294719375980912,
          0.0140584328945034,
          -0.046539849310677874,
          -0.083991758758847915,
          0.0870086884833176,
          0.084513040696873,
          -0.0579645949818382,
          0.11927855490593312,
          -0.05517657836185396,
          -0.018083759768741648,
          0.12992085262985417,
          0.0869777103569023,
          -0.1560071517477355,
          0.083123366464082152,
          -0.045293728803762083,
          0.016582201653429152,
          0.086065229754055186,
          0.013867312313323702,
          0.113391964000021,
          -0.030092122674439184,
          0.030767110491759838,
          0.026407843681011844,
          -0.0013116220597932428,
          0.10522421846808877,
          0.039877137487551749,
          0.17958170031968296,
          -0.17252202796285823,
          0.033896676570331505,
          -0.049218447307687915,
          -0.1766942451229799,
          0.017620243882072138,
          -0.21037213124109672,
          -0.054615632561406793,
          -0.11850935761487714,
          0.15775554356151469,
          0.025893643374898863,
          0.12322725287227031,
          0.042521181597801661,
          0.050185512748843551,
          0.025612001235652979,
          -0.13792137038645264,
          -0.21695186632270994,
          0.10669895223400411,
          -0.064908891082114978,
          -0.20336688385815141,
          -0.10161048404545094,
          0.063845981509111166,
          0.010658417686327321,
          0.01035618188359567,
          0.39653187695819564,
          0.035224053432546656,
          -0.015968460284801134,
          -0.050191268328371563,
          0.049771406667503265,
          -0.095414632525218007,
          0.0507006813491725,
          -0.025824907233587345,
          -0.039845501344931519,
          -0.040682787508219791,
          0.0998093794230095,
          0.057497812402144237,
          0.14292865708759192,
          0.10121504104187456,
          0.08718774408404957,
          0.11053108655196688,
          0.085506300661768481,
          0.099231741269626764,
          0.020016018142715031,
          -0.057992175902967485,
          0.14378772702314505,
          0.058988945156835004,
          0.014025088537229346,
          -0.19923543864414633,
          -0.089330982136393136,
          0.040962881448559293,
          -0.15232828516168981,
          -0.091241099162497064,
          0.0041111783538668976,
          0.091424285807319317,
          -0.3137123761889366,
          -0.048539411559355247,
          -0.069936060010194839,
          0.13154912807372252,
          0.036973518569134223,
          -0.030288984502419392,
          -0.086287315153341843,
          -0.013887652756988873,
          -0.064394546245618509,
          0.13456660950809377,
          0.12851202685220722,
          0.0019635087912487402,
          0.024791229206541612,
          -0.12134712437872085,
          -0.1944800097002175,
          -0.1202323202066066,
          -0.088117515066398283,
          -0.020164246140214781,
          -0.081483917390233612,
          -0.13946454884837742,
          -0.13496573345432022,
          0.11470379964894938,
          -0.11866878367889594,
          -0.12340763476888017,
          -0.014072444728681566,
          0.06028835898797856,
          0.0082347034459739239,
          -0.13616514750169162,
          -0.093708329335966831,
          -0.048201125345283126,
          -0.10443067777001594,
          -0.15452368851461926,
          0.037004830217474978,
          0.085645824241688789,
          -0.011476863990942048,
          0.1846361669453738,
          0.077862426875628485,
          0.27248543729003455,
          0.023183838215586654,
          0.14345107007241778,
          -0.013710018901529921,
          -0.022834075347886878,
          -0.041093436466177378,
          -0.1078618876396468,
          -0.030806834277140302,
          -0.10342217196079231,
          -0.000991210431324343,
          0.10032858022381126,
          -0.10399552043249839,
          -0.023916209619124548,
          -0.14577750386896143,
          0.13763051517387137,
          -0.0048554460783749318,
          -0.12371681990216565,
          0.183097299570677,
          0.012851140162175105,
          -0.12269314143836468,
          0.040378324172807137,
          0.036205914909293958,
          0.07135724389737258,
          0.054589603579162781,
          0.06799226644979231,
          -0.033721057782655953,
          -0.14015720803524909,
          0.02884808203036713,
          0.015161143898979421,
          -0.077912320102445587,
          -0.10379880520555765,
          -0.016567140882911464,
          0.13530744155458424,
          -0.20072113020819046,
          -0.13094454038333722,
          0.082306888548531673,
          0.040816743091000321,
          0.11116636700172949,
          0.014314578241658339,
          0.0089933794712695244,
          0.13103794018717038,
          -0.020060934214856548,
          0.05194380253324897,
          -0.042073037063411638,
          0.0091959595530401311,
          -0.064658338573144014,
          -0.029062228148306682,
          -0.1196400114285972,
          -0.11632380881206769,
          0.0839544885114084,
          -0.013455981439119575,
          0.083857494772764191,
          -0.0635323780517149,
          0.1094984466017378,
          0.07147600051684215,
          0.096840906720792513,
          0.05351393336700927,
          -0.26416066435818125,
          0.071599852825064911,
          -0.17690536648972782,
          -0.19990533595037427,
          0.15672746761012935,
          -0.034055953554348539,
          0.076382751492960491,
          -0.099399808617554875,
          -0.077456213508697164,
          -0.05799905049514073,
          0.043407938384013675,
          -0.0656376930909533,
          -0.085809648987132933,
          -0.12222701979380701,
          0.0015068927726855389,
          -0.073243610833491832,
          0.0876405112408691,
          -0.026835806397848452,
          0.0983020922729277,
          -0.088099408074843774,
          -0.10837956949975741,
          0.0022640229998937104,
          0.09978245244470775,
          0.057520033921615574,
          -0.13050028843271752,
          0.041970741500835219,
          -0.028997579438226589,
          0.19344858421765102,
          -0.056664073529473946,
          -0.08545004124011947,
          -0.094854620055902,
          -0.22971892715826292,
          0.00988382390558247,
          -0.24969538619488799,
          -0.062842869607208016,
          0.14042267956976892,
          0.020490466894738442,
          0.16075503691175161,
          0.011669775613577854,
          -0.09078725625037623,
          0.33036595039529376,
          -0.055077522717263454,
          0.034581386337320434,
          0.10191553892949816,
          -0.035000105468760839,
          0.021311917974642235,
          -0.10587391142689552,
          0.098441558788755809,
          -0.016037907076575406,
          -0.17356494321173357,
          0.077055793800656414,
          0.0887671218512035,
          0.08717439021324766,
          0.11138912574433868,
          -0.080167247967848,
          -0.0034014342964259242,
          -0.044696602771769685,
          0.040288506478980447,
          -0.062850832941672707,
          0.07094167877347432,
          0.029630606870409647,
          -0.037335116733522654,
          -0.13000335323511408,
          0.010653260820446353,
          0.11205142689252574,
          -0.026105030498345224,
          0.11899473060028222,
          0.020126156688457641,
          0.053353732689864167,
          0.1690441332708075,
          -0.11133624652915254,
          -0.02447262619218642,
          0.0183749450622542,
          -0.10082149970972629,
          0.070752914286837429,
          0.067582899222785944,
          0.072252054523457107,
          0.14647721154170609,
          -0.032356887754357182,
          -0.13244554563300057,
          0.10187267210733918,
          0.17794814160387232,
          -0.0082398559549380322,
          0.064386266916949361,
          -0.00818924017023052,
          -0.15074166445256629,
          0.095106214405170975,
          0.32513076904945115,
          0.066070580609886964,
          0.03140391226572644,
          0.007374813238892327,
          0.054195303050999094,
          -0.090153809251393477,
          0.157486513172167,
          -0.23086351716278677,
          -0.012722340851912046,
          -0.046874342511589492,
          0.038901321775334612,
          -0.19796387364790791,
          0.030147916521067804,
          -0.067597660265389034,
          0.04406789026782517,
          0.01446804345928642,
          0.1412364042406096,
          -0.091114526843644,
          0.10547128680331588,
          0.19141741851172484,
          -0.0076805449688305775,
          -0.1409376651338452,
          -0.22524237846117146,
          -0.0529816012746519,
          0.17110768348451394,
          0.010143370201702639,
          0.0025645503817902024,
          0.054275819966512762,
          -0.075646404960397789,
          -0.0585846822878395,
          0.10416307457962758,
          0.17984059869623706,
          0.098532989886200212,
          0.026795404780775064,
          0.0651523270037201,
          0.0091857371318816074,
          0.047876345414687757,
          0.029675680951402938,
          0.12404494051625262,
          0.0216363933375208,
          0.057874811261237551,
          -0.063652522274252,
          0.013543551157497977,
          -0.03137239939091635,
          -0.221281498961204,
          -0.10237392292093982,
          -0.17586414177044629,
          0.035161269712491186,
          -0.04608148592285987,
          -0.05138816883592754,
          -0.078028526403208856,
          -0.0901570852591609,
          -0.019438476464258971,
          -0.036741314942435675,
          0.066662516870777386,
          0.028650920578726105,
          -0.14894582590610747,
          0.010390492296813172,
          0.091768150947519583,
          0.052517878467930088,
          -0.0031943383921836477,
          -0.17186923520775763,
          0.082444670800432357,
          0.04124512991330806,
          -0.283412729864073,
          -0.088499779803904721,
          -0.09743030086924,
          0.014454647805636857,
          0.073394901743399771,
          0.12722804274801414,
          0.039825727196119223,
          -0.048787673803005083,
          0.21221266798611718,
          0.13573493901891934,
          -0.049486869393215061,
          -0.18186843077967513,
          -0.054742181060927979,
          -0.089300396283940972,
          -0.19141065599928744,
          0.052708485514283941,
          0.054724906945669741,
          0.062696732938112024,
          0.041787553950708649,
          0.12207114391240624,
          -0.13273934007074106,
          -0.14534984928514966,
          -0.289477037305976,
          -0.041598916785541659,
          1.9957711846659443E-05,
          -0.14965477284490292,
          0.15919511924711333,
          -0.039592510288846187,
          0.098455382936482413,
          -0.071703216266398709,
          -0.10637858976520777,
          -0.0070557536030165643,
          0.13472022268738806,
          -0.043482010483345573,
          -0.0028020708466143362,
          0.0022369134387135461,
          -0.0029481383455922227,
          -0.05380033551113058,
          0.081248998837981118,
          0.06214056093755526,
          -0.013522412185609718,
          -0.035283504795552659,
          -0.078049571315702559,
          -0.017827424111087384,
          -0.18736080003499253,
          0.063105677794437653,
          0.056773650360603459,
          -0.017543315021034241,
          -0.072785023851969985,
          0.039200162333614147,
          0.0751088431344889,
          -0.23125230945724254,
          0.042881067919323106,
          0.1802691397625687,
          0.085908865149077737,
          0.20501345411990832,
          -0.1350197170731805,
          0.070759046821671209,
          -0.28445693702894664,
          0.14860671005236262,
          -0.0178296359238872,
          0.14806215252472973,
          -0.26935517546849186,
          -0.078607484105648773,
          0.055811515127165506,
          -0.0064678832441537517,
          -0.16078768606431307,
          0.026402878710092798,
          0.054176773622060775,
          0.055327452963604612,
          0.02115729158142814,
          -0.025947273554734661,
          -0.0912380327441389,
          -0.06530895869943254,
          -0.24781666611557543,
          0.018763883368853106,
          0.19662952074566703,
          -0.19038479626131902,
          0.017704002375694534,
          -0.047281869827614148,
          0.20401544679424874,
          -0.095559578615138446,
          -0.081806564112184524,
          -0.00071631366285782321,
          -0.12112421544628602,
          -0.0092702868500566561,
          0.034255902405693914,
          -0.023237039159206031,
          -0.083210337714780522,
          0.18810038921743605,
          -0.091869633788569521,
          0.23493233257224458,
          0.059215977871482986,
          0.03962001204855408,
          -0.013021662577106408,
          0.083468503689843709,
          0.10880152350356606,
          -0.103946996325907,
          0.059534242528353182,
          0.10018150898289982,
          -0.12947806787435223,
          0.096021764497941878,
          -0.047186093951754889,
          -0.07011642055583478,
          -0.02698123377871486,
          -0.031529764299349464,
          0.13486411726342371,
          -0.15411822721990573,
          -0.12318937100273798,
          -0.183905185791291,
          -0.030893475061526357,
          0.098818529257656842,
          -0.11078628535466796,
          0.044292838003448666,
          -0.089080872156154525,
          -0.11843815842026753,
          0.10624408459876832,
          -0.14632871040714235,
          0.011979472618128191,
          -0.10542733325407552,
          -0.08139159492252579,
          -0.10713236671819645,
          -0.084585743271225214,
          0.079144787465685013,
          -0.050872397901274832,
          0.02167889903721788,
          0.26060695354626234,
          0.11797678132109493,
          -0.0071894774476326173,
          -0.047311605541130529,
          -0.13102823919657261,
          0.0728658111575691,
          0.0082350954256674817,
          -0.016598370287183851,
          0.063518199650732576,
          0.037808866512577116,
          0.14788460940151837,
          0.0021249584655462154,
          -0.21562223996827842,
          -0.098612857066610979,
          0.17668837132738074,
          -0.010674642050278248,
          -0.0037082431227551107,
          0.080613862150464621,
          0.014385619842336663,
          -0.070726832325218966,
          0.14559337370064795,
          -0.15648348313922086,
          0.017450873292947578,
          0.082739520256019425,
          -0.076112156731838077,
          0.065925353982951268,
          0.017079805935509267,
          -0.086677981758285907,
          -0.056960259246066194,
          -0.040865307265752646,
          -0.0099319913303437743,
          -0.097471048354322271,
          -0.029146485720527426,
          0.090612489261031257,
          0.057047695607905159,
          0.13349582945855989,
          0.042730339727413941,
          -0.043187765196455348,
          -0.23330781450893937,
          0.18538060413252114,
          0.031678012811439053,
          0.0940615191073485,
          -0.18516000160476095,
          0.0467580797964688,
          -0.0090582459403240369,
          0.063299633958429469,
          0.13724139818689005,
          0.11825470851770659,
          0.19604699889714011,
          -0.13266972452807682,
          -0.028490420168635875,
          -0.021640413453190111,
          -0.039393344121327153,
          0.0020142697839738949,
          0.034769657714481032,
          0.31059650390353266,
          0.0027094102710225818,
          -0.0001287428206778845,
          -0.022785330217525608,
          -0.0087404258510523324,
          -0.14256065553194094,
          -0.078322945516390144,
          -0.032270246597984227,
          0.083328560427322354,
          -0.041787692352061985,
          -0.11099348813842441,
          -0.22319232074700349,
          0.087746054876007534,
          0.038614973701550551,
          0.10153590769609949,
          -0.0990868540864034,
          0.038188657240313485,
          -0.052895739539974881,
          -0.0086601395938364113,
          -0.22359067299024865,
          -0.017320430111116728,
          -0.10842469152064894,
          0.049578941142896,
          0.21164186367007259,
          0.015919336598037345,
          -0.079424351248917988,
          0.22991263254569358,
          -0.030118847498504936,
          0.099999211383019593,
          -0.018609621800039632,
          -0.0528162657280251,
          -0.024837455373964312,
          -0.21883096673022814,
          0.15349039389464253,
          0.224961446139732,
          -0.30438896378298513,
          0.10776777080858718,
          -0.16303905162319429,
          -0.0077355160327259474,
          -0.11094305500586348,
          -0.020571810042501179,
          -0.044608543765803713,
          0.045400028786657678,
          -0.042955135709051,
          -0.0030666817310771757,
          0.079709818178413647,
          -0.045489873150982782,
          -0.069512595201791177,
          0.0640382873630263,
          -0.10081030662714188,
          0.11102528003072246,
          0.081566175004317426,
          -0.12764558087985914,
          -0.0040320935756718327,
          0.15239111372730388,
          -0.15286375620489509,
          -0.027868061276113219,
          0.019512440943067498,
          -0.16488258328180067,
          -0.055485342332926069,
          0.0037973521755487009,
          -0.10064307440773282,
          0.0052916816285888662,
          -0.22850846118816523,
          0.0818688663839057,
          0.088631998517766861,
          0.092013926645289665,
          -0.12930451514712843,
          -0.1879934156452607,
          0.17658662868809386,
          -0.046923630260067732,
          -0.019519618602948052,
          -0.020290775005230566,
          -0.17927111817186245,
          0.16696591869171024,
          0.058989887738604772,
          0.2084934441184253,
          0.026741569199395361,
          0.020992643244029718,
          -0.014201525527063261,
          0.092166219148261841,
          -0.0692073059090376,
          -0.041315841878810239,
          0.20058697889241794,
          -0.097708993829575277,
          0.13867182155571817,
          0.0090530961403941373,
          0.07786115629397472,
          -0.15970376609937043,
          0.020566043289985,
          -0.082551923868528762,
          -0.013040781797184969,
          0.21854497646925133,
          -0.09079523302948142,
          0.13086324342926661,
          0.1029341557770088,
          -0.16621763701712236,
          0.032441075775043668,
          -0.027096789592599296,
          0.08880458130751967,
          0.18438666163511094,
          -0.15228846166600071,
          -0.12475197961507653,
          -0.17695329517551286,
          -0.067867334126595041,
          0.054167012302263895,
          -0.08515254166932594,
          -0.074652649382641281,
          0.0024216558293467224,
          0.12991148249911297,
          0.0036142414817241773,
          -0.081689994241147118,
          0.14032428459538998,
          0.14191904979275607,
          -0.1327863891053162,
          -0.016460564060928395,
          0.0053878677987855448,
          0.15018834504911471,
          0.073982426897880149,
          -0.18461969631269942,
          -0.18455618063307436,
          -0.063198612660753356,
          -0.2131076518800501,
          -0.20557417522986657,
          -0.03425931618412819,
          -0.10939057073571554,
          0.091161488257071072,
          -0.20054743258639196,
          -0.023607144151993272,
          -0.16703749212206093,
          -0.028051966657033377,
          0.0080495976242652527,
          0.019906893140984164,
          -0.03459764163334135,
          0.03090894111044672,
          0.11718000554911215,
          0.067100326249243766,
          -0.087180785022348384,
          0.067960747914300859,
          -0.045047207782016048,
          0.025781986905237697,
          -0.057144816093844669,
          0.0045169721225441495,
          0.11925522876452078,
          -0.13919341731775142,
          0.074847243076527875,
          0.14861297095319695,
          -0.070005609582483058,
          0.32347341065615415,
          -0.14394871352612826,
          0.13420458825496087,
          0.1967872328757625,
          -0.20814304999137226,
          -0.10396211588051869,
          0.1484466821370983,
          -0.14164176119104396,
          0.0089390688410588542,
          0.10558697403099718,
          -0.096282333003009049,
          0.054182022944902396,
          -0.061154037977823282,
          -0.0915649424486112,
          0.016977787168413489,
          0.00353063820495006,
          -0.18843815033902039,
          0.028033381676960144,
          -0.073395954025680651,
          -0.061330894868639317,
          0.12064467638792065,
          -0.18247956009963759,
          0.028000683370468109,
          -0.028517031931879124,
          -0.0009295625331895679,
          -0.20327131479320945,
          0.037447918193225717,
          -0.1636019683419026,
          -0.03679432888024229,
          0.016781570758043873,
          -0.083201890552296362,
          0.0978863534174088,
          0.17869857901053887,
          -0.057734727841225492,
          -0.055669895981165868,
          0.080028655166444154,
          0.26896959668134429,
          0.010599625656426061,
          0.11924317257307478,
          -0.1358950250415932,
          -0.12072487426538533,
          -0.11978035153291793,
          0.085155978360270931,
          0.059655571136611976,
          0.036855142803008639,
          0.02680933125678198,
          -0.054621076922665629,
          -0.10975668909227498,
          0.14492143791434264,
          -0.08318375201803821,
          0.12724876909067523,
          0.1162273517677956,
          0.032552548076972304,
          0.16668946327650108,
          0.012942009831714309,
          0.071755912505817032,
          0.10330696740740579,
          -0.10327512094463154,
          0.10870675162533354,
          -0.23792505672714911,
          0.03605215854733447,
          -0.21615734848337964,
          -0.015264495834832463,
          -0.094735278189787525,
          0.051920147973403427,
          0.080694902130784077,
          -0.084054445995373636,
          -0.1073705902382503,
          0.18202522894178516,
          -0.029244926175131542,
          -0.0042414169238058387,
          0.15837076313668302,
          -0.0069944451518641152,
          -0.12445049977453694,
          0.098121270753480136,
          -0.051295592606125429,
          0.1223189240311654,
          -0.025989111447696264,
          0.089141966246027438,
          0.071293099819146319,
          0.0097195106449975734,
          -0.0046150263135449534,
          0.057768733623571857,
          -0.078403684258007533,
          -0.17710924922707441,
          0.18668288890218929,
          0.15103200198984232,
          -0.050198893458671547,
          0.200451284331795,
          -0.0358174505706833,
          0.014282291640565574,
          0.047127584869816927,
          0.12624411658264442,
          0.030348882883072355,
          0.20324492645763542,
          -0.089049404942977251,
          0.057380507194751421,
          0.02678586185588307,
          -0.0663841429282492,
          0.072317664640212262,
          0.018430650856564357,
          -0.086377931736672173,
          -0.16966041548399044,
          0.0056558044536904554,
          -0.14436169113927022,
          0.016934625695995027,
          0.044588294783240508,
          0.062032172320908928,
          0.058170492998458168,
          0.21216419280121668,
          -0.0020630340198388533,
          0.068881229684232437,
          -0.053770922448461017,
          0.034469865402484895,
          0.001103881379959511,
          0.056028090090628285,
          0.15389624191947038,
          -0.11106686064527073,
          -0.0861397917001951,
          -0.10342001709546098,
          0.018804354607446491,
          -0.097718177369751857,
          -0.29395421117987647,
          0.080136811221768967,
          -0.25864567820565731,
          -0.11433157357302758,
          0.20127900107119592,
          0.042375780109379473,
          0.037827651301104923,
          -0.26273088792864591,
          -0.1194517184549494,
          0.0036489781878603677,
          0.055611380733564031,
          0.0089935795999712062,
          0.049684939598372252,
          -0.037030169692037547,
          0.065022796523187765,
          0.11183150076046472,
          -0.097261413252423545,
          -0.033600389885917646,
          0.067653130622488469,
          -0.028885629811335578,
          -0.10991074070199482,
          -0.062955131593862942,
          0.083846159225265463,
          0.053042697774589816,
          0.069562005952875428,
          0.025697790705605308,
          -0.21702936999682287,
          0.090336923186498427,
          0.049989312753965315,
          -0.026765727671615152,
          0.057558116977318517,
          -0.098761719807163556,
          -0.12827672582338995,
          -0.0657616564877205,
          -0.054976058332563367,
          0.054711919608891359,
          -0.011502060201079762,
          0.11199639867033877,
          -0.084068861033673448,
          0.1494933232120583,
          0.17329452071677576,
          0.06876011936149129,
          -0.013886191591127332,
          0.047203427935372015,
          -0.14372591944882673,
          -0.1656549444613504,
          -0.014950694297239869,
          -0.14457518967488014,
          0.034775407265531515,
          0.091407021925330359,
          0.097643172068114487,
          0.026358660953526035,
          -0.0040295573494851895,
          0.02598208366172133,
          -0.13626954675898956,
          -0.26605798600765818,
          0.12374235422808076,
          -0.041099190197901946,
          0.14967781726443519,
          0.12326345540450899,
          0.0676324992167055,
          -0.074200822727669966,
          -0.040192523041772968,
          -0.17819085232629731,
          0.068487384817516234,
          0.10339391210273119,
          -0.025742779776380249,
          -0.14473145235089238,
          0.10387284165567415,
          0.10913414622985523,
          -0.0015019536434519175,
          -0.13027261479608407,
          -0.212138394417275,
          -0.050202202397205395,
          -0.086557989201106064,
          0.048787593278146954,
          0.11104029112843218,
          0.22474529864939138,
          0.22197251052869432,
          -0.027519018122409096,
          0.096706270936015512,
          0.045569446177730774,
          -0.14789165587100311,
          0.16116426265490455,
          0.029411718227410611,
          -0.26542048917646593,
          0.15461675413201079,
          0.12040596351038793,
          0.082032679434460881,
          -0.10426182443528162,
          -0.0742995567642508,
          -0.017055931169141357,
          0.0021456889954626079,
          -0.14131821749788948,
          -0.071286235303604478,
          0.16935162523679834,
          0.017243800734567778,
          -0.11695750527954038,
          0.14417715165904718,
          -0.17158367503039895,
          -0.059714761384851725,
          -0.017353310868126696,
          0.011930194563825797,
          -0.25868576056559967,
          -0.129772188392614,
          -0.11975649574007857,
          0.045132862690759577,
          0.18510475240865865,
          -0.072956898578149673,
          -0.15848581807754239,
          0.16612274937769864,
          0.026348405227155352,
          -0.13241167082762539,
          -0.20194928917928617,
          0.050034291378310433,
          0.019698149146588465,
          -0.040122191112533408,
          -0.13661915383054954,
          -0.16051182767552447,
          -0.31732173243469358,
          0.05868017795515882,
          -0.14752302093052425,
          0.002663021110314444,
          0.025532488791877434,
          0.074620032522289909,
          0.16394443089166844,
          0.083422096987846583,
          -0.051141323473078877,
          -0.031155912084218303,
          0.11475910113884213,
          0.14826561824688653,
          0.14218290397196018,
          -0.039606050567425978,
          -0.090562969186684508,
          -0.039400790380802589,
          -0.025115643536898095,
          0.079347580953177385,
          0.036613229389936934,
          0.07579280558526319,
          -0.078323996485077679,
          -0.016849400624249968,
          -0.11179579165004516,
          -0.032133725741075862,
          0.0051328518886409264,
          0.059340429782636178,
          0.016089254642987705,
          0.086704875591882474,
          -0.15970506082684977,
          0.005100770676934728,
          -0.011592785730157224,
          0.071608097872954343,
          0.021559704074041557,
          -0.075804464787435577,
          0.034159235943709947,
          0.040150286855946557,
          -0.15438370534602325,
          -0.20340088993284047,
          0.12791493458615724,
          0.081799464372107639,
          0.10236223776044258,
          0.16358809886437919,
          0.07065359895558683,
          -0.20840929513049272,
          -0.034269555125436647,
          0.089185924646093331,
          -0.054786855912183886,
          0.019128441008958733,
          0.052722194949347378,
          0.092727547988433953,
          -0.13206602652657345,
          -0.007874556340531795,
          -0.022739991443385565,
          0.00052413371745939743,
          0.10784015391871556,
          -0.051868437748093688,
          0.11817100853081519,
          -0.07696144327492753,
          -0.05098048492683685,
          -0.048639721105989422,
          -0.17383269302302287,
          0.0677781571449704,
          0.038005334863764978,
          -0.065832855916120314,
          -0.022938489266221482,
          -0.0086683239899851619,
          0.051435558830172937,
          -0.039702956164462559,
          0.22669869998951211,
          -0.15651221689543965,
          -0.093963389680338266,
          0.063612354661825535,
          -0.092087863071855125,
          0.0066775391920042993,
          -0.10907364504106627,
          -0.08979425983775538,
          0.12660737513799267,
          -0.057156462170571645,
          0.11282215102543046,
          -0.026092112926603968,
          0.12921333468415488,
          0.097037597251316152,
          -0.0051275154145948845,
          0.078174749545721026,
          -0.0047881432434750326,
          -0.042084392847920857,
          0.035975825650426368,
          0.10366631421959528,
          -0.26385537399054665,
          0.07848779581951644,
          -0.028409386706992806,
          0.0571057003186117,
          -0.09657034357507803,
          0.10360507333924698,
          -0.0091593457697974941,
          0.20636170744896032,
          -0.16226656960258334,
          -0.19056017242830078,
          0.039782708788205591,
          0.033201864758402075,
          0.023727928675729586,
          0.016626694260656553,
          0.070948908880124673,
          -0.13969155677446521,
          -0.025658614968465398,
          -0.13328732024677931,
          0.053005163925220235,
          -0.20175806836902024,
          -0.0701654533998985,
          -0.058018030524684426,
          0.046629377458461532,
          -0.09514013135892152,
          0.012571482743684524,
          0.083972315708788756,
          -0.0010921118499680525,
          -0.091982694471865578,
          0.055535867911907691,
          -0.05257753717635448,
          -0.040650230663717868,
          0.10322830520294141,
          0.12888323251823106,
          -0.055391084261774456,
          0.028346444420622736,
          -0.056708948161171925,
          0.069974501887174884,
          0.11275025962253388,
          0.05019874898535491,
          0.20063822074797394,
          -0.034123428942669176,
          -0.15672842862825589,
          0.016001779613700303,
          0.31951406005961214,
          -0.17931201759075796,
          0.065835968856673047,
          0.025166801602635357,
          -0.021283227295530782,
          0.13347945465953737,
          -0.032639469309568146,
          -0.16863435065129381,
          -0.032430767184018439,
          0.0240134510124204,
          0.065823602532223288,
          0.099973238286603761,
          0.099830602240578534,
          -0.11958807800806176,
          -0.0550272451340983,
