{
  "_layers": [
    {
      "Weights": {
        "Storage": [
          -0.63542571196613329,
          -0.10134754582826572,
          0.20345507377986358,
          0.0629343966266443,
          0.68324421306787242,
          -0.12613092808821513,
          0.11859341972654273,
          -0.38375836233428989,
          0.1111267657282051,
          -0.39978078386546878,
          -0.036957437290391394,
          0.56088740473876408,
          -0.21630224214473165,
          0.370372667283337,
          -0.36965244480326603,
          -0.20863954783363145,
          0.62029546414284609,
          -0.2894445267803526,
          -0.22893203296688058,
          0.25446622973444727,
          0.28828815052035217,
          0.022574441141028988,
          0.5524208959718292,
          -0.00935835371545117,
          -0.31928750640565345,
          0.69182526456484439,
          0.63664657612993036,
          -0.30847666118435474,
          0.046105330241732918,
          0.4109017747963285,
          0.33748243678859918,
          -0.24634885384357019,
          -0.53513190668637112,
          1.1260801661159354,
          -0.78008567236094084,
          -0.13661632718919445,
          -0.248564884072567,
          0.31101850780218832,
          -0.543503465354641,
          -0.055438997696239764,
          -0.5348412119444903,
          0.03538246219529205,
          -0.060677939827834544,
          -0.040048018573698663,
          0.093831552099749166,
          -0.31288947893188168,
          -0.31689658145424576,
          0.013579578781619276,
          -0.23335867820313005,
          -0.60436294808431712,
          -0.15980231542020029,
          -0.31530187962359851,
          0.37406169971851827,
          0.23913304019924617,
          0.32531300677286834,
          0.38035085773298322,
          -0.10922109702942819,
          -0.60021527202349911,
          -0.011882664574962815,
          -0.39389059166288826,
          0.39494328290862835,
          -0.49420307123837048,
          0.013148097674433481,
          0.31551082980374534,
          -0.82235815572386006,
          0.46009228747943953,
          0.53090071051181487,
          0.41650416864388562,
          0.13154390240021549,
          -0.33563666463857367,
          0.053908353193629965,
          -0.43487724872848554,
          0.75798829774783649,
          0.14752001172216667,
          0.36139386954686648,
          -0.38319319972608878,
          0.28304133478854215,
          0.35882287513154865,
          0.48257114723904238,
          -0.050637542672435254,
          -0.41344434046493211,
          -0.55776378406539273,
          0.28896423386307085,
          -0.39214828280788711,
          0.21638247798665042,
          0.43825809754397249,
          0.71756315756481548,
          -0.056047408236628911,
          0.0412543270823772,
          -0.24119281759853453,
          0.0510549871346025,
          -0.47602674290828112,
          -0.54665194861212418,
          0.19112609867735633,
          0.010212153550817133,
          0.093430770072489788,
          -0.41690001393562504,
          0.71561831308971835,
          0.051938558052653773,
          0.0058576758244191177,
          0.4437132650013848,
          -0.74918902094102813,
          0.35130835090438273,
          0.44662250452012936,
          -0.270696465869655,
          0.049940715174789568,
          0.14433283527289109,
          -0.28952386824255583,
          -0.91236107999099325,
          0.0658327900209546,
          -0.071396241625017065,
          -1.148223673945137,
          0.22731926287379514,
          0.012288036678688774,
          -0.39216116100815424,
          0.14323211439296138,
          0.94213524747003885,
          -0.30013972406265638,
          0.5716424209111417,
          -0.16753617358038797,
          0.56254844796095516,
          0.42707795372032231,
          0.709453415799927,
          -0.29610223928216206,
          0.461525638382591,
          0.31356921672964594,
          0.52543084051693389,
          0.16476312490773648,
          -0.37945864953666619,
          -0.57047447106788263,
          1.2195404420548857,
          0.1158290634136329,
          1.0323197929254526,
          -0.79618979249103261,
          0.300828413954754,
          0.48306468720028395,
          -0.50507747491176269,
          0.22037261409801082,
          0.32079176323132513,
          0.54939682986690452,
          0.12251732412385682,
          -0.4877876786711654,
          0.17827989912223621,
          -0.34938063744251796,
          -0.23843679876251614,
          0.12733275549345363,
          0.0032011962230573789,
          -0.19486186835084368,
          -0.39623227996603094,
          -0.10537208574082746,
          -0.48143810998802383,
          -0.7972417039346642,
          0.15646887422839897,
          0.12632825876638371,
          0.37045225956531552,
          0.20873285746077128,
          -0.1605920034260333,
          -0.49482056847627964,
          0.13724780656368937,
          0.10707847108927573,
          -0.55628308567450646,
          0.39781689467878334,
          0.274393973017427,
          -0.2056047513820739,
          0.12604377213206069,
          0.15720115785847813,
          -0.38813203171903149,
          0.20402867706785488,
          0.45682798536053687,
          0.34369411989050297,
          -0.13648808527346812,
          -0.72408159288112273,
          0.036179896838461331,
          0.55807706572905269,
          0.39878087667862522,
          -0.32411686815359764,
          0.029617707239803372,
          0.18743052123093998,
          -0.30223921771341355,
          0.20736176047279276,
          -0.24760204166144015,
          -0.11003484160068278,
          0.64421231477995511,
          -0.24361828856091283,
          0.059690192056790096,
          0.17142979821064214,
          0.2658128659343833,
          0.16576827609016964,
          -0.53873133834487918,
          1.2019000826193018,
          -0.085222174228843942,
          0.42877332140026875,
          -0.70386324020868352,
          -0.16821252510949489,
          -0.697338235948642,
          0.32653736125004823,
          -0.31393159003444571,
          -0.17410966407119854,
          0.34274859024324744,
          -0.25790881356352924,
          0.10865761343468903,
          0.38404623883905464,
          0.14707607208143825,
          0.244652008133802,
          -0.13450572012078221,
          -0.46663834408121335,
          -0.51105342756416361,
          -0.66192469528062914,
          -0.21841144675378574,
          0.16174958669553258,
          -0.38485069904210634,
          -0.10170274360308026,
          -0.220685022961093,
          0.10087219013911125,
          0.29621291704218983,
          -0.4300166537140116,
          0.15216856644166094,
          -0.17186593152896887,
          -0.20586968711860557,
          -0.64560577213391035,
          0.0633718986549634,
          -0.66534203174313267,
          0.32876175623444165,
          -0.11158612274256156,
          -0.26538908218028995,
          0.47673617300748061,
          1.0116358208605043,
          0.5057370610991,
          0.071217985040482573,
          -0.043249380088543413,
          0.13254253423640019,
          -0.447976901328805,
          0.34674567865828093,
          0.59179171515430273,
          0.20648172934071846,
          -0.65238574192115206,
          -0.12231906508768299,
          0.086269425715514131,
          0.052689012044085985,
          -0.044676618086279041,
          -0.7626729069361714,
          0.21239539737671922,
          -0.024044137153815284,
          0.07474242735006581,
          -0.70334004973675,
          0.63766621504644594,
          -0.020657691681346603,
          -0.3604122105336805,
          -0.25816371892389034,
          0.27875669729385544,
          0.36797444520948558,
          0.11409354375610051,
          0.0033984136519745736,
          -0.017989996674722532,
          -0.44526184050335377,
          -0.00477148096870316,
          0.51560494478604058,
          1.3776270960754617,
          -0.2933906239573974,
          -0.73875704589801217,
          -0.11535126365684663,
          -0.77809340826596318,
          0.42468173013102228,
          0.14415145111714522,
          0.18086694642675324,
          -0.42239060678533608,
          0.21639933567674943,
          0.065206939473091946,
          0.032705308791719033,
          0.11993695986589452,
          -0.48511190895931378,
          0.2941477698587367,
          -0.72751869652154288,
          0.1083520927384901,
          -0.016587092376983782,
          0.16910387004283531,
          -0.28448202669040779,
          -0.33176483566801213,
          0.44417648011553473,
          -0.712277300471289,
          -0.74575233940665708,
          -0.32828745778890389,
          0.9711385498615982,
          0.24386250404139595,
          -0.19878840078973894,
          0.33736299567865019,
          0.5633299678892848,
          0.13404468812602283,
          0.16834508275553861,
          0.077518377198511637,
          -0.30404528830123506,
          0.16137036046567463,
          -0.27208656609681392,
          -0.26254554318996642,
          -0.23418513592052759,
          0.07441058291341511,
          0.442972009664377,
          -0.044964118596204208,
          0.7494660505820363,
          -0.25444921826571143,
          -0.049400023960958571,
          0.17177211493227673,
          -0.14602189708145388,
          0.13980774665535931,
          -0.17285668523416503,
          -0.36428950862746934,
          0.020164795452543016,
          -0.015042982123068713,
          0.58267605924509136,
          -0.252826378841792,
          0.12247629573851113,
          -0.38591939479921616,
          -0.12585053817742722,
          0.46876545709418355,
          -0.40614613946717126,
          0.15002660759584327,
          0.36666490367352617,
          0.076543465051072748,
          -0.030808773908710112,
          0.023900639438655311,
          -0.37387637497391535,
          -0.46468465612853371,
          0.093744301149797885,
          0.42608228792282654,
          0.31460553070739383,
          -0.53115414680635264,
          -0.48741406418680877,
          -0.32127846354185685,
          0.016631755432385494,
          -0.30586354041648434,
          -0.36810143800921225,
          0.44501198514463608,
          -0.032913299846947887,
          -0.034869327685349644,
          -0.074104133241094258,
          0.63825343858873018,
          -0.10828731112957735,
          -0.59977559712856776,
          0.090026504865368229,
          -0.53630722474180592,
          0.25013176863420616,
          -0.32175520596540075,
          0.13353716844822075,
          -0.3440619698755939,
          0.0867713426810427,
          -0.14787590238552331,
          0.68457553389026138,
          -0.46950981927762159,
          0.14518078039446031,
          0.18914660067786421,
          -0.2115454807984839,
          0.12118953735416849,
          -0.3357449410654943,
          -1.0502410758664011,
          -0.20193595534636605,
          -0.27439870548219158,
          -0.28695445146606063,
          -0.35524862654617,
          0.20165849335833402,
          -0.70919361650715462,
          0.5785792425592885,
          -0.09439540199747061,
          0.062181546260064259,
          0.25841484552994803,
          0.51687487081092864,
          -0.51404459582305451,
          -0.60609468981809134,
          0.48225184309095021,
          0.34688884197353137,
          -0.34423318580574885,
          0.69556307641733062,
          -0.45053678443334133,
          -0.055916058984846265,
          0.48764442785603074,
          0.12411432618766835,
          1.2013324318830012,
          0.11814970456694997,
          0.97865626364959368,
          -0.65465184075642679,
          -0.3080880585991812,
          0.43659431202933274,
          -0.16348668275262845,
          -0.090391886536690016,
          -0.503245576657303,
          -0.1494946963269,
          -0.2456731966043359,
          -0.07477829298983045,
          -0.040248218867093219,
          -0.66756666185598768,
          0.47609804319886345,
          -0.41385663703664061,
          0.1256776408334063,
          -0.18452470758120273,
          0.071687256026014154,
          0.046641305300111423,
          0.37958932410621721,
          0.31952693162630463,
          0.49135888403189321,
          -0.093211200612578482,
          0.21648704576080585,
          0.603805775485367,
          -0.0909155887308669,
          -0.57016482249563849,
          -0.29411559349381766,
          0.33840831364431762,
          -0.28067816519618521,
          0.13090770261979429,
          -0.41057355006378432,
          0.86630912647559677,
          -0.34596480536362717,
          0.30579122895918232,
          -0.030620814138880958,
          0.25827728567386188,
          -0.056967558029179209,
          -0.029479372402394406,
          0.32137348651986625,
          -0.25700230979668348,
          0.11543781100366239,
          0.26762491894683055,
          0.1184920449613283,
          -0.20423549376486805,
          0.53852768180565647,
          0.541029093919709,
          -0.86331912283657064,
          -0.0799106866189568,
          -0.14647707757685208,
          0.14273050581003327,
          -0.71357999180871556,
          -0.46100975063422506,
          0.22368084114931991,
          0.38772295621203484,
          0.13200942128782947,
          -0.514715938247432,
          -0.70927289207611244,
          -0.19551000779722508,
          -0.16440352075814985,
          -0.091451705510140771,
          -0.27985082888737539,
          0.13427350091969842,
          0.32557913551889028,
          0.35734700716409834,
          0.41937266351672819,
          -0.40881892320817081,
          0.54176068502519958,
          0.016581540427500513,
          -0.0960645056156457,
          0.058316074092135281,
          -0.33175388929727873,
          -0.60789796957956221,
          0.16760075838977448,
          0.30933398557634884,
          -0.47440327460774295,
          0.1295526365001505,
          -0.65937640151610288,
          -0.18802760190216783,
          0.46858170925457915,
          -0.11637613058892469,
          0.12373687990184522,
          0.46840963629557353,
          -0.07222127973481697,
          0.13304169562302043,
          0.38123034780867482,
          0.52214862747854562,
          -0.33025267928705104,
          0.16908039273425116,
          0.16995734153080042,
          -0.46064178832062874,
          -0.28837174369495494,
          0.089889752522617772,
          0.18218389454803369,
          0.22041597383065537,
          -0.72951996927819851,
          -0.096678299560657863,
          -0.54656894070121442,
          -1.0239788335630278,
          -0.62629307641355036,
          -0.60569942924399212,
          -0.29322109974160354,
          -0.62174285996113676,
          -0.050893449448652359,
          0.032344495198334128,
          0.27429168448938518,
          -0.24251127324152921,
          0.17746774195956649,
          -0.090385612283115341,
          -0.56573355098902245,
          -0.094361236794615222,
          0.17216542674949759,
          0.39575817412247266,
          0.2722413568701072,
          -0.040391633126482057,
          -0.042235636220042214,
          0.23698215113142362,
          0.097756196517139363,
          0.60875597738956133,
          0.939338977387971,
          -0.50388389023511171,
          0.3771155340533765,
          0.83790669373811177,
          -0.026818840838125066,
          -0.29691330722332027,
          -0.0104973462861867,
          -0.2516637449728456,
          -0.63744979461758511,
          1.1197938709020452,
          0.35855839923327343,
          -0.062050528644580154,
          -0.49510976846531485,
          -0.2628438267544505,
          -0.11241290099896072,
          -0.19901528363456644,
          -0.0991595832825933,
          -0.68918325987984952,
          -0.4633885354500672,
          0.705373986335131,
          0.02787940344360313,
          -0.34788026572787639,
          0.028579864089006306,
          -0.49172538279554406,
          -0.77222082055108987,
          -0.83204047198326991,
          0.14814974705353129,
          0.27504381636936864,
          0.26204957477593138,
          -0.68026678684974928,
          0.15833453609592091,
          0.639946537908393,
          -1.0276472896434017,
          0.13270316701582952,
          0.32498845846313662,
          -0.16786854239223803,
          0.46276175998069935,
          0.081994136353263816,
          0.18612581458415975,
          0.67876112602060645,
          -0.16420905150016954,
          0.32735069170048281,
          0.39252887617794963,
          -0.41147248275431625,
          -0.050680947077009278,
          0.39084225405852,
          0.29470333407341293,
          0.22438891476335471,
          -0.033121368828696013,
          0.54847903042579438,
          -0.32089139648207038,
          -0.0030295819998541256,
          0.0580397381372491,
          -0.21662486387618335,
          0.3331946298173028,
          0.18019522515999034,
          -0.24670509478953526,
          -0.821010470363618,
          -0.68257757746891112,
          0.33049917040153048,
          0.072980207646926532,
          -0.0723689964471473,
          -0.0332411209789624,
          0.10056542339332511,
          -0.502410957682675,
          -0.68504387323806837,
          0.24888473884464224,
          0.22191893827523845,
          0.26538446714754677,
          0.47102973452487334,
          -0.21344940749641331,
          -0.17859957024477036,
          0.3719190855910276,
          -0.42156879730076668,
          -0.013573196426188055,
          -0.072184628506125337,
          0.00803835209860427,
          0.39446064778557816,
          0.66488565761595952,
          0.0935608554905179,
          -0.495706900694738,
          -0.54823347144097778,
          0.41278476369867495,
          0.66091166208548047,
          0.0024026178849279678,
          0.263924296874196,
          -0.500055798404515,
          -0.018717227123127251,
          -0.13460967140933064,
          0.77050416861637228,
          0.21053198989760674,
          0.39314401979486396,
          -0.2677795373857127,
          0.25956678340444023,
          0.55287720800133633,
          -0.5592146090287039,
          0.0071545402644753011,
          -0.40969015778330131,
          -0.12451101240405817,
          0.1959520067624563,
          0.52886876836912744,
          0.13834033158495257,
          -0.2037053217046445,
          0.42868700116574476,
          -0.80752853873793207,
          -0.27692338995705812,
          -0.82888434864835148,
          -0.076065837846279946,
          0.34472665660252133,
          0.14304551025657791,
          -0.0642447219188768,
          -0.17451463868098363,
          -0.27275961142751159,
          -0.0843850986383789,
          0.09124907281684394,
          -0.50300941714256986,
          0.048439052740771309,
          -0.389580116554052,
          0.49490866310142989,
          0.30977654792779757,
          0.570340418546654,
          0.55236861109334368,
          -0.27668632639235324,
          0.3040090436589189,
          0.33351315855578095,
          0.13279069989586093,
          -0.3899824397991361,
          0.81971854936912225,
          0.14998615917648403,
          0.54168709901266265,
          -0.029495949452723456,
          0.37288866628608719,
          -0.22010918041036126,
          -0.18994670374786707,
          0.10833865833212576,
          0.58032562327832649,
          0.49033245788285129,
          0.035691935468857489,
          0.36747363798936289,
          -0.4555840191860322,
          0.17178147305172808,
          -0.36107624859889847,
          0.20048603147903574,
          0.0020860634695608806,
          0.018969870856408732,
          0.034699276444279739,
          -0.24925238393336807,
          0.11571297260309903,
          -0.38006086316637988,
          -0.94190539852843524,
          0.068215420499465912,
          -0.38266048699273247,
          0.49995987159305377,
          -0.83115593491350215,
          -0.25994087986741804,
          -0.010601414486789517,
          0.095144299491804488,
          0.089071332671942852,
          0.58575229978394361,
          0.047131815666416166,
          -0.48517415288178539,
          -0.12631496635586537,
          -0.39960969601004626,
          -0.045496495300414608,
          -0.69775232643343754,
          -0.36472752390549518,
          0.45410929494462449,
          -0.040324961685802567,
          -0.64859256655691688,
          0.441564004998836,
          0.38617954230023577,
          0.094072146384632543,
          0.031525845235150583,
          0.01321019153681573,
          -0.33848244329736193,
          -0.17630464107952709,
          0.39266747870987412,
          -0.037911078548758866,
          0.76268626107873871,
          -0.22652000845523299,
          -0.079434601645783948,
          -0.41917556585706661,
          -0.4504802138595263,
          -0.010876346620817188,
          0.52915483172815947,
          -0.6937113643794337,
          -0.568874859696781,
          -0.45096257523590694,
          0.58099866851169846,
          0.46394535121903235,
          0.62514607286755042,
          -0.54636558728008533,
          -0.06254049606455625,
          -0.940542366246506,
          0.13186532826490296,
          -0.71481686331182492,
          0.32179938190965685,
          0.26229376778960145,
          0.036072040664340652,
          -0.75180967469674143,
          0.055499764623071865,
          0.1768083767055687,
          -0.4674663239059339,
          -0.051343627118158583,
          0.61679649400953,
          -0.25195681226084,
          0.30568931966316204,
          0.12227125100950299,
          -0.30749109554309934,
          -0.37276478689586334,
          0.40281691138468295,
          0.25907341989499161,
          0.070333346470467337,
          -0.046139439934265759,
          -0.64088224084050494,
          0.13102823515047304,
          -0.10636395294525834,
          0.34500645880057579,
          0.34290200454334324,
          -0.055914081138049049,
          0.44841679734741285,
          -0.10115223602944395,
          0.19210548108546047,
          0.22221678455597052,
          0.30254317009739756,
          -0.10959144215428622,
          0.43447278483828705,
          -0.22287336240090511,
          -0.083580040572860226,
          0.162466498550455,
          -0.95814204562442518,
          -0.26388452215652614,
          0.38379433352383274,
          -0.37900559694416991,
          -0.89091033977795719,
          0.2506091914671153,
          -0.94161099935179193,
          -0.2864523451606058,
          -0.41836745339177489,
          -0.16588918451864168,
          -0.30885535113758572,
          0.33393505427838693,
          -0.7214754897749267,
          -0.081112038753472851,
          0.055935663603997321,
          0.099978445049709277,
          -0.28739729506486644,
          -0.504114961214329,
          0.56067478334368981,
          0.21279369530350178,
          -0.076935230063945315,
          -0.1768501118136534,
          0.45496350087476944,
          0.68509558475788246,
          -0.081116912954982426,
          0.33548476943694844,
          0.6211784755280485,
          0.3844939959054951,
          0.30635492083872734,
          0.28453300250182473,
          -0.30933513809392121,
          0.048486715698401482,
          -0.72230066100621837,
          0.29298461035373619,
          -0.070299437997169645,
          0.29762859563247762,
          0.90111051862513614,
          -0.15192709268864035,
          0.42310390104074092,
          -0.64297705779567271,
          -0.42142480865646154,
          0.87836968909981261,
          0.2392605653663103,
          0.71810580617208941,
          -0.0034479752185951626,
          0.61349072792899428,
          -0.17403374622179496,
          0.25609390492312989,
          1.0806176300090984,
          -0.20730091403967704,
          0.5843773527641265,
          0.32299551320163228,
          0.53927190861250451,
          -0.54968871714378309,
          0.14640364766184497,
          1.0809135326505779,
          -0.56255007647725741,
          -0.18197480377034508,
          -0.18600846739093466,
          0.15236681262294505,
          0.29989298871026931,
          -0.32271218806272239,
          -0.22379852868181782,
          0.14210653326263861,
          -0.17954631696185056,
          0.3327241817497173,
          -0.090959043416441829,
          0.48454983519194939,
          0.555991845308202,
          -0.018857029722242083,
          0.077749604101057843,
          -0.11252003390107065,
          0.19792644003013171,
          0.029017787004657694,
          -0.051350518914714441,
          0.32582613646271652,
          0.41283266605952906,
          0.098515076262740683,
          -0.12320540700485265,
          0.047592059356099031,
          0.10161823257377417,
          -0.32601702949199346,
          0.66073245132893577,
          0.2519945168177648,
          1.030617901471784,
          -0.30503402734125529,
          -0.21206285915609582,
          -0.40469263982438258,
          0.082064601772707232,
          0.66311589901161228,
          -0.56221010238214764,
          0.73788483798046489,
          -0.31574510137374961,
          0.22530221897625616,
          -0.22752767236251487,
          -0.18715278587056369,
          -0.57508522352380331,
          -0.067267288166065434,
          0.64025772757596411,
          0.3710788006951678,
          0.22580437219593927,
          0.20659828975928507,
          -0.25657750967695847,
          0.040740186045198384,
          -0.45026904581936361,
          0.35025473311828564,
          -0.79306056657477386,
          0.69713274091890709,
          -0.28404824228221831,
          0.45844255529503658,
          -0.061510574679131839,
          -0.46998875337710133,
          -0.0872354822905493,
          -0.0015934430082452525,
          -0.42564029625696326,
          -0.1948005970024109,
          0.34033405783353987,
          -0.3755818243005532,
          -0.47864577120396212,
          0.16275084017264707,
          0.37365582388649654,
          0.2886172654647513,
          -0.099058108691622543,
          0.3243185791522184,
          0.50156523037858736,
          0.21631883234815896,
          0.4910224181587346,
          -0.0738626901694229,
          0.21184866846755704,
          -0.1859080611365958,
          -0.32528643445356537,
          0.12197932059519631,
          0.058635978172460509,
          -0.0996479192591693,
          0.44012209713771816,
          0.72356935219930751,
          0.15346896351107631,
          0.763565673242288,
          0.62642318763478166,
          0.24255842873722525,
          0.13985899054988529,
          0.11360929113048224,
          0.12874656190269745,
          0.10496526645271836,
          0.05933739827849107,
          0.46028453779841255,
          0.18766645969192811,
          -0.462490144087045,
          0.28314688481936973,
          0.23067309813252318,
          -0.8756780412498959,
          0.0161325493287332,
          -0.200975745963923,
          0.864761711633215,
          0.21924953305175887,
          0.29700212086503791,
          0.71633215557757313,
          -0.16091571655400444,
          -0.15389469478165171,
          0.015520213298967672,
          0.15963957260467906,
          -0.59044041517152324,
          -0.71000305490074367,
          0.054309035475646257,
          -0.20073730740335924,
          0.025245208356365807,
          0.86261604092804134,
          0.053248770870906244,
          0.65356241805791848,
          0.063735872391977227,
          -0.2779462087134294,
          0.025457104438980638,
          -0.2004178109449998,
          0.62614733672654133,
          -0.54816357442835406,
          0.94426809107204457,
          -0.51500941997251193,
          -0.2680847019716352,
          -0.35620957109518636,
          0.17502924871097014,
          -0.76338689704124107,
          -0.36490927058451367,
          -0.026743622883430497,
          -0.095792050404403084,
          -0.22410454032803628,
          -0.16679611701455213,
          0.27704088091224432,
          0.8523940268476452,
          -0.25484667077039552,
          -0.046258075979163656,
          -0.16016299850895238,
          -0.391044530768196,
          0.0064845673509034175,
          0.044879413421158108,
          -0.18016650148186264,
          0.47429251637484704,
          0.77794431720059309,
          0.48391089914111884,
          0.16952402606658368,
          0.57607731557951181,
          0.41317962880558934,
          0.083500615018625934,
          0.16567770515461683,
          0.1934822870908707,
          -0.23661595237823457,
          0.68961411370086145,
          -0.62768039055077507,
          0.09081293726024213,
          -0.1664663591720815,
          -0.025911984191513426,
          -0.20318848977542539,
          0.10926043802376471,
          -0.054499507326268279,
          0.67008534623099525,
          0.032353246076916267,
          0.56298078829569564,
          0.062778187953381276,
          -0.033335637437967046,
          0.33868236049952388,
          -0.15641815011823404,
          0.92886364046488712,
          -0.56462541875150885,
          0.33668982353397919,
          0.61582436460439771,
          -0.095890227579144616,
          -0.11184986083106269,
          0.047925858730215015,
          0.053058447068408343,
          0.2024131909581387,
          -0.029900299332110383,
          0.96886844104385939,
          0.9101321121631244,
          0.16103508432904889,
          -0.45203035699305866,
          0.5441252060196744,
          -0.13828383455267443,
          0.12226988993731493,
          -0.30879591205451767,
          -0.024515391768127687,
          0.68754298215467446,
          -0.47290306704065105,
          0.048494823823308268,
          0.26802686816278154,
          -0.40420691335201064,
          0.015140307093561015,
          -0.16013508992445874,
          -0.57244582107971986,
          -0.24626217994497845,
          0.21384522211671897,
          -0.25182689740718617,
          -0.05042098346697578,
          0.29849531647696176,
          -0.37297475409673914,
          -0.37410386988042915,
          0.25767534468239639,
          -0.49725431901941775,
          0.14410558383648608,
          0.363318849786381,
          0.80420560852757472,
          -0.69671102030103849,
          -0.25874032385405621,
          0.012092345889360229,
          0.0034328866246358274,
          0.10037603165823758,
          -0.66175262936177048,
          -0.00095085138051927555,
          -0.055423595797077847,
          -0.47472861784771586,
          -0.54827274238172885,
          -0.66662020503960528,
          -0.51969360712593771,
          0.47095618526355171,
          0.23437036991884988,
          0.47826046588431403,
          -0.39560072231027305,
          -0.35147764152812894,
          0.386180325994428,
          -0.13634483874524977,
          0.39998393687777656,
          -0.5952350798502275,
          0.70026865060419907,
          0.25399476052880759,
          -0.4775128109253407,
          0.083436733396921425,
          -0.12889239519083448,
          0.0043365465582687265,
          0.13325612420666547,
          0.10941279013520881,
          -0.19858445629875435,
          -0.42085274427991959,
          -0.048222814822995404,
          0.49926036733395968,
          -0.2025363554623193,
          0.028426059816390851,
          0.29306664943943461,
          0.59602814828025,
          -0.18664837575075691,
          0.32966078296562,
          -0.25863213647921474,
          -0.74146924000054337,
          0.029393373488721307,
          -0.33051771042735251,
          -0.19929856186357919,
          -0.11323682666298164,
          -0.35032504581918616,
          0.75842591130959769,
          -0.070878125062480354,
          -0.42953293450979618,
          -0.22796773350591454,
          -0.51811025437342129,
          0.61875855658327017,
          0.56305406018451742,
          0.23828126647823658,
          -0.19036936049943823,
          0.13543822765391222,
          0.60884363108425266,
          -0.14201899323337216,
          -0.47298248858160108,
          -0.4389199147041411,
          0.52902453539326555,
          -0.49922652541248996,
          -0.12969003114536032,
          0.32649297709992531,
          -0.19556771377516591,
          -0.35949032397796604,
          -0.44572970728964223,
          0.26923986292551133,
          -0.1349445327439,
          -0.013661493246300928,
          -0.79839703296675157,
          -0.062078482350316856,
          0.22453547577571259,
          -0.74397981898811116,
          -0.24217709051274561,
          -0.16051915579811812,
          -0.19551487925630781,
          -0.25703290246731264,
          0.35297643209892826,
          -0.14908394808608549,
          -0.05408573737891597,
          0.42724137009087254,
          -0.157272715616722,
          -0.10481312297234274,
          -0.087728120941562321,
          -0.54979551292236528,
          -0.17364491678232591,
          0.62518903297915629,
          -0.1901283557027158,
          0.17873835919589875,
          -0.11382018844880487,
          0.20704496551588783,
          -0.73800675538199578,
          0.064029523963536936,
          0.25331072031651064,
          0.12615598571673403,
          0.093440463148727171,
          0.31858362646654437,
          -0.60236879277630573,
          0.059590159961990415,
          0.71540391158420646,
          0.83134760039915723,
          -0.4039471064008423,
          0.12892419640818803,
          0.42995952547005278,
          0.18710774407987582,
          -0.35563206633352146,
          -0.3383111884031284,
          0.43932988378716176,
          -0.11174522439450643,
          0.21103722709695222,
          -0.1623964225217546,
          0.33380063438241475,
          0.28729690646906392,
          -0.58159380583361331,
          0.016300569622207786,
          0.22869170925780222,
          -0.33343605406708876,
          1.0495712338529217,
          0.47269364372656358,
          -0.6655337883181125,
          -0.11022012287762682,
          -0.077253955927528234,
          0.44005148770942393,
          -0.11181432459578698,
          -0.43894524847229155,
          0.80248087633346332,
          0.11478521467724152,
          0.11567730506152625,
          0.2292751531318197,
          -0.016159451508886015,
          -0.081872914208668476,
          0.46719710917532942,
          -0.63381518559937888,
          -0.2784193323939429,
          0.0984914658939944,
          0.17544901241667343,
          0.14072687784965598,
          0.55613408212250837,
          0.556712970030821,
          0.36116359508807683,
          -0.21993530858456295,
          -0.0040372497181597041,
          0.43736144868776688,
          0.60032760576754851,
          0.256819592373995,
          0.59560348443813915,
          -0.13274632050096682,
          -0.26383971377343635,
          -0.27204092957231013,
          0.13042748810730437,
          0.45681127177691977,
          0.260602772835035,
          -0.18394137496744711,
          0.40240254417203958,
          0.20517570752756681,
          -0.55804464382746344,
          -0.77349189057695744,
          0.62210665698363943,
          0.12490329287198552,
          -0.14606660822781281,
          -0.084911760717326,
          0.63302378877409082,
          -0.55938393293666844,
          0.066757037375966888,
          -0.16724609807286625,
          -0.00861549502492296,
          -0.38204740309721447,
          0.09190349889078761,
          0.16550699221223208,
          0.018204872955028539,
          -0.24196638785083596,
          -0.15485227158107018,
          0.35916453303928353,
          0.33670351322429642,
          -0.19116884939768819,
          -0.22958100203456067,
          0.073871741413782818,
          -0.16211581955045357,
          0.35163670102298034,
          0.46855937374419226,
          0.50115088715188782,
          -0.2586577607586063,
          0.2565437528602505,
          -0.068503236868106027,
          -0.29374270717243905,
          -0.28166161725183658,
          0.11931525137772366,
          -0.29950428019248776,
          0.39147112102609222,
          -0.26336239019647967,
          0.14702965663082326,
          0.27742349386163451,
          0.76143513737056789,
          0.2626174942677012,
          0.25947272029733132,
          0.015261018091793047,
          0.14047181810237441,
          0.550340284011988,
          -0.51380510287516334,
          0.46294454266921026,
          0.62554450065030953,
          -0.017305577548052536,
          -0.32273059757200995,
          0.4319057658792666,
          0.23221407418647622,
          -0.24654878076507852,
          0.65556433065269493,
          -0.17436600787270473,
          0.43639877761734913,
          -0.054365899624020761,
          0.15002492098767925,
          -0.10545838656854968,
          0.18173196021104351,
          0.57824360614861181,
          0.32503130757994209,
          -0.34829975673352864,
          -0.8692505523621773,
          0.63138205136520853,
          0.1000484694745601,
          -0.0339918586321593,
          -0.1615874600414505,
          0.063928501994105991,
          0.25896897812264752,
          0.2243031981805263,
          0.98758795048181425,
          0.20313567205769376,
          -0.22537544162496759,
          -0.51345027751203409,
          -0.27736456827390871,
          -0.13327695932243222,
          -0.47162298619203469,
          -0.014905918765930771,
          0.15432047413076563,
          -0.37173849644171048,
          0.32914718392510828,
          0.77800526345327192,
          0.21309433828124139,
          0.5176474301941103,
          0.16211182550400952,
          -0.044618346833079525,
          -0.96269190120161541,
          -0.31106426754587424,
          -0.51046735142616861,
          -0.000890540668628776,
          0.11165541714488156,
          0.0550017592063182,
          -0.0090895098371097487,
          -0.72786359584070814,
          -0.54276112430578882,
          -0.67203528178156713,
          -0.40708726020388375,
          -0.16155656720268374,
          -0.74674125612782472,
          -0.35497836176418129,
          0.36693560197574682,
          -0.45786749108018415,
          -0.19016046566315448,
          -0.073434301884114109,
          0.55666599537968431,
          0.0864296728755833,
          0.011686892407863018,
          -0.092796250959825313,
          0.33548977948356712,
          -0.0291740764659997,
          0.17677322193265491,
          0.77038210793892814,
          0.47400912125800065,
          -0.33887138274047357,
          0.5187320256467095,
          0.0981511800862478,
          -0.46787565789654578,
          -0.82281363447320843,
          -0.10000014357044973,
          -0.40169788187549627,
          0.13888820991212267,
          0.23304449890286724,
          0.27442152419822641,
          0.0098563909074002431,
          0.4064580033010467,
          -0.1918079399814217,
          0.50275573305495846,
          0.5995395581299291,
          0.39876195585140239,
          0.17374619284889653,
          0.154193810984555,
          0.66779773891357685,
          -0.69836651897852386,
          0.045194388695084561,
          -0.063949784548284941,
          0.32372720789322945,
          0.68181556351085071,
          -0.54764531870916355,
          0.0096956993388690113,
          0.26060003261046283,
          0.45944210278619485,
          -0.27534123668843946,
          0.4175167892809602,
          -0.031783806456546146,
          0.767792975322195,
          0.1465937293847519,
          -0.28847861202967662,
          -0.4878296942248338,
          -0.9890285612804991,
          -0.088669045705901978,
          0.32392383073467568,
          -0.11066929600341674,
          -0.41659895433408672,
          0.13328534868975039,
          0.043587156200527208,
          0.091195522992605513,
          0.33624259550916441,
          -0.12137490012625866,
          -0.08528924449789678,
          -0.556655414737203,
          -0.17388847912287844,
          0.46265290017756422,
          -0.31392993555976029,
          0.04832171437929729,
          -0.21854059038005813,
          -0.41627705944606724,
          0.037758398941095686,
          0.13145212008958618,
          -1.0324497584353607,
          -0.44665982635112261,
          0.49513618526288861,
          -0.35845068674731,
          0.0164585522083788,
          -0.24355681781345315,
          0.04611245857429884,
          -0.14286157221288681,
          -0.17826941968953941,
          0.15811041778044327,
          0.35456639648483979,
          0.15543972338957837,
          0.23779364312669149,
          -0.27890241056002163,
          0.45216968130872026,
          0.3553111637837883,
          -0.075904142605732916,
          -0.78039614320772077,
          -0.53088435600826667,
          -0.15196163639126342,
          0.2032206976114494,
          -0.1078568053254438,
          -0.53460403394508582,
          -0.720234958142855,
          0.18434580018201685,
          0.13916997706004425,
          -0.6656292271906975,
          0.060257926588613092,
          0.21875679444202856,
          0.17918163631441542,
          -0.1785064190215207,
          0.28529924810030244,
          -0.42227959664570591,
          0.28463292969052928,
          -0.16537061188736282,
          0.010209775818205154,
          0.230202252303562,
          0.0898910820472949,
          -0.0063318648267018714,
          -0.71636809340408758,
          0.0085212354604998763,
          -0.3145998987605042,
          -0.68871031824943241,
          -0.025048690049196208,
          -0.76237017725436118,
          0.241352276874332,
          0.000692753288541036,
          0.54371631268863652,
          -0.25852072705496959,
          -0.59219105362313762,
          0.44443549639930169,
          0.28179707183533781,
          -0.79255505808425364,
          0.15972913253707202,
          0.016218067218592615,
          0.57197186022825708,
          0.39560643656169719,
          -0.58367953064446321,
          -0.067129264719498288,
          -0.23240840459852022,
          0.50235265729411371,
          -0.84677391655452683,
          -0.2447347926146235,
          -0.33140684693524136,
          -0.66746144709190991,
          -0.19496474173676628,
          0.11804088823506272,
          0.691510632181683,
          0.55797028371381407,
          0.049577675564780127,
          0.096845848759668146,
          -0.64134040457593511,
          0.94864228408876927,
          0.41452915409370072,
          -0.36494338094818757,
          0.036637659665760693,
          -0.0012352562696769547,
          0.081979822578337649,
          -0.1198133980381236,
          0.14641950636059367,
          -0.11207606242311463,
          0.25369744752162643,
          0.007751720272306032,
          -0.34649982984756683,
          0.38550508534838018,
          -0.17775913195027776,
          0.23134193155873706,
          0.12767073285971045,
          0.060915709719829875,
          -0.4225584219777439,
          0.50649086701978729,
          0.364385747818984,
          -0.341338291496505,
          -0.0058679551004437482,
          0.12053555586881882,
          -0.61937032210712084,
          0.47636478468530169,
          -0.59624952473455883,
          0.74640661221523719,
          0.18779304756951307,
          -0.84528992071355014,
          0.78415238317321623,
          0.39719019984813364,
          -0.074888212463736586,
          0.0982508165738354,
          -0.0098439746536909123,
          0.20186004775905503,
          0.68213393162548175,
          0.31867804401201377,
          0.22584146621668633,
          -0.47294359357584853,
          -0.25596096715020084,
          -0.59585241993444049,
          0.22040178608558125,
          -0.22358236691405148,
          0.13205720802949453,
          0.32836246423227977,
          -0.44679766287303019,
          -0.60503439179887641,
          -0.20050012434855527,
          -0.21221697150742105,
          0.29590820382467092,
          0.0073859775038971377,
          0.11175883971709792,
          -0.89221529440600411,
          0.12768097976459389,
          0.011316500702572067,
          0.14616991510751218,
          0.017160997084600275,
          -0.071378699032301374,
          -0.31903015141538604,
          0.29135203568906526,
          0.35571543786251136,
          0.15606780496926581,
          -0.59013813022055328,
          -0.3417506947072268,
          0.089998182838599061,
          -0.54099183143238783,
          -0.79516264869878417,
          -0.16334107096587103,
          -0.39395532386909027,
          -0.17689791262104104,
          -0.47357124458580552,
          0.38872645009438866,
          0.32810594488299116,
          1.0267544817756513,
          -0.2774160519385005,
          0.74348401185459,
          0.28030790264386191,
          -0.50689301933765529,
          0.59264831305828269,
          -0.31591533683872114,
          -0.395968235043039,
          0.42267779870208688,
          -0.45476121066167435,
          0.099401293730854171,
          -0.53696291635954385,
          -0.4680100645185935,
          0.23527760490653105,
          0.24797319387912389,
          -0.014950081265813148,
          -0.013789789429379525,
          -0.25373906206326335,
          0.26157336059090147,
          0.25486727502499273,
          -0.64582004891769307,
          -0.023429835998310469,
          0.27886299323403008,
          -0.24480825087357339,
          -0.014336330162345659,
          -0.0836590517983148,
          1.0377515872624228,
          -0.34796974365785033,
          0.022339326787938728,
          -0.39228479173206937,
          0.13896275411255044,
          0.18336513285816833,
          -0.11193366455572927,
          -0.16069279916955373,
          0.10815565384413844,
          0.50634050463626934,
          -0.47420983475510148,
          -0.52265911108691909,
          -0.16837635757856514,
          0.36287119167805348,
          0.2894702615330117,
          -1.1535550284618814,
          -0.098804491023335342,
          0.236567908444366,
          0.034661660710155119,
          -0.45493837955009087,
          0.053810670120689581,
          0.82106920754514245,
          0.077274223546172055,
          -0.1865893139031897,
          0.27385775683723612,
          -0.026053756791285375,
          -0.45570577948630192,
          -0.12476118905455862,
          -0.078123642829374534,
          -0.66866299436392451,
          0.14660356213904358,
          -0.15782833665579132,
          0.13978294357950052,
          -0.74715547323485254,
          -0.287410324529941,
          0.83713922044921663,
          -0.2391224103314363,
          0.158922593103549,
          0.545376009707631,
          -0.71415508250090265,
          -0.601550746545948,
          -0.51316390688179525,
          0.0434250202111292,
          -0.1201147926644108,
          0.60773766477470192,
          0.0063103225409195159,
          0.5134672630459064,
          0.397729893454205,
          0.2336160713967867,
          -0.021031637032504928,
          -0.9200513840143838,
          0.21961525206370652,
          0.012342118330089882,
          0.043399403012876966,
          0.60843550406350777,
          0.2414576049059334,
          -1.0555996419187696,
          0.35743037078566009,
          -0.34608522183348772,
          -0.023902253627314345,
          -0.074097539806029664,
          0.027078757787151624,
          -0.065102845593614081,
          -0.22511082002329305,
          0.11685199305656742,
          -0.16402153564933611,
          -0.44078929625562574,
          -0.35046638219042253,
          0.18075949127418051,
          0.27169420370275765,
          -0.33236474560860291,
          0.37569539230834359,
          -0.21473818911317924,
          0.050079580149350628,
          0.47445708178927853,
          0.1663565082207373,
          -0.16587413804654483,
          -0.57741406048118593,
          -0.18990900942013286,
          0.69940451003695392,
          -0.78180253889193518,
          0.67749980950513333,
          -0.00892124899512164,
          0.62265336304692875,
          -0.2416729748079661,
          -0.48142702449233005,
          -0.62054477727971458,
          -0.092773860402814337,
          -0.16831943307795491,
          0.12292925141531634,
          -0.728582931073822,
          -0.842408548562359,
          0.30163434951844142,
          0.27996474987101966,
          -0.012831647095648708,
          0.33171306561261255,
          0.48473954729041407,
          0.44552756105101793,
          0.056201209371203889,
          -0.1108629379685518,
          0.2099294103713473,
          0.3832977494186669,
          0.35860747849463293,
          -0.040092023427008058,
          -0.013181176423607693,
          0.23022310938671181,
          -0.10036261733847684,
          -0.019697354242414204,
          0.2688827439731607,
          0.37574449914760083,
          0.35407308060482873,
          -0.315157508205901,
          -0.45161626233306079,
          0.53129034451292911,
          -0.17069766281138413,
          -0.20935223782890194,
          -0.554482572197437,
          -0.2191084847245745,
          -0.47996989762845649,
          0.047119472414386687,
          -0.0985452205402003,
          0.44522442284152758,
          -0.86256695418795259,
          0.014166824759022596,
          0.40202074954711547,
          0.39987445430145491,
          0.071663867357971617,
          -0.43388547517454218,
          -0.25145151745887157,
          -0.2593743480585019,
          -0.32580915414232503,
          0.79834792664028642,
          -0.094247663814487972,
          0.544333274969434,
          -0.41779324677708707,
          0.030555570952619692,
          -0.6938739925376578,
          0.37449472187474769,
          -0.10915544919317355,
          0.56926184140744951,
          -0.38080011026204813,
          0.75980087630236537,
          0.45666857645619674,
          1.2601266550779866,
          0.18770072965166629,
          0.4424978587232043,
          0.6636142412488385,
          0.19077866900884002,
          -0.15402410067203165,
          -0.14781360941894325,
          -0.70911305225026844,
          0.460950457888518,
          0.4916093752066592,
          -0.14413996607077187,
          0.26022889649288727,
          -0.25327067510328638,
          0.42988957083413165,
          -0.75383734768403,
          -0.20262073575813283,
          -0.4368275666200519,
          0.010215538130389659,
          -0.22394790896523184,
          0.46520400196030837,
          0.012747531424648259,
          -0.79898240026489142,
          -0.49376078431940329,
          -0.25907290797560267,
          -0.26964552694115684,
          -0.279366435338831,
          -0.18766670594190105,
          0.61186262853422779,
          -0.45945639238808006,
          0.54830913550567917,
          0.57728006374431629,
          -0.53584038927648547,
          0.800347080727899,
          0.049305780590012019,
          -0.041168477971712164,
          0.06926619460798486,
          0.11842398284194217,
          0.64447273021410423,
          -0.58724158113073521,
          -0.14643430540230884,
          0.019877705291553416,
          -0.012936329241964518,
          0.085991229159728969,
          -0.037920065148562616,
          0.098835687754247351,
          -1.1817462092735758,
          -0.52248033850619491,
          0.15999552601943312,
          0.024655354945848879,
          -0.22061182467422674,
          0.19163300047320461,
          0.96624886828762824,
          -0.20830883734125649,
          -0.49698396147239854,
          0.23142707964359932,
          0.23494602456677893,
          -0.260623881896324,
          0.0013733199612699864,
          0.33297901674437946,
          0.028614049827418969,
          0.041255357286508372,
          -0.045539797203021065,
          0.2415579794095172,
          -0.19039109058642129,
          0.81525006426892566,
          0.32749284940799528,
          -0.13626891869492944,
          0.0050005117692025463,
          -0.21364260749853259,
          0.097962615977158718,
          -0.25308968631859091,
          -0.3592532795714673,
          0.79335290835723016,
          0.65593670608145427,
          -0.59959869487468465,
          0.452456293659632,
          -0.38280453358351263,
          -0.022436224474287243,
          0.310496097115863,
          0.47260208717891877,
          -0.47392687918466708,
          0.34090846059152025,
          0.21331004504307216,
          -0.35483308795536084,
          -0.40434955319663374,
          -0.51420312874446983,
          -0.058853386397243433,
          0.17380099412505406,
          0.76818742023607045,
          0.025193228782800055,
          -0.45926398382013034,
          -0.3586981842352725,
          -0.41508490024662537,
          0.43041503021770577,
          -0.86372946351573543,
          -0.43578204691359856,
          -0.0057085979046387573,
          -0.10440086016729141,
          -0.32703087494726008,
          -0.38286120174609628,
          0.28593894332472219,
          0.42225282400194436,
          -0.67162852994720224,
          -0.010736786320021813,
          0.56410735341618112,
          0.77206785014561807,
          -0.030999890690669912,
          0.1546297069754857,
          -0.15677065086332487,
          0.60971325122434039,
          -0.24907853631970195,
          0.59263280205340485,
          0.041156893392511565,
          0.4681961942993611,
          0.32824169024672067,
          0.22734932104098129,
          0.639919607949695,
          0.53272214275732965,
          0.086097067497901789,
          0.23575600063806665,
          0.30652674527055962,
          0.079773137683884471,
          -0.7285009113635238,
          0.37760153055840151,
          0.0095745449664256556,
          0.37220113785853914,
          0.14835435911652037,
          0.10366064939244563,
          -0.054155966830561231,
          0.59197624461360177,
          -0.85332598165975715,
          0.22194579498709216,
          0.78762205641588812,
          -0.33702121531671519,
          0.63600231836298471,
          -0.11743892864175598,
          0.24594466213133775,
          -0.3066561887893246,
          0.049461421570404583,
          0.43638199471712791,
          0.73957976912564616,
          0.28611956054290588,
          0.82907884348763006,
          0.51228797148366867,
          -0.68937967711766646,
          0.25204377779459358,
          -0.57598852437454229,
          -0.38298791761455114,
          0.13145410246597389,
          0.0011207881784819611,
          0.098204357080235935,
          -0.072261348629870048,
          0.8736853423715949,
          0.16246373804422115,
          -0.3071941233549273,
          -0.071189629585085568,
          -1.027767798381898,
          -0.50226099431213411,
          0.63033493466168666,
          0.29066389596101289,
          -0.058969777124866271,
          -0.28422983648050848,
          0.26071520965404771,
          0.0042076952206549076,
          -0.085262780909593522,
          0.10711418283612294,
          -0.12755224309685403,
          0.1093869639770899,
          -0.12110540216807283,
          0.30634154927451207,
          0.280120950624203,
          0.46046994631059884,
          -0.44081993971054195,
          0.061232428407795553,
          -0.611898770090418,
          -0.46008916132945077,
          -0.10220904777289623,
          -0.9008778559073628,
          -0.16222192781603145,
          -0.39547567125495231,
          0.33067421916810524,
          -0.20661664104554181,
          0.082391980126468062,
          0.64983657673560513,
          0.21868900914756875,
          0.507655726917331,
          0.37939791268856177,
          -0.41605818337686323,
          -0.1404549297522161,
          0.28087769719157063,
          -0.56698212381838742,
          -0.36104173302057396,
          0.39442045317181151,
          -0.97043943044501946,
          0.57912669905157188,
          -0.15938100796148685,
          -0.26434243557664977,
          0.044014333379622968,
          -0.31701682021997485,
          0.1733362441872689,
          0.26878815488856461,
          0.19105048092823487,
          0.34665826877348277,
          0.55305670031028742,
          0.12646998446466062,
          0.027642760826041,
          0.19188126488120916,
          -0.23469719663260202,
          -0.16805542716059862,
          0.0830833347016306,
          -0.84109572008670641,
          -0.20560449091886138,
          -0.55761737039746562,
          0.20632759378842946,
          -0.32592995900131988,
          -0.06045764839376612,
          0.022923258346889644,
          0.23814097841649842,
          0.70448886545963119,
          0.17085926253629594,
          -0.090812739025425832,
          0.065462152065348361,
          0.092804746483998127,
          -0.37552811350922449,
          -0.24728030628363198,
          0.12064103806742746,
          -0.072148314636590355,
          -0.35331225217567575,
          0.27357132087325803,
          0.15502015728039067,
          -0.24982642725330664,
          0.83090948334047765,
          0.19692441998302596,
          0.074080575151217853,
          -0.065833483530204545,
          -0.81495603713090592,
          0.7109483978436496,
          -0.83964675453650828,
          -0.33069796842751642,
          -0.079516112585348145,
          -0.30566608371241544,
          0.75270817115838717,
          0.0944951724684429,
          0.43499997600833623,
          -0.16041105994162211,
          0.30458692936237886,
          0.17428768226928321,
          -0.35598651908385354,
          -0.1351987854203314,
          0.21633807299055619,
          0.600727143065544,
          0.12289672429030241,
          1.1443146504674377,
          -0.33940324381358528,
          -0.41616549535268549,
          0.33595727234617645,
          -0.43226428459014671,
          0.326824784826467,
          -0.12283321222441748,
          -0.12480436244226456,
          -0.030866086218371711,
          0.82006424247306053,
          0.42986937453883,
          -0.14069371414706644,
          -0.29053296961973418,
          0.14836643305670488,
          0.088334248781174615,
          -0.32943902431772193,
          0.32782453290755437,
          0.911950149904824,
          -0.17990187660385881,
          0.588417814368308,
          0.11096158999967044,
          0.02270758351952288,
          0.087182231494191187,
          -0.47871458787302135,
          0.48393784120003386,
          0.38864826107408518,
          -0.014247178113621205,
          -0.21750975132758404,
          0.12858883936180945,
          -0.086742099335584064,
          -0.15267743968512543,
          0.40025957871539725,
          -0.270576909787176,
          0.012707178710850789,
          0.34612293880329353,
          0.210393452503834,
          0.61050164477245938,
          -0.60328458386799322,
          0.0054173210993085051,
          0.41848133034658735,
          0.59513955547102892,
          -0.56374198654015273,
          -0.25835652332028891,
          -0.037680757627014227,
          0.40526569059144768,
          1.0909759650935205,
          0.11669721190264855,
          -0.053426780530994269,
          -0.1055306326169098,
          0.38386033823036236,
          0.60606429100520243,
          0.40706960360012429,
          -0.11961238019690804,
          -0.21710350828193659,
          -0.22307679282325032,
          0.13229339099632209,
          -0.29330617847581031,
          0.075403250758364349,
          0.37076453512347229,
          -0.40623103145179135,
          -0.31178674892064046,
          -0.15209181206673775,
          -0.45142258615438507,
          0.52159721866179665,
          0.54379445136716176,
          -0.17148161342434923,
          -0.2995770525516544,
          -1.0466970158878608,
          -0.48638228292410324,
          0.070248242000458691,
          -0.69183118741203942,
          -0.20208085214398275,
          -0.1552250448852035,
          -0.086304538522314025,
          0.20810904055722049,
          -0.58434910193495826,
          -0.42311960050941327,
          0.5041498855194626,
          0.47984134018779151,
          -0.0690029834588961,
          -0.40900628009251316,
          0.56815558843235037,
          -0.16580396005662568,
          0.46571637561366508,
          -0.64943478604266225,
          -0.062804801472843466,
          -0.010559776448042091,
          0.39222836825581914,
          0.52803272379254174,
          0.35062561466845865,
          0.34242007067224128,
          0.22323881145874511,
          -0.047860079389329971,
          -0.71964398017260289,
          -0.10736963230551959,
          0.35687151572203857,
          0.41493411944658593,
          -0.64528684925204982,
          0.54755277512942024,
          0.044724594987693746,
          -0.89844720763232333,
          -0.6314196893573919,
          0.49085778966352411,
          -0.723128958463992,
          0.52449999507018819,
          0.11502421660119488,
          0.56180880133545685,
          0.58493548923500938,
          -0.093319166757900029,
          0.34291149276868532,
          0.64804404886863765,
          0.59712440335222583,
          0.83577634517833566,
          0.39491025151165432,
          -0.62630412810719527,
          0.44677104612504964,
          0.12590827069451924,
          -0.40058919951455474,
          -0.55803477840322546,
          -0.083892951306904578,
          -0.69180455649829387,
          -0.48046342459131469,
          0.12036957330714917,
          -0.29107128651942088,
          0.12198367130246801,
          0.099782035759344828,
          0.21151725113573169,
          0.47669176504846567,
          -0.299407194431531,
          0.29112147757883911,
          0.06718106151283626,
          -0.35346215143853477,
          0.18796376889397734,
          0.19184322322012137,
          0.0466621372939248,
          0.87542991781442026,
          0.48611015545780967,
          0.16132170877431462,
          0.0028949760907744223,
          -1.007062909635325,
          -0.52056634411189573,
          0.022185435381142513,
          -0.25681545122226757,
          -0.40789133343439721,
          0.023733983747844193,
          -0.437724346816744,
          -0.520574202588091,
          -0.1530154228182013,
          0.25244308428856144,
          0.42705365347297103,
          -0.06324677028918485,
          0.1930912510828631,
          -0.18839754320131372,
          -0.021261685840080119,
          -0.70175357173204223,
          0.17530084179018865,
          0.34724034691668637,
          0.62820938576735808,
          -0.319025733781061,
          -0.20901401334135389,
          -0.267404124209105,
          -0.70815689542658811,
          -0.39250529138738455,
          -0.8143040122334918,
          -0.19193201701164797,
          -0.40784917942360155,
          0.51744989964059129,
          -0.48107964873240222,
          -0.231850351435658,
          0.30965265788915136,
          -0.45549841588318762,
          -0.51453561940496284,
          -0.40516603630322506,
          -0.19818999121202951,
          0.54507576503416222,
          -0.0794929255743804,
          0.3677034420328989,
          -0.034880800912706525,
          0.25215081040130111,
          0.33357463325549769,
          -0.35131177221708743,
          -0.37540731225008556,
          -0.060387372044328563,
          -0.372009683298366,
          0.22593672707543178,
          0.79607989395665557,
          -0.031702207099952417,
          0.096269202824784572,
          -0.58719613068273746,
          0.63503772584063378,
          -0.14529481509127493,
          -0.17300071301037717,
          -0.30398230624549372,
          -0.43313950149512048,
          -0.13085708397782833,
          -0.321547077780201,
          -0.61121536746201455,
          -0.5323617937740629,
          -0.71094844232284538,
          -0.28368910795606173,
          -0.0667324021263041,
          -0.568427825420379,
          -0.11174277359184195,
          0.52990148342463161,
          0.08052901226890373,
          0.026966407551282025,
          0.39211532800023052,
          -0.14859871669385388,
          -0.039534392588811682,
          -0.10544817634761244,
          0.32531501642633359,
          -0.67886708401471385,
          -0.11370112590450022,
          -0.0074252213710172908,
          -0.078170283001901084,
          0.49736798637758722,
          0.78179531356077014,
          -0.42490985269705145,
          -0.401901487021633,
          0.0778645922523175,
          -0.60528114525943688,
          -0.31910759743546346,
          0.39183025972386448,
          -0.12037450938715158,
          0.4549711989904443,
          -0.25620933872800133,
          -0.10792613420007299,
          -0.058678978321543666,
          0.12935095525701037,
          -0.048373956954260174,
          0.081874510340580145,
          0.89224118391852314,
          0.43253204412024965,
          0.15187760916078888,
          -0.28822920419789688,
          -0.62394356088334735,
          -0.28390920551651949,
          0.032699155821129547,
          1.0181629780010397,
          -0.49208473922750695,
          0.5569161030492854,
          0.31584191749617169,
          -0.20691255001560435,
          0.26497025300747185,
          0.20002171933030377,
          -0.23539818643588559,
          0.48585516654102107,
          -0.11737243369114117,
          -0.31618084890386211,
          -0.21487516196696665,
          -0.76472851849660006,
          -0.0321134533252882,
          -0.73340076945796373,
          0.0699011581283538,
          -0.18406099821032923,
          -0.52355686166907767,
          0.42665413081432368,
          -0.44709419807172812,
          -0.2978498886129689,
          0.058999071834899795,
          0.55706316327601435,
          0.59270912681367183,
          0.044065791949997768,
          -0.13234188536602759,
          -0.46360589610565467,
          -0.92542985897811447,
          0.50443228593389688,
          0.020431641688831347,
          0.32234909632413278,
          0.048346862403839994,
          0.30831238018884449,
          -0.3295430912976311,
          0.1712001559385764,
          -0.36082823366359906,
          -0.16481879484676609,
          0.085736234470889433,
          -0.012176004064258009,
          0.40671760893932274,
          -0.089980470099977033,
          0.777551576741936,
          -0.502957274508367,
          -0.21316560542017332,
          0.17139113529845312,
          -0.18635583839898698,
          0.012400340892337196,
          -0.30331085763193644,
          -0.0015091161533113389,
          0.096868537624497361,
          0.22767002298363331,
          -0.62373603077426143,
          -0.097140702099870121,
          -0.19296070085880104,
          -0.19492574369106697,
          -0.15173527283454152,
          0.449406894015574,
          -0.20199423832922916,
          0.36142839390346587,
          0.509847617098359,
          -0.01188690832890154,
          0.15798088045503408,
          0.2718927716894472,
          -0.35886284165148996,
          -0.25765569131180388,
          -0.10211647903786471,
          -0.047269348498935639,
          0.012168963784233128,
          -0.27706894774183088,
          -0.029369080550137691,
          -0.62676539837238521,
          -0.48369861157348332,
          0.059891656967807544,
          -0.23373215491476287,
          0.53542299728802445,
          -0.24623449358382202,
          0.27963636589959356,
          -0.22239927109649119,
          -0.61100463727469467,
          -0.095824981738734952,
          0.71272620332291559,
          -0.26007189528525931,
          0.16140290258757659,
          -0.10341241797600584,
          0.68018470329108027,
          0.22284668482162084,
          -0.36381843612523324,
          -0.2354378018381921,
          -0.9587080587931,
          0.37420575156865304,
          -0.3037837384046097,
          0.30459897381386708,
          -0.090612887519064073,
          0.12735478610252993,
          -0.313966365623388,
          0.39100662016757959,
          -0.28620317654007271,
          0.32786748935796495,
          0.32252547583092334,
          0.387860360920559,
          -0.08086123872068729,
          0.52320804841860868,
          0.64333090443048091,
          -0.42718209459188766,
          -0.077858765681242878,
          -0.45838693574006328,
          0.18421258196352158,
          -0.23171373022682873,
          -0.19900196298995623,
          0.36374840735959724,
          -0.15798913148057342,
          -0.2545932225638608,
          0.17607580937778256,
          -0.22131355290538665,
          -0.11881554954327313,
          -0.18885373299428593,
          -0.062122858755219335,
          0.22463627838780414,
          -0.0979949772351323,
          -0.088057542193156133,
          -0.505912313599104,
          0.34168187421475144,
          -0.44770709783088058,
          -0.2747909386637043,
          -0.2880164484114508,
          -0.2668566452321568,
          0.82202731573673038,
          -0.6136649198063705,
          -0.096368290835441725,
          0.013298644302468805,
          0.514762294756127,
          -0.26579000292226396,
          0.2907915407590807,
          -0.094572598418329962,
          -0.19778066867173227,
          -0.19371308253271805,
          -0.16817130789969745,
          0.45239536020523768,
          0.46028590589566493,
          -0.10942246602271938,
          0.20806668006596066,
          -0.6884317985245948,
          0.10449350625760608,
          0.25738639114261441,
          0.048668232579286833,
          -0.31344334946438529,
          0.2076163708005101,
          0.046240215136897037,
          -0.29590209458835226,
          0.66663327727083921,
          -0.25013385258323284,
          0.21934204668746424,
          -0.15413715453522867,
          -0.17570744999078869,
          -0.056548083346727118,
          -0.60427824901841842,
          -0.40736756992731321,
          0.32613587948196454,
          0.21743433031736956,
          0.029777008093269913,
          -0.15657681011271218,
          -0.28872437891875541,
          0.20947795746475192,
          -0.11805795408427466,
          -0.43639659968817934,
          -0.3256732181401451,
          -0.24407085568608308,
          0.33100379758687681,
          -0.24434743003324685,
          -0.16497716694540832,
          0.38263569737041009,
          0.23318774891956312,
          -0.19837694323388633,
          0.16009039637695344,
          0.092254212088999407,
          -0.2275100746109977,
          0.0069708945248562054,
          -0.20851767578647173,
          -0.20539961592386538,
          -0.28374657992775487,
          0.072879501379175746,
          -0.23694526652673731,
          0.49074515193813878,
          -0.50595868335636118,
          0.8893189892325325,
          0.061730311064861168,
          0.013970304393114879,
          0.26101073517885875,
          0.068454681079771984,
          -0.255737491239611,
          -0.7935767720179483,
          0.62661421654101146,
          -0.15592737207240365,
          -0.0099914670415982322,
          -0.25728974759289885,
          0.18008758455491894,
          -0.17084596464491117,
          -0.59472463086257021,
          -0.19180169652802043,
          -0.0026502389256242271,
          0.39191558414695188,
          -0.48336093562925186,
          -0.29265648371895092,
          -0.22645919560452865,
          -0.46528328019319803,
          0.00071353515342839884,
          -0.20169757364886332,
          0.53610241709495021,
          0.368743714778253,
          0.55300327537701854,
          0.12865253986376804,
          0.13975898422019098,
          0.059299191351950865,
          -0.12608341087784217,
          0.67405874403267152,
          0.64587173745787252,
          0.061152727718415574,
          -1.0124594765417356,
          -0.23021785638233544,
          0.2020293385209854,
          -0.31300064979230846,
          0.3123411881219092,
          0.12228721200264253,
          -0.34046126497336543,
          -0.80874575582672714,
          -0.25626626047780687,
          -0.25479835395230271,
          -0.12282566530324182,
          0.2316808915680067,
          -0.039732974734039715,
          0.45121434522406856,
          -0.05590561556639826,
          0.065211115423866525,
          -0.31947332846349846,
          -0.13557306434476846,
          0.027784194087665626,
          0.076118554170810371,
          0.024582848467116163,
          -0.0770238813845652,
          -0.36382421662862885,
          -0.28771135172813705,
          -0.40645872198548444,
          -0.31911977285093823,
          -0.63621787139860009,
          0.072863739003306907,
          -0.21115622088043084,
          0.19062358420895278,
          -0.15892078544400384,
          0.58417500776112175,
          -0.891700186419463,
          -0.3720409722086862,
          -0.753291492509998,
          0.40435955940931734,
          -0.8175988017642245,
          0.42531103561440109,
          0.40485717579790936,
          0.8992600528660355,
          0.21054927126878767,
          0.28985426924834617,
          0.1058382398769247,
          -0.32225931215970288,
          -0.0429490149069935,
          0.49210588721930215,
          0.69081320504841881,
          -0.54424724681701786,
          0.32639763195798133,
          0.022361831665657233,
          0.11062283464898985,
          -0.531961767202012,
          -0.55093462367834989,
          0.10225658209510333,
          -0.36100824569933859,
          0.189042136150085,
          0.41829471271979141,
          -0.23737491304029879,
          0.2309361977393885,
          0.21542996196206329,
          -0.1420988112034402,
          0.70388958582005767,
          -0.61608080943289989,
          -0.0032616644416059285,
          -0.00900433242880652,
          -0.44771099787600926,
          0.49390882897715971,
          0.26896160864331964,
          -0.37721334761488479,
          0.0026000806383304721,
          0.31860367082695512,
          -0.49237650976259895,
          0.0037710798894003174,
          0.21997612609777092,
          0.089078310046946066,
          0.14652470166073231,
          -0.94451797851253227,
          -0.56051963356012457,
          0.83336735530055828,
          -0.19007588922918239,
          -0.11923175506069617,
          -0.38602530548264913,
          0.011452336819020442,
          0.28188879602845679,
          -0.65631550719334275,
          0.019979708594352712,
          0.34225635890069833,
          -0.60016722056473737,
          -0.010973993810060804,
          0.00090961169764483454,
          0.85177097465080476,
          -0.28180544148506259,
          -0.36028733395447948,
          -0.32882738618534385,
          0.22219766757879636,
          -0.042807417755296534,
          0.25874012681201841,
          -0.26555726902979987,
          0.31951149964625375,
          0.0096315979744308645,
          -0.15643472932502997,
          0.28225608930462054,
          -0.5319805810045668,
          -0.7379833997071189,
          -0.23110151626360947,
          -0.10087846881162947,
          -0.21754300682878946,
          -0.45764771680256677,
          0.40223664105983081,
          -0.057154272264708018,
          -0.044237278048596507,
          0.12219825156628063,
          0.38287289908114874,
          -0.152938436777625,
          -0.37993400215181661,
          -0.54205449084361479,
          -0.14786765823896089,
          -0.27141745749007345,
          -0.22881151061382443,
          -0.15110536111816858,
          -0.20909776234652233,
          0.29943117731453467,
          -0.14192370400794116,
          -0.15278812921738269,
          0.1490966991045545,
          -0.22222053920639623,
          0.2454528209928373,
          -0.56669598672662413,
          0.62385979312452311,
          -0.22914291661479358,
          0.43339954330797287,
          -0.11416449433111144,
          -0.23270424227101755,
          0.10462004901176702,
          0.18816579463964306,
          0.15850213039912553,
          0.642772179381471,
          -0.24622584135006179,
          0.29345147248415276,
          0.52712524146991069,
          0.30391087464956762,
          0.11558151723251733,
          -0.88265432651440112,
          0.53164165102663163,
          -0.086494656344307988,
          0.48287771536448837,
          0.080884068680597512,
          -0.0031174701028766913,
          -0.63057960181170358,
          -0.25785693816992161,
          -0.023650920678630911,
          -0.076791663314719538,
          0.034330248228718357,
          0.21175897804947921,
          -0.14237112035016816,
          -0.13612015884377332,
          -0.35220157052406365,
          -0.37395245980526615,
          -0.2812995078140284,
          0.29440466840457163,
          -0.21875985381881832,
          -0.1217305361053635,
          -0.0995836695216554,
          0.070455586533657882,
          -0.15739122954175852,
          -0.54153266549878609,
          -0.060660791669354924,
          -0.29946180284279694,
          0.36351992695421359,
          -0.85213968129390338,
          -0.44517350192460392,
          1.1761907764064552,
          -0.065215958634380317,
          0.53157108620659166,
          -0.2229458994963224,
          -0.58491331115804579,
          -0.49927840271960106,
          0.43255934978000882,
          -0.2585288816404368,
          -0.50353808926609789,
          0.17750750320387745,
          0.138640585161559,
          0.5546529744219677,
          -0.15179222969267575,
          0.50684065318501437,
          1.0467749753820885,
          0.8267898830453756,
          -0.040072407522604978,
          0.31672851918408096,
          -0.76123595655274268,
          -0.619818469149555,
          0.60767140018511256,
          -0.38481783617679793,
          -0.34568558679563061,
          0.37947006271002526,
          0.38759422890938977,
          -0.3552883035961385,
          0.17448305225106672,
          0.64571682410513653,
          0.012682440091615621,
          0.54305545305000136,
          0.082858803502278519,
          -0.55463359488670572,
          0.068027046676842132,
          -0.13287133638197215,
          -0.098350218286332475,
          0.48113548308682685,
          -0.6070894990862552,
          -0.052580869497037122,
          -0.21527085610098337,
          0.40439141011196211,
          0.21567820063075,
          0.012493293283088971,
          -0.62268725069041941,
          0.33467461798099174,
          -0.13560517787439152,
          -0.15238692326506445,
          -0.19124827103903549,
          0.36920881837955016,
          -0.71652170558632122,
          -0.51628153430768819,
          -0.028472200594892888,
          -0.085562839538005822,
          -0.28991496263371991,
          0.49261433695334789,
          -0.085346120718926777,
          -0.9013132117567767,
          0.10060560817053499,
          0.26000033344474,
          -0.30798405858066036,
          0.57499385511779944,
          0.79751295731917982,
          -0.6009240200069389,
          0.16142257953111511,
          -0.25334530243876979,
          -0.32697353925911704,
          0.71109732732867381,
          -0.25240931721944826,
          -0.081059975048269145,
          0.28348127947309359,
          -0.0677237662503285,
          -0.67874814038994724,
          -0.014915196480571149,
          -0.37695737587306977,
          -0.77276981439004666,
          0.20054428406048941,
          -0.728832886829497,
          -0.22188253281112555,
          0.46832521145022832,
          -1.2908556225959216,
          0.19798506819106212,
          0.11597006064814021,
          -0.372736640072907,
          -0.10169917080147005,
          -0.58057081208248473,
          -0.23698144417048264,
          0.37712731179077885,
          -0.35482899599445594,
          0.032345988865606475,
          -0.58442487654144071,
          0.1151951595000707,
          0.12977250182736169,
          -0.16202186397780474,
          0.1418066443999538,
          -0.13038811288114296,
          0.976964347807853,
          -0.28679638705519028,
          0.19400394508916827,
          -0.4947507032070142,
          -0.10802032423610305,
          0.17135496255011909,
          -0.44256203327194532,
          0.33781895617033092,
          -0.31909932607625807,
          0.29013244272083832,
          -0.12184353604465931,
          -0.2337471181695138,
          -0.054702941339287436,
          -0.37289143086191312,
          0.367590513920058,
          -0.16830649545763654,
          -0.3406356651405808,
          0.290027337877767,
          0.30085848296041484,
          0.037423114658944288,
          0.61039770848969244,
          0.0086714231617427782,
          0.01802446169017629,
          0.2930536732557,
          0.00021598335681467578,
          -0.25962875465156376,
          0.55358025648346976,
          0.371802069872158,
          0.23647117906623141,
          0.48967436124162705,
          -0.06817639770047,
          0.019271020629034904,
          -0.80226583940336449,
          -0.734576655230886,
          -0.045707763721584277,
          0.3292553423946567,
          0.5359398348546619,
          -0.23693410857719416,
          -0.0047197400170706358,
          -0.26621317294067132,
          0.77418964884655617,
          0.25668647190011018,
          0.43181490225430147,
          0.0703779909063737,
          -0.054153347138941717,
          0.15160031989850173,
          0.18438098654195539,
          -0.34387702988211583,
          -0.74500384490913085,
          -0.38410880732953784,
          0.5824931710879705,
          -0.051038115092238726,
          0.81724970074209957,
          -0.21840850715270566,
          0.19319169427281105,
          0.50826499919650869,
          -0.02051529591529248,
          -0.29335244424521523,
          0.15449773737714048,
          -0.40785449742936464,
          -0.26025539403727477,
          0.9504060509077098,
          -0.086270836717416977,
          -0.073627823576245824,
          -0.668867000610152,
          -0.19112297010875415,
          -0.14544947148629406,
          0.17116948295665088,
          0.21820962595244359,
          -0.34790300746594272,
          -0.41226064175581079,
          -0.25319287328661533,
          0.020308206725835717,
          -0.085076778810789525,
          -0.097585832975257164,
          -0.069206536386266,
          -0.47431787572597267,
          0.22829014769488085,
          -0.020165608717057294,
          -0.050601456448043008,
          0.98118797617863907,
          -0.42467503898125625,
          0.11467859636650522,
          -0.46391890401188446,
          -0.37191651185335034,
          0.46641994908201273,
          -0.98739235347846654,
          0.14676564650181553,
          -0.39712961647001022,
          0.061772786827125739,
          -0.41122396966656471,
          -0.67986949652561468,
          0.52604507461317818,
          -0.28671949641747269,
          -0.12839323354207666,
          0.39662728516926787,
          0.477591476234979,
          -0.20116761312520923,
          0.65001900116563893,
          -0.49185000398621503,
          0.59123904081877632,
          0.44837830768543774,
          -0.13760750481830936,
          -0.048843265136605016,
          -0.38041453165620381,
          -0.44484856847054288,
          0.21725588291741219,
          -0.40371589020306908,
          0.84925764946456928,
          0.50887476592965619,
          -0.26085241434287565,
          -0.45112630435797907,
          -0.38470255179981994,
          -0.24911160401735297,
          0.072685757846129351,
          -0.3574548398814209,
          -0.40515848852864361,
          0.47734048870465212,
          0.31545189776559607,
          -0.095706901170415234,
          -0.18059359693965008,
          0.1392129275213127,
          0.445969407572088,
          -0.782233729004848,
          -0.074433626852219936,
          -0.54422881922553334,
          -0.1786942682225478,
          -0.70046393990337974,
          0.94598258729942131,
          0.028223275674274594,
          1.5899183096409037,
          0.12204653534853169,
          -0.012193762884902974,
          -0.0994716885467671,
          0.43818059545697713,
          -0.28014341057996833,
          -0.37698541445566186,
          -0.28815944896768031,
          0.32531642716394027,
          0.033394338048019424,
          -0.26073271042842228,
          0.1804522112464424,
          -0.34506910419013725,
          0.13007733952104006,
          -0.18675086042597738,
          -0.30418163316487129,
          -0.55079764494603956,
          0.1182766317241665,
          -0.3156823869750352,
          -0.45976594602600546,
          0.43549901970143529,
          -0.12925959128520581,
          0.416827493170367,
          0.89444045338360156,
          0.11497349145707972,
          -0.04152282242496011,
          0.88936060381908144,
          -0.017700307823864878,
          -0.37574156001892672,
          0.031020083357173774,
          0.53945620073439748,
          0.18391797941388752,
          0.18107085642757478,
          0.34015968127384166,
          -0.86839399958651053,
          -0.33499998670352393,
          -0.20579612675933071,
          -0.59708350120138687,
          0.30094165581126459,
          0.17560010211641522,
          0.015709268566249851,
          0.24797677924262068,
          0.24086174662700979,
          0.46935218507296095,
          -0.36114763937094968,
          0.11543236275357344,
          -0.20653552486275017,
          -0.23779929876240663,
          0.21166006358803308,
          0.23175950524296227,
          -0.29223420538069361,
          0.23795935895326378,
          0.31073637768322432,
          0.87056578290653364,
          -0.39213299460442452,
          0.029929998282078443,
          -0.28238606219854073,
          -0.12947778780969751,
          -0.10643204290252808,
          0.21289052243545986,
          -0.034450935457510823,
          -0.0053754912611875087,
          0.45830537247632419,
          0.64970878843332025,
          0.11566947386207377,
          0.67822173047598511,
          -0.1417348378550492,
          0.11945098981228357,
          -0.055079073614771254,
          0.22929951775304175,
          0.02249290421655149,
          -0.040981565560510629,
          -0.26109262621564777,
          -0.076313695759531855,
          0.15376430547488623,
          -0.3475171710212242,
          -1.1312328886758913,
          0.024313774936143062,
          0.681308074266777,
          0.56591985083880936,
          0.24232189908626953,
          -0.063658179221928277,
          -0.22795011669559309,
          0.876219967312082,
          -0.33805416372932545,
          -0.13994010192340969,
          -0.3210809318924524,
          0.35096369454435128,
          -0.90373302893275109,
          0.15383420556861885,
          0.41531479882538347,
          0.24637816619503469,
          0.17652290665579809,
          0.14548397848730149,
          -0.0080163042903107478,
          -0.7824736249916916,
          0.13858213556122062,
          0.1628282952879585,
          0.58065973029877349,
          -0.73011869033947741,
          0.05167132040338962,
          0.069496824112634928,
          -0.19285079444070793,
          0.36945104045226873,
          -0.0038518319029331111,
          -0.35146642965434338,
          -0.53167002399624685,
          -0.14536729385264763,
          0.025754053746220855,
          -0.63352038731720373,
          0.32020993826832667,
          0.30952613465008721,
          0.048909385376846852,
          0.036016053293852858,
          -0.71250621170855755,
          -0.24124093256123641,
          -0.1858443189224539,
          0.51976609288080466,
          -0.4758501837114455,
          -0.053706991930700165,
          -0.55614694866437475,
          0.56051953073826344,
          0.3867134226406822,
          0.068020999020571668,
          -0.28109922397879589,
          -0.1197248406457679,
          -0.20461903103412293,
          -0.59152733183879957,
          -0.31791668208211121,
          -0.539753735652402,
          -0.10671710854539508,
          0.029221319172346931,
          -0.30296709645122089,
          0.29552869484039684,
          0.423347058503556,
          -0.090676903931148412,
          -0.11314422446258329,
          0.30397340260183953,
          -0.030157194659598974,
          -0.4755647041629304,
          -0.30433117234288343,
          0.32768589514904972,
          -0.34869156335639351,
          -0.095854006655973226,
          -0.4702224358290511,
          -0.2295759342377337,
          0.078191653229501848,
          -0.2859499714818402,
          -0.41717373476375219,
          0.031024598831941572,
          -0.51016484522929961,
          -0.93003477329188933,
          -0.39213226860574885,
          -0.2205401671732321,
          -0.19196430994461466,
          0.28362853744656669,
          0.81218803522568106,
          0.2885656178279416,
          -0.34031141120011138,
          0.12642478166804688,
          0.12073909431958617,
          -0.51150890244504255,
          -0.006826638211216431,
          -0.093145436268756432,
          0.38798319455322239,
          0.31511277960578266,
          -0.25704991847663816,
          -0.45107395693249436,
          -0.25679370013417613,
          0.26813398322277526,
          -0.86237132751458445,
          0.122561482482047,
          0.58539818389022313,
          0.32330314866136245,
          0.29195158592958104,
          -0.54492258268051341,
          0.31090481536118358,
          -0.22557654319673129,
          0.3758051199674689,
          0.4859509461223902,
          0.38868947424062716,
          0.20525538051684761,
          -0.065294228093094125,
          -0.2198376326178382,
          -0.23706332425534288,
          -0.29991961039832166,
          -0.26024554349132267,
          -0.10663892880047783,
          0.97673972150793065,
          -0.071513910342873549,
          0.10446604690509081,
          0.57185707475255276,
          -0.027358652874709857,
          -0.0083005214767696914,
          1.0123126464245864,
          -0.25498366118467519,
          -0.28484191745713933,
          -0.21390951306719794,
          -0.016455741720741233,
          -0.012918335513148652,
          0.23889090499211649,
          -0.056544208628423971,
          -0.11514177995597237,
          0.34774539787353359,
          -0.81232884041375164,
          0.78142688293389806,
          0.25314131777387622,
          -0.25787711396442231,
          -0.43740111383591035,
          -0.29486712423381523,
          -0.56289173043619667,
          0.57805520775857711,
          -0.24026466131308113,
          0.47959237784196473,
          0.26523301858964116,
          0.086738944826212014,
          -0.40508986975636285,
          0.40841786689146031,
          0.10080628993230493,
          -0.10949211477346632,
          -0.027201169295483676,
          0.58225133215093694,
          -0.054441655379128318,
          -0.15067155043696576,
          -0.78511572908145644,
          -0.089112810732572517,
          0.2213351585189606,
          0.066648931733888486,
          -0.078471873892439037,
          -0.52711056051231142,
          0.08026602449375,
          0.8331869972860162,
          -0.31379181379890009,
          0.31694951297796042,
          0.21910293499173022,
          -0.13963065390721427,
          0.94757607966429169,
          0.023085046253861735,
          0.19751963276972154,
          0.045838790598393124,
          0.47097690155838023,
          -0.21194815792096977,
          -0.073326234398042561,
          0.0078654764017825479,
          0.52387754393906194,
          -0.60432344795311244,
          0.37916748190922966,
          0.49070374641774328,
          -0.41349986172869119,
          0.61912352041323149,
          -0.4298881487247691,
          -0.0876579328945422,
          0.41837758866657565,
          0.15850785377800453,
          0.0888047260207868,
          0.90057681124706612,
          -0.32222988853055379,
          1.0203073769961046,
          0.37332446643648209,
          -0.085906545650405369,
          -0.27118391664985431,
          0.0066708522047437312,
          -0.56226084185715375,
          -0.20980300600160234,
          0.43729647691226869,
          -0.0035843117254690492,
          0.049225415985561009,
          -0.51663231446356184,
          0.068221753851787609,
          -0.49233264462453313,
          -0.34737942234877761,
          0.76780955532309259,
          0.071256478911447846,
          0.16121738878190972,
          0.32266617481371362,
          0.19811881635769416,
          -0.44384464241406324,
          0.38510161232832368,
          0.4958107905862893,
          0.12914824976120468,
          0.19842941265017111,
          -0.42884000105730069,
          -0.25775977620776852,
          0.65632979671111569,
          0.72355522575399056,
          -0.46169867693999012,
          -0.10679880413820853,
          0.10516948138824363,
          -0.48362029090896291,
          0.22615472750616278,
          -0.018320789023319836,
          0.011477800237384938,
          -0.26922237844375135,
          -0.22028970948474957,
          0.31163556571621109,
          0.23567814346966384,
          0.35242613260307515,
          0.40493555330407854,
          0.1535503292405265,
          0.619058944468615,
          0.71038914963251831,
          0.19650004777071034,
          -0.46241660123713479,
          -0.24502073085787915,
          0.24999836204345066,
          -0.099110865919171356,
          -0.42895877883044847,
          0.49497634308900906,
          -0.1946082852027162,
          -0.28976631032462241,
          1.1142285696891951,
          0.47097550974268459,
          -0.050342903930212408,
          -0.5387970164497855,
          -0.29616003672205615,
          -0.31140012917419968,
          -0.16698220958408772,
          -0.52168215038809074,
          0.353570364813035,
          0.046626438549062087,
          -0.059429894484311976,
          -0.022472054250058188,
          0.60355020829843542,
          -0.56949252828454044,
          -0.31515748054741088,
          0.5808269864300416,
          -0.58900039167174467,
          -0.17804831089622597,
          0.2674535502320553,
          0.53038312091267392,
          0.019232871369869911,
          0.5602266454534,
          -0.10104946234855207,
          -0.64656980637612727,
          -0.43815456669954078,
          -0.42720954756646745,
          -0.25973602688946162,
          -0.1777704106610325,
          0.068784937401165952,
          0.30061351393841523,
          -0.16094820468291965,
          -0.39389243210271274,
          0.23663714247665357,
          -0.14141190019861591,
          -1.6820440582880403,
          0.65506972872088787,
          0.0045467213878209534,
          -0.3390452915838052,
          0.56503569754320182,
          0.44720397554831104,
          -0.44039759835928244,
          0.10071864088326994,
          -0.55000460539109008,
          0.52106905780221557,
          -0.23180161887964557,
          -0.63971421996161049,
          0.80604771147069232,
          -0.19752741795056114,
          0.51114266685579657,
          -0.43436799615492994,
          0.83979984973595556,
          -0.088849478850463612,
          -0.0054170060817951586,
          -0.16833783137070729,
          -0.40144076409756041,
          0.5321729304094942,
          -0.0083290420236724165,
          0.055641422266770414,
          -0.091027738478760917,
          -0.15722735701836663,
          -0.87932585286489817,
          -0.61243079006208956,
          0.036094671614919666,
          0.24922356255798306,
          0.3496769983179831,
          -0.48116664420843247,
          0.29616745077367318,
          0.4535782149094349,
          0.14931846032130519,
          -0.067460945514609433,
          0.39261263384369322,
          0.18866011754919368,
          -0.11087111726754231,
          -0.038332245625689813,
          -0.48853482735612308,
          0.074507219140201073,
          -0.16798160713579316,
          0.05567748897542444,
          -0.52074745954803692,
          0.43850821124908884,
          0.43316273389403487,
          -0.067355345770162056,
          0.67589942028719852,
          0.37678879241724839,
          -0.0097013082428233331,
          0.10833979219898079,
          0.40177809978181606,
          0.04349417605982453,
          0.19383289099398696,
          -0.042660383418056974,
          -0.07670789379519509,
          0.52599836044750858,
          0.26424801768622169,
          0.042542871434603349,
          0.34808729856154608,
          -0.38700189164951293,
          -0.2262565986609982,
          -1.0428400283584778,
          0.7076105922886271,
          0.727466573874409,
          0.049679591890965019,
          0.2301225704180834,
          0.29296455603504268,
          -0.41580575215963195,
          0.095007606227821589,
          -0.44376378747768519,
          -0.42298113533745785,
          0.73786595627580776,
          0.77898562883740985,
          0.045705386513652517,
          0.065127854505546978,
          -0.16498456603465927,
          0.64837368404850426,
          0.24475667215081481,
          0.12616926681413307,
          0.17888722612158281,
          0.74699430713673742,
          0.13075705979131327,
          0.16745675731163065,
          0.55724335841164929,
          0.36869838970055979,
          -0.51377643291533115,
          0.059216927946492311,
          -0.61742737496714672,
          -0.087887001257547448,
          -0.322311696380715,
          0.25821206183245493,
          0.49410938053345893,
          0.56373638832892636,
          0.23715610099785847,
          0.73922205839403266,
          0.35252981868615807,
          0.070060229636822333,
          -0.099945130017722122,
          0.48921284757128869,
          0.44859793212053239,
          -0.10024100295857585,
          0.52643631614804132,
          0.31050866976072228,
          0.23971746462566873,
          -0.50018183419431206,
          -0.23108949261577416,
