{
  "_layers": [
    {
      "Weights": {
        "Storage": [
          0.14246825152108134,
          0.46114457063267744,
          0.13429094773829503,
          -0.13033989213655575,
          -0.12067353478682533,
          -0.296585679422169,
          -0.10902351846305533,
          -0.20176753227323202,
          -0.40600549029991478,
          -0.14209322932649438,
          -0.76308656947012843,
          -1.0160738521826338,
          0.066320978194702229,
          0.37915966149391139,
          0.3125910083201151,
          0.14983858564807426,
          -0.016539624482134082,
          -1.0162072589000963,
          0.11697041324633864,
          0.3205905884241429,
          0.45134907162283572,
          -0.43308862637562218,
          -0.30268583002864785,
          0.38304597945923496,
          0.17392375814878869,
          2.0072950422298694,
          -0.35131390610320629,
          -0.7705418661100959,
          0.29054693405744253,
          0.454298521190715,
          0.36707927595126766,
          -0.030398310332040785,
          -0.17084828074834088,
          0.18677753574147327,
          -0.087158278823527,
          0.44321172962171757,
          -0.58370499763193773,
          -0.15107276033989375,
          0.03306886054831483,
          0.54450284929191439,
          0.302695972692211,
          -0.55791306316387157,
          -0.097038311450130713,
          -0.14788907088281511,
          0.066739901755871037,
          -0.2969967138520555,
          -0.36280503210851822,
          -0.21501794286465925,
          0.31195283036796367,
          0.10761020706107576,
          0.6122835817324529,
          -0.4985605784162217,
          -0.5150503235431334,
          0.51187333189395212,
          -0.30469704741533515,
          0.09322977923087529,
          -0.096380304051104454,
          0.53852941472412408,
          0.22698749421557177,
          0.49079593011104938,
          0.32720935497011777,
          -0.81596754273519623,
          -0.0083736005824349563,
          -0.015294809769473804,
          -0.37592499201738727,
          0.37311971158421442,
          0.02422177873346789,
          0.22506871685044022,
          0.086924956448368881,
          -0.43323152558647815,
          0.19610535210396374,
          0.26644304179489525,
          -0.66400137896428746,
          0.33353240215662433,
          -1.0065428305957107,
          -0.41950395675853436,
          -0.14495906359227176,
          -0.4638555341961304,
          -0.38652991581139834,
          0.17045674820127885,
          -0.629661009299659,
          -0.073353695076784853,
          0.27205035222547208,
          0.3737099214936499,
          0.086672261591853692,
          -0.033346549056653151,
          0.085168074046661366,
          0.012974744706453361,
          -0.20284879258842775,
          0.21560333067128915,
          0.027158722513038535,
          0.19293873593880725,
          1.0807330291311954,
          -0.17004197084750947,
          0.60885190075606055,
          -0.22464910449109263,
          -0.4592181051519183,
          0.17490160046094552,
          0.70906013244115274,
          -1.234781382938644,
          -0.53368038739178825,
          -1.3909291062960343,
          0.186578861694863,
          0.503612500529176,
          -0.99572245701179529,
          0.95272110276517075,
          -0.4576241691877862,
          1.2624406327030653,
          -0.21694559478062286,
          0.20549126684428187,
          0.39261259547121741,
          0.21656215196231107,
          -0.42748501563836377,
          -0.06588515750628228,
          0.77720223873648409,
          -0.4834268548929469,
          -0.019999395714424242,
          0.47693595282849394,
          -0.75066517286867485,
          -0.31061639572602334,
          0.53979860578202021,
          -0.039229016422721724,
          -0.17508597131577566,
          0.082983613120827,
          0.016184713382899629,
          0.22534534769581058,
          -0.71257145693009993,
          0.38766921128802978,
          -0.044061821614636273,
          -0.10804998052093466,
          0.21927691839555921,
          0.32847299322858275,
          0.040684024730860531,
          -0.10219609461122546,
          -0.22013058369709387,
          -0.61258349134064494,
          0.311751934345646,
          0.27867159396610069,
          0.22502931970699591,
          -1.2879948400568895,
          0.05302078078381274,
          -0.15720829749204196,
          -1.1947700662764742,
          0.2234020331897934,
          -0.374429114649147,
          0.64497620940168643,
          -0.96432877210879187,
          -0.43658155427932077,
          -0.11473280320992585,
          -0.10789355710991264,
          0.37736645287144782,
          0.481086686100653,
          0.16553981595156461,
          -0.25895249836462747,
          0.48266989664928939,
          0.3409136010856067,
          -0.13723645558773431,
          -0.41672366014303475,
          0.14872614421003913,
          -0.1790433717279134,
          -0.582402452449281,
          0.50644066837977852,
          -0.6866684017692769,
          0.29906556276617052,
          0.056952298910541731,
          -0.37940029869916131,
          0.073617980139340455,
          -0.56326224527832813,
          0.31545225303842811,
          0.014948740809578857,
          0.2980283986829842,
          0.13628947602906733,
          0.31550714532550861,
          0.68740605607584127,
          0.12055893397646485,
          0.62075786590557624,
          -0.50865497873405185,
          -0.65587897508556359,
          -0.010048174069760918,
          -0.084251240990012313,
          -0.44065918949329419,
          -0.0376995496830296,
          -0.52082924841558609,
          0.47265004866620691,
          0.41037963869462363,
          0.2211477651670283,
          0.42415846586477685,
          -0.22485113804449461,
          0.10342507449982842,
          0.77253872568829041,
          -0.33153025822316085,
          -0.12509886084349803,
          -0.51071947982823185,
          0.35535241799571859,
          0.097410807089245668,
          0.77087768117192024,
          0.24920698962785051,
          -0.22019203746517177,
          -0.0020676317757485534,
          1.3931184963809227,
          0.603950998898361,
          0.33500127878178887,
          -0.06158852114940247,
          -0.44338022121830295,
          0.012834469328581059,
          -0.33371790308820237,
          0.57964559880327438,
          0.48716967073382778,
          0.38877279656216662,
          -0.57760265154945378,
          0.37355582324378833,
          0.868705450306786,
          -0.17054338054590226,
          0.31726319941693,
          -0.31525915851719805,
          0.30322044690759931,
          -0.69693206665057228,
          0.14859188350852798,
          -0.2387011431741678,
          -0.091399416617029619,
          0.67972817755487691,
          -0.17400145278218987,
          -0.022368218388615128,
          0.51410260476628933,
          -0.19908363274351187,
          0.35349278221875546,
          0.40921722125581117,
          0.32545644473101137,
          -0.62379877475770307,
          -0.73822064191038461,
          -0.38486827153223979,
          0.41902676383711868,
          0.8204261325170743,
          -0.037094673730659319,
          -0.12076020282732679,
          -0.055775420283871606,
          -0.15129562335985802,
          0.0862972392384993,
          -0.070078325628194535,
          0.39079517446463513,
          0.36275637513117892,
          -0.00051446597243445748,
          -0.30167098549112203,
          -0.5004301202473731,
          0.039607464848067125,
          0.00071871779753070555,
          -0.75327730443105023,
          0.13502763328375059,
          0.32576924115269679,
          0.21169604839121536,
          -0.44105368939063555,
          -0.037704805990958788,
          -0.12305665062429065,
          0.022662047156832253,
          1.3042842482674366,
          -0.69561718090225066,
          0.56299321979318051,
          0.087836751404655411,
          -0.6837684673700527,
          -0.0044616495286775512,
          0.76400600061130419,
          0.0851303883652932,
          0.69975719669735048,
          -0.25888399474490703,
          0.053010135289870156,
          -0.45037847900491534,
          -0.072612579113257872,
          -0.151736118761496,
          -0.606358916864698,
          0.44499178279698653,
          -1.1620648301556746,
          -0.168183188397611,
          -0.36930609670338327,
          0.79509362257606486,
          0.33841608931810718,
          -0.037710194330008856,
          -0.38737110812625636,
          -1.1898931376017534,
          -0.46533629254203795,
          -0.79744336311866026,
          0.64954021649268934,
          0.13803139335621986,
          -0.27066655789940647,
          1.0236659873235661,
          0.81877094830513186,
          -0.037919043137890365,
          -0.26941514174832887,
          0.40073870133392936,
          -0.01475720458278406,
          -0.1139840144426518,
          0.079951379461881966,
          0.21267166988821867,
          0.66159712845834062,
          -0.50102458866152078,
          -0.057730467105249005,
          0.11541046739926457,
          0.064382901415882737,
          0.7361244855271396,
          -0.46593047122769321,
          0.3190842101310154,
          0.20431066541259799,
          -0.789416608031401,
          -0.37883357642847315,
          -0.10667723678395201,
          0.089958092606419418,
          0.053689557052107317,
          0.27680774419272686,
          0.86204626171632537,
          0.38715602634874824,
          0.73155059923180588,
          -0.41346919740539428,
          -0.43732511370087007,
          0.36539666237519575,
          0.081593573580911474,
          0.73633673583025616,
          -0.24700763754105368,
          -0.70218680012540391,
          0.047436333298555823,
          0.47606890883629577,
          0.020791001279724022,
          0.8309450068315769,
          0.4956382608208299,
          0.46041620316490944,
          -0.62868119286334223,
          -0.75335973464133,
          0.38459338818497524,
          0.13354952701681361,
          -0.82088506744768652,
          -0.51240380465222557,
          -0.021220381038758677,
          -0.040121776310176042,
          -0.75659344012971108,
          -0.085861890282164219,
          0.42689870625472642,
          1.3293067639571861,
          -0.99219290967684382,
          -1.0661498430777032,
          -0.2748042954430282,
          -1.157843246051276,
          0.25097265301098726,
          0.46641330070331488,
          0.3616635029443262,
          1.2417775792197794,
          0.73280331453046832,
          -0.80642850088301643,
          -0.24552020708699771,
          0.36713791674003632,
          -0.072499097266174484,
          -0.11181128415086411,
          -0.94911524675140524,
          -0.0082111182098038929,
          -0.29901059099744515,
          -0.029850782809493135,
          0.04577128358290649,
          -0.45915256573536772,
          0.21221590160315054,
          -0.13001348731255491,
          0.609711390183171,
          -0.17933655038711802,
          -0.69256307061731093,
          0.24668729310646195,
          -0.85562391036015284,
          0.048290860066516894,
          -0.26080833120475083,
          -0.96315856850720338,
          -0.26094002710122161,
          0.41545157958939605,
          -0.20048676176575236,
          0.83679731066167629,
          -0.16469472621249728,
          -0.1924860129242954,
          0.57826810540973217,
          0.27784407785600418,
          -0.15853738125127032,
          1.0509321517104688,
          -0.0872104341952051,
          -0.55424092551502435,
          0.14183734155881264,
          -0.29528287792690644,
          -0.63914623530176673,
          0.073887437072580123,
          0.10471113784219267,
          -0.49482841473681016,
          -0.11814587320721365,
          -0.4511365093034605,
          0.45456689538896344,
          0.025821986265889982,
          -0.22836896715196356,
          -0.53138256746647194,
          -0.822410756394507,
          0.16745246894787658,
          0.67166181905915578,
          -0.0610534099938012,
          0.18338753916268938,
          0.18357170339997952,
          -0.62988723401123092,
          -0.61632648447621541,
          0.14193516252960337,
          -0.10520834762127442,
          0.16696313943534902,
          0.63880355520408638,
          -0.83571811205838542,
          0.35203549696010905,
          -0.26426856225795708,
          -0.060518970127623806,
          0.1822006049233672,
          0.39961621765454725,
          -0.17157656571541813,
          -0.86696818780981821,
          -0.37519076535262175,
          -0.31453878955656578,
          0.50380191050317147,
          0.19390091660299255,
          -0.33477564257747733,
          -0.32762408778866509,
          -0.55533417744113966,
          0.37985449762938867,
          0.081573813767400277,
          0.39024215229884462,
          0.3419688733688091,
          0.20197549705527784,
          0.44538253412589607,
          -0.41876143712851888,
          -0.37738755225654053,
          0.1938845913768224,
          -0.75306770106321153,
          -0.042782822403368233,
          0.014895207489599213,
          0.840476504682669,
          -0.25828914838487133,
          0.209404562530776,
          -0.029310323859486832,
          -0.50924551902583015,
          0.77793214705682667,
          0.13712974790486093,
          -0.24399374148887712,
          -0.76408697607098452,
          -1.3128381944845211,
          -0.58675982518321435,
          0.011495663293057304,
          0.78378616006268065,
          0.13160400017021667,
          0.68494369145573353,
          0.11118700218786121,
          0.15480819612780555,
          -0.34849677483153219,
          0.41757332931344471,
          -0.81860551848625684,
          0.16750338553903243,
          0.51846971275814058,
          -0.24011799701565462,
          -0.41138567291841371,
          -0.97668281286361236,
          -0.10148039133694299,
          -0.5930875856246719,
          -1.0356386896442467,
          0.34843273268925279,
          0.19266785732227032,
          0.22731856135825021,
          -0.41647439782274426,
          0.54049855777965539,
          0.072831805783932613,
          -0.19929669827096291,
          0.70083285397609352,
          -0.15852397435016277,
          -0.022239772923080634,
          0.11923883337267932,
          -0.15589492186050133,
          0.049103195437605225,
          0.12312396754301237,
          -0.22796656448505537,
          -0.60974004496165279,
          -0.18989166345737413,
          0.67796908123077448,
          -0.60091376414420217,
          -0.31816171820815042,
          -0.33509219777717808,
          0.78632856045562338,
          -0.60227832324689146,
          0.8180339720139731,
          -0.790585041926171,
          -0.48783519328821262,
          -0.47209164981730878,
          -0.73304422331886687,
          -0.35931051597197938,
          -0.066405605890424574,
          0.48771708895382493,
          -0.93470643188295977,
          0.016239649138315267,
          0.050247063511197024,
          0.47907010310332748,
          -0.26846812273894127,
          0.64667671382097,
          -0.22763820162565779,
          -0.42145282148435342,
          -0.45701705350059363,
          -0.0066195489071530032,
          0.26306467534484584,
          0.29968566050509543,
          0.27497376607128704,
          -1.2669843119932052,
          -0.18411939667906727,
          0.49690482974898109,
          0.94889220600044966,
          0.33174388451258074,
          -0.23070589999620736,
          -0.54585943478355814,
          0.71343049103489176,
          -0.10754430196056111,
          -0.36826719437575167,
          0.052965812946819943,
          -0.22335736659803923,
          -0.41884371178063456,
          -0.25473459981021873,
          -0.14994986487590825,
          -0.28833468143202878,
          -0.036964277187195395,
          -0.4261678528214401,
          0.049769288201588581,
          0.30590667208048883,
          -0.12086024242888131,
          -0.48304274234892791,
          0.363063198199159,
          -0.15861966906821171,
          0.92662385601984854,
          0.43335574688269168,
          0.19619122648469828,
          0.14508214875474187,
          -0.37316232379484049,
          0.0024811811315339554,
          0.19774463284875432,
          -0.20777361926690446,
          0.066812362847135487,
          0.24463223261011374,
          0.16270956339265064,
          0.51043460426121912,
          -0.040383847431153204,
          -0.32200955705045736,
          0.31852714950143785,
          0.36111598483817281,
          0.63589514463773067,
          -0.12835171890551225,
          -0.25925281654901783,
          -0.997794070227118,
          0.13412557936531211,
          -0.14460238338494225,
          0.81941633863591323,
          0.91987536242820311,
          -0.44206829740021891,
          -0.68240202966779062,
          0.24022800995006927,
          0.84219860774468025,
          -0.2483775532254936,
          0.36335041615253277,
          -0.15147174866816687,
          0.50683926675141577,
          0.30430673919003781,
          0.2435520973279138,
          -1.1244485210565853,
          0.14318979892527278,
          0.1213446294289157,
          0.90535353426338661,
          -0.592037251347663,
          0.035477777371669378,
          0.10171889931571425,
          -0.78878688208204084,
          -0.25823595333149235,
          -0.63142151615902331,
          0.25564120348601826,
          -0.72954393161056064,
          -0.303984676080815,
          0.13146427531550622,
          0.15552653928065155,
          0.2565545967129787,
          0.70305028287395255,
          0.18027986168809909,
          -0.23296780840249087,
          0.35103992389342825,
          0.095305196907033984,
          -0.37762892910128865,
          0.45285446274392971,
          0.6917271792612808,
          -0.12978611111661878,
          -0.37574123042446289,
          -0.14381858503539768,
          0.360078140801452,
          0.044018980713783872,
          0.80049559611560728,
          0.017243438782194774,
          -0.17454657604228435,
          -0.70531654187515636,
          -0.22237487139769932,
          -0.20286861857190794,
          -0.4261830784602455,
          -0.20711746296238431,
          -0.34516923713046355,
          0.097141866707003671,
          -0.25477365919567313,
          -0.31316192609660715,
          0.36614653944423087,
          -0.61942128073710589,
          0.28709453436118493,
          -0.09780772600290713,
          -0.033018318465728815,
          0.35399799812881372,
          0.012834016356005179,
          0.28550858403525892,
          0.39398978837316412,
          0.414877612014406,
          0.139715680762318,
          -0.43464685522608681,
          0.16041035506307955,
          -0.1843971250189011,
          0.58511745611954069,
          0.56019701599756344,
          -1.0451999879023235,
          0.55913502596891662,
          -0.43655392746767091,
          -0.090417899139019084,
          0.019742028566806062,
          0.42656972380795016,
          0.01698508024735355,
          -0.0065700932260026644,
          -0.79166571312260281,
          0.24655963757548571,
          -0.39070043840267932,
          -0.35065471087485656,
          -0.18310676963713196,
          -0.37897172593609513,
          -0.46352070137486212,
          -0.030531530849561624,
          0.74434379881469614,
          -0.13644362487322773,
          -1.0475840099960976,
          -0.22058230932749215,
          0.044149606572034136,
          -0.520284182474876,
          -0.52676801885970292,
          0.39510090637670059,
          0.14286596851476929,
          -0.52225660202612534,
          -1.2097494187894227,
          -0.82837494801459566,
          -0.2439802738499624,
          0.34896813791260867,
          0.57009205887658976,
          0.04607580500188304,
          -0.60948174957717782,
          -0.18809694830775489,
          0.4872210464712568,
          -0.19122885629818573,
          0.74890628028504924,
          0.062061063559178335,
          0.21451713602674485,
          -0.25494144011326025,
          -0.51198010258702631,
          -0.34990271504415493,
          0.48892521559522756,
          0.42750008282044522,
          -0.055881870999213067,
          -0.18761432800045264,
          -0.80995504711538979,
          0.13072094734660686,
          0.38751109815152079,
          0.680003143593556,
          -0.48048292414065291,
          0.41822714587895915,
          0.88149591205614242,
          -0.76565693371606247,
          0.047049295624505015,
          0.42015584347668677,
          1.1119496532340973,
          -0.5171308623632328,
          -0.38173236902943042,
          -0.51219084594579822,
          -0.14489568546929565,
          -0.0062685407140851525,
          -1.039514189950276,
          -0.59451978661739235,
          -0.29117836724575824,
          -0.10506199522057806,
          -0.030995033477322586,
          0.30777046247159145,
          0.38076497265115034,
          1.1937944950725576,
          -0.3184887679890489,
          0.49226163307163157,
          0.58439081760510492,
          -0.12529704290261579,
          -0.12411743292893616,
          0.20945530545534044,
          0.37041551773376213,
          0.18321914169273448,
          0.76350031717456635,
          0.5126039885219571,
          1.0437091638427369,
          -0.29668208456233236,
          -0.9422700030236828,
          -0.60108589476198149,
          -0.25739983260208166,
          -1.0144246092839566,
          0.40818493460789934,
          1.1565955593763371,
          0.47910569130104014,
          0.83701273235719353,
          -0.19548475815091337,
          -0.39485652144086969,
          0.47075469518310986,
          -0.33894097273833,
          0.34340142698155585,
          0.79206363134393765,
          0.47862814787560465,
          0.43714913365606045,
          0.46689032026719846,
          0.91799560236267375,
          0.3409581685013609,
          0.85273893004842471,
          0.13907725024117379,
          0.23537749284349369,
          0.28440656486054922,
          0.106673224255368,
          -0.058994399230401437,
          -0.49104919091425525,
          -0.9134859021408045,
          0.43152990733027652,
          -0.38080011407453473,
          0.46018717296964051,
          -0.35615067632292113,
          -0.52334560315016043,
          0.65839415714880611,
          -0.24496283900902149,
          -1.0604882138872254,
          -0.62584433381771576,
          -1.0486419260021882,
          0.65637111557607131,
          0.51787209695067671,
          -0.099010996783975347,
          1.2775572264845216,
          -0.13671178274356066,
          0.020845811999299687,
          -0.45405310716404035,
          -0.48132209569646522,
          0.93496495887923869,
          0.25312058916999869,
          0.73344401428801087,
          -0.4287753403283312,
          -0.48258838608685128,
          -0.18787038541879186,
          -0.16841928688171337,
          0.19749617174558828,
          -0.82426678198330339,
          -0.2287051723528212,
          -0.45483871940920939,
          -0.49258727907871436,
          -0.034535509309410753,
          1.278464167391691,
          0.44242405551153829,
          -0.46383404861788108,
          -0.25346837431501679,
          -0.72593408656371838,
          0.41639704975397812,
          -0.15088966196349296,
          -0.39974443181072333,
          0.29945503904616522,
          -0.853934523453596,
          -0.51508799005322736,
          -0.40376199167465826,
          -0.88128609659439139,
          0.16771716916900611,
          0.16743689016932339,
          0.631036982997726,
          0.34067135343468924,
          0.3062719167551437,
          0.023486174917053654,
          0.57494796904646939,
          0.15265571291623808,
          -0.78566603328937856,
          -0.23639512597491869,
          0.21825744851479154,
          0.12244234853704197,
          0.16442977612822615,
          0.56156154015527571,
          0.14735068031004608,
          -1.049537125004832,
          -0.59241633916936143,
          -0.19156811842870658,
          0.10427576792559928,
          0.64822706396062724,
          -0.35764529935667583,
          0.34481899725532467,
          0.441051456433658,
          -0.30008975040219954,
          0.12370689864446637,
          0.25200703547401943,
          0.094723155812020746,
          0.55714076717832084,
          0.60983899964473121,
          -0.40095622665328856,
          0.028767412151087485,
          0.68629057967946172,
          0.96124286833266182,
          -0.46007414899331328,
          -0.66237124524231572,
          -0.46820406379932372,
          -0.1150130644049609,
          0.13147204578149954,
          -0.32517118554869184,
          0.05667003962705941,
          0.10351719629143996,
          -1.1380059777591702,
          -0.80058368927403067,
          -0.18942851900237526,
          -0.71419450843362819,
          -0.46848244356868757,
          -0.16665723489292747,
          0.073091072668606441,
          0.69343883812921725,
          -0.69233318295321566,
          -0.27871581262038864,
          -0.11937566338835839,
          0.15937414578697773,
          0.034051529260190033,
          -0.2166299404919704,
          -0.17340148476237738,
          -0.47858946245351475,
          0.35015521091037372,
          0.46473047827096353,
          0.58291834366931672,
          0.75324872027505274,
          0.2976460862043907,
          1.2147138840585752,
          -0.11411232148500689,
          -0.14510246171533717,
          0.29387913801176757,
          0.79321944511610787,
          -0.77691080408791546,
          -0.54220064453929584,
          -0.006454027565389822,
          0.38609176217192348,
          -0.541725585808214,
          0.080854808721222485,
          0.67017701780604566,
          0.28657606307075167,
          -0.582951640127437,
          1.1950846913744408,
          0.31055601064209992,
          -0.41453201150245883,
          -0.39635018917855047,
          -1.0006011766971503,
          0.63937224816327243,
          0.22643520305747758,
          0.40678859465341932,
          0.950315509921171,
          -0.27623283727946119,
          -0.83506501345305817,
          0.0660753677251376,
          -0.85199032276731845,
          0.21252960638512455,
          0.43134064649403203,
          0.689078055106477,
          -0.20292708739403825,
          -0.34848517989305389,
          0.22575046533652962,
          -0.19514335477432029,
          0.462063024989717,
          1.0910057280542527,
          -1.0282854792288882,
          0.016322100915848337,
          0.81840124939049963,
          0.93785637273755573,
          0.29319986612089743,
          -0.8891374610374132,
          0.087704540309869641,
          -0.39940972456101037,
          -1.1125375500295187,
          0.20002770899903957,
          -0.15154003709448552,
          -0.27476910833262785,
          0.63370552932133661,
          -0.11973494306209856,
          -0.30528430446226018,
          0.52064147688614359,
          0.69142866499878664,
          0.954385476398119,
          -0.58937901351068578,
          0.27554807886215116,
          -0.0489891942771654,
          -0.15589617871220829,
          0.05391417383210912,
          0.61575430705105827,
          0.32016227762803917,
          -1.4543826487543798,
          -0.47063351256237917,
          -0.0843355296309317,
          0.164061345202539,
          -0.43016896526486714,
          0.22807672627862669,
          0.62102703545325666,
          -0.21537566255799237,
          -0.40281466366870572,
          -0.08482185419579423,
          -0.24657766673798015,
          -0.10425753962074341,
          -0.34598566064908037,
          -0.11421031980187715,
          -0.51490505428978528,
          -0.19059673699495267,
          -0.055529855810612393,
          -0.09790491487900875,
          -0.51047015273320751,
          -0.44226580105909036,
          0.91361105406340526,
          -0.0063068555022067693,
          0.00067352635348195164,
          0.070958959931047422,
          0.48067831396356453,
          -0.36739599971098336,
          0.48887415696601166,
          -0.71690488947243936,
          -0.01922491409108271,
          0.22278717697463485,
          -0.26347376550405444,
          -0.19160012469507623,
          -0.059614272727766808,
          0.24191943268046359,
          -0.862114326121149,
          0.49481716632418649,
          0.095207753513667739,
          0.46633152589077986,
          0.13587216560672202,
          -0.50361605293555756,
          -0.35762368304143349,
          0.41423616004160768,
          0.18378354316749643,
          -0.082405641580568789,
          -0.18547691279056253,
          0.551860232020848,
          0.070929175636299538,
          -0.52952005711553141,
          -0.94808168398370118,
          0.86641900464240817,
          0.062786175151953574,
          -0.13890017857246981,
          0.66383942536790452,
          -0.870655309637,
          -0.50516451837155973,
          -0.070746328186689092,
          -0.049679813308004035,
          -0.31947525695631013,
          -0.24781187577544345,
          -0.18937726281955122,
          0.37301392970561126,
          -0.24996012403843282,
          0.38065083081016071,
          -1.3474379660526072,
          0.7369152150952194,
          0.27369380133041926,
          -0.82818866428692872,
          0.33840954413746233,
          -0.34108942759700883,
          1.0813568004245975,
          -0.018181277093055715,
          -0.76846164857415156,
          -0.2069950545752054,
          -0.59160740136153434,
          0.10369119235235162,
          -0.41749255873998664,
          -0.069249900680159862,
          0.84643492711627588,
          -0.70516587723387192,
          -0.56587148905241913,
          0.13331285102076365,
          -0.16072154867167812,
          -0.430870672796749,
          0.0764353550806904,
          0.23337974843059839,
          -0.9724792882769715,
          -0.010140450710914578,
          -0.82580793780990991,
          -0.27396375105741455,
          -0.21511114787234986,
          -0.18249581213773503,
          0.355125858613313,
          0.36853072337903348,
          -0.52837456153422757,
          0.12567892639115841,
          0.34784466988871277,
          -0.14060378404394136,
          0.078619659005992631,
          0.053789407134886572,
          0.1284941295233285,
          0.15867737657486017,
          -0.66493465815080677,
          0.49459937845513396,
          1.2234112114673297,
          -0.37405070182262656,
          -0.674613938682844,
          -0.059576870138441047,
          0.028232366875815481,
          0.9994745378343538,
          -0.29361417863178008,
          0.45470853187871957,
          -0.081959889220850887,
          -0.21258391100924803,
          0.33907399196360649,
          0.64219705098012481,
          0.83037215430981026,
          -0.30217173664179309,
          0.44625403242077677,
          0.38772066189674115,
          -0.70956261003589549,
          0.3383786382968646,
          0.43918275551285563,
          0.73313837671807436,
          -0.64479781724283158,
          0.049053846469982024,
          0.27319218852091604,
          -0.70776922461633962,
          0.38625444291619937,
          0.26413475404167319,
          0.48335527628404057,
          0.092494390895243056,
          0.15342611297027534,
          0.0016881137495418075,
          -1.0881908385762609,
          -0.13308524623444082,
          -0.43720674031457246,
          -0.63349073721600779,
          -0.13053025003015056,
          0.24732781807980211,
          0.29753098719087773,
          -0.20493481450170317,
          0.6775171434178584,
          0.329459599581431,
          -0.1191776579714937,
          -0.0095298172912799545,
          -0.4387310021480047,
          -0.1138152594831103,
          0.43767621324028783,
          0.26521002406287003,
          -0.68999508141105792,
          0.37601710984966363,
          -0.641210014089426,
          0.030146157174497118,
          0.22916253231336053,
          -0.10980600903258335,
          0.18003511828157323,
          -0.81661033433543173,
          -0.25654018163211822,
          0.646247329262926,
          -0.7062103508819465,
          -0.44420814038564466,
          -0.39269107237138756,
          -0.59165476786441851,
          -0.51977987300640893,
          -0.40552747844663872,
          -0.55465523319326238,
          -0.12102381452896975,
          0.093389093391876982,
          0.3298882453091021,
          -0.39005533968402673,
          -0.67533208070917894,
          0.44184682519740576,
          -0.49289579992876953,
          -0.48229498789358843,
          0.48565673572228962,
          0.39574386455451088,
          0.19476062747987552,
          -0.66328996226701686,
          0.82494079651758756,
          0.089238004605548676,
          -0.23944813553096453,
          -0.85416268216095126,
          -0.20009824464086559,
          -0.34141220816508261,
          -0.360699566120116,
          -0.34065340801328214,
          -0.068099481339025936,
          0.46833180775592825,
          0.57638794143243,
          -0.265255409533636,
          0.95540792135689845,
          0.38518482535559578,
          0.17877172028806992,
          -0.78758825100438923,
          0.065858213844899136,
          -0.30265851070092509,
          -0.4067475544937626,
          -0.57616846945983113,
          0.89866671471790427,
          0.72181930355491719,
          0.21293705658199891,
          0.43596858743700223,
          -0.09676919011253593,
          0.063183375495151156,
          -0.30343817941269546,
          -0.63538996591092212,
          -0.76131823090303963,
          -0.02412910185398898,
          -0.31934422266741863,
          0.40621762612270412,
          -0.68607776942731835,
          -0.10879217598923893,
          0.052687632304675394,
          -0.44040057009359584,
          -0.19096808508708654,
          -1.110575515156812,
          0.59808678107134783,
          -0.668964852840223,
          -0.19428224827850127,
          -0.99718034811539713,
          0.6493259657865752,
          0.14862889250525249,
          0.037327441043743866,
          -0.78786606847567719,
          -0.4223511767880499,
          0.24148989459015818,
          -0.74600628008136816,
          -0.66416105399640546,
          0.6911087813928829,
          -0.57397028588734333,
          1.0608749888314386,
          -0.17865829770353925,
          -0.01927289860063312,
          0.14032333092846719,
          -0.020785857062528126,
          -0.84581697932030631,
          0.36361472133528838,
          -0.45694219571739753,
          -0.456539151421516,
          0.28881960137637458,
          0.26420978233996262,
          0.27853170370550118,
          0.04790096214293546,
          -0.32970387084192748,
          -0.29097464033410914,
          -0.13289606479636437,
          0.4844012202923062,
          -0.3509217541446667,
          -0.072056809521777135,
          0.22516728677551143,
          -0.46077442011972752,
          -0.90319338930548965,
          0.019400559032976938,
          -0.48271888419512782,
          0.53195981989694308,
          0.25319927088999117,
          0.72632599825607647,
          -0.55264619844952234,
          0.023242795397711569,
          0.17508426981575742,
          -0.50662030208405551,
          -0.043082484139607538,
          0.56225120267522566,
          -0.94996792656029472,
          0.44034965213776434,
          -0.48360014736120077,
          -0.5581335507439027,
          -0.11456248980270771,
          0.012494437003816793,
          0.15563662592605765,
          -0.42112476141221755,
          0.78587715399268332,
          0.94829253625605092,
          0.56365695630854662,
          -0.41151936229935965,
          0.12621814293827466,
          0.53678462850520725,
          0.19831297009169657,
          0.12132326573937291,
          -0.50458005836109687,
          0.05899890186656339,
          0.7025722643160649,
          0.038437481023710737,
          0.69446529192725015,
          0.71951023632482669,
          0.72967401092043116,
          0.18802382674112797,
          0.20210110615095592,
          0.31357536627226196,
          -0.23939292814647714,
          0.17279850939201952,
          0.122371566629626,
          -0.26350884762518773,
          -0.75755815706746266,
          0.0931247588313607,
          0.36514997516829778,
          0.301770365442034,
          0.233492371509466,
          0.014061950708965128,
          0.029106324806186627,
          0.2897161403709822,
          0.26255059050233637,
          0.47940759075268918,
          1.7059455431612132,
          -0.049251981686893639,
          0.33214833255708975,
          0.43336864633695638,
          0.61242237389119658,
          0.064721671382673235,
          0.25786017049261023,
          0.94157546510822887,
          0.8819054982575536,
          1.3721742818807818,
          0.22778493922764553,
          0.11993658051029385,
          0.17451126964426245,
          0.41485080530408719,
          0.26798612164342372,
          0.55460569325611453,
          -0.16460319112112762,
          0.078089083472145118,
          0.7738004408118182,
          0.57465684736223188,
          -0.74422081137631313,
          0.2941509069921302,
          0.10645229383677549,
          0.26425136473427785,
          -0.68147641700137718,
          -0.40596305406451932,
          -1.0476444006699104,
          -0.30614004623723379,
          -0.428166094613585,
          0.6243106760884366,
          -0.75678356072159747,
          -0.3990025785637607,
          0.1718508299723969,
          -0.53885557136265438,
          -0.75599352571636325,
          -0.024489098815823104,
          -0.1315402101935671,
          -0.41695876375599678,
          -0.29191843861996919,
          0.34467615490586606,
          -0.62617765072972376,
          0.060946940487571953,
          0.52775224139842458,
          0.40197818662486823,
          -0.0050576844479253528,
          -0.64158664670823029,
          -0.0510295609182655,
          -0.24289033817004443,
          -0.0031122930778031861,
          0.12548060173268477,
          -0.20608512175578186,
          0.15356392312300962,
          0.036353903082249214,
          -0.66656842675885364,
          -0.55727229721712745,
          1.3064213462197531,
          -0.23610951927596233,
          -0.5407039820647469,
          0.38336743702569132,
          0.36127826753739495,
          0.0015365648205860763,
          -0.38750382995125926,
          0.44083182642048729,
          0.9712116090467966,
          0.52322532200450023,
          -0.026343000260720412,
          -0.28241562119881813,
          0.64905721141509676,
          -0.74167086110629765,
          -0.048760037124022319,
          0.30452691654383129,
          -0.51993981996099226,
          0.46786061860102207,
          0.69836031820555533,
          0.52217554661955989,
          0.90590852913053366,
          0.31848246954464171,
          -0.32723249677206573,
          -0.047693597488782817,
          -0.38707427804632932,
          0.18491795229620006,
          0.053114334411535277,
          0.60235585254822221,
          -0.18172228284144326,
          0.49132925827509238,
          0.62200969638074832,
          -0.34467951116449763,
          -0.28994585469623047,
          -0.81231270524399535,
          -0.31355581019983858,
          -0.051265791578766894,
          -0.19396247392383872,
          -0.0519831418277394,
          1.0653969152381928,
          -0.62883692987246576,
          0.63974377666392268,
          0.65400028718301162,
          -0.025955763587307817,
          0.87270681307872688,
          0.279556786916252,
          0.45921657606684751,
          -0.12979726184277021,
          0.11151904634466332,
          0.812025902931162,
          -0.13338243572110495,
          0.1600933496895966,
          -0.29861056044333195,
          -0.10320402541208232,
          -0.0523765006860513,
          0.10446007187362294,
          0.60837153678274225,
          -0.10690772978911327,
          0.577179288796719,
          0.29451288796328434,
          0.019525657125001553,
          0.224853187873088,
          -0.36012412532812083,
          -0.34354893379702051,
          0.51336147434606338,
          0.16447020794796821,
          0.0712484536701769,
          -0.44641209612549543,
          -0.04953195438446012,
          -0.26768847260843215,
          -0.693274387026135,
          -0.67251278518430091,
          0.66505364012071688,
          -0.010977234910435235,
          0.78444958277562671,
          -0.12508110626052993,
          -0.49455071922297233,
          -0.041642321707595249,
          -0.0850683311023805,
          0.3884794681709236,
          -0.98872070037178317,
          -1.6781792316829836,
          -0.079680272352386783,
          -0.8105541928156802,
          0.16986308838880507,
          0.18389907384031556,
          -0.81351394496951657,
          0.86103763716612181,
          -0.0715923879214382,
          0.26123250130743425,
          0.02217584127619816,
          -0.31005704343948864,
          -0.32759450028228626,
          0.01582374965263967,
          0.30877620125550215,
          0.64036541648953316,
          0.0241674018281506,
          0.56371433553798089,
          0.50762420443813472,
          0.17272652028888044,
          -0.17550394422882107,
          0.067235842954381869,
          -0.30687002875165242,
          -0.80250664275149153,
          -0.052593445223129705,
          -0.0805643475188876,
          -0.48609927349243837,
          0.10844203152298983,
          -0.406547301625054,
          0.81748851465099381,
          -0.10652481517840678,
          -0.28416249668595422,
          -0.59712131007786007,
          -0.5986725640723,
          0.36389206010894737,
          0.24995494430630075,
          -0.49007514298250293,
          0.41090735798171113,
          -0.11920869880298944,
          -0.31141639213005357,
          -0.29898543802150124,
          0.39310993787626908,
          0.35412783994856845,
          0.16610070416983955,
          0.94644729065201283,
          0.36234024913483365,
          -0.055395762678690084,
          0.029636603295282647,
          0.020198782298708723,
          0.33743544206660125,
          0.3204412047409001,
          -0.087602361887369,
          -0.08003457278940948,
          -0.27632478093596197,
          0.31186956567301521,
          0.391135930317665,
          -0.62559300133228213,
          0.56645489674222738,
          -0.0951340967093479,
          -0.7490795951082343,
          0.26665507029543545,
          0.1758983590357921,
          -0.93726277219407816,
          0.47600261662042814,
          0.30954143483196683,
          0.19890547515751403,
          0.12607948697234053,
          -0.1363616278305069,
          -0.0014196441263158847,
          -0.33827653589244605,
          0.51486783181902873,
          -0.28563819927802409,
          0.49591799807541137,
          -0.45825058866928164,
          0.512292517718395,
          -1.3463559488873558,
          -0.4523038671907193,
          -0.14380595424452186,
          -0.036472336205671571,
          0.22961608733797034,
          -0.20719375777768148,
          0.527012864110669,
          0.37873949808328133,
          0.028192513570494487,
          -0.50563600008499943,
          0.7057477774334695,
          0.17004324738849452,
          -0.45068410284958876,
          -0.073998355977933972,
          -0.44165194494669963,
          0.12053843809980434,
          0.88266468874919113,
          0.24242025668034573,
          -0.015432869022879358,
          -0.23386082135252737,
          -0.15140698011239548,
          -0.89315609158609977,
          0.010485902130801016,
          -0.15022596492236467,
          0.1708607984649598,
          0.29801893328453022,
          0.51639165486161032,
          -0.39561889906698583,
          -0.060383508803600071,
          1.1386611071791579,
          -0.1453339454748554,
          0.79723038998155471,
          -0.036960255429335107,
          -0.57257161035106141,
          0.81195696867742628,
          -0.725193975720974,
          0.72997151135179184,
          0.45017707989020117,
          -0.1560899345396996,
          0.20768210558530759,
          -0.11412686636433438,
          0.39238283662861578,
          -0.43187640927419046,
          -1.3259818966053583,
          0.53605786333114314,
          0.5776044356026333,
          0.051880282598943096,
          0.36744385175015709,
          -0.37059329688405551,
          0.9124247582820888,
          -0.94748197843538406,
          -0.61452084760841708,
          -0.0990926960211118,
          -0.31655801451543619,
          -0.036092739105899108,
          -0.091314782141951434,
          0.54978255889308814,
          0.44385183095866254,
          -0.046106569288443824,
          -0.55800021554104251,
          -0.12919973182907163,
          0.37473914347607407,
          -0.66724940080498185,
          -1.3780455849401059,
          0.93224170114335658,
          0.62421862306485021,
          0.215607694626215,
          0.1306406423762424,
          0.541589535604724,
          0.63680178184586844,
          0.80149805668945573,
          -0.99260007826493479,
          0.073913307383480453,
          -0.048491230271048159,
          -1.08365376709645,
          -0.94399796150312765,
          -0.012883697445471694,
          0.78266176740470461,
          0.035838075769841174,
          0.20271773252958203,
          0.58730783282277932,
          -0.53807534901710863,
          -1.5207505338394884,
          -0.18936838976099665,
          0.34818996718424527,
          0.40443687634899239,
          0.19115855935570542,
          -0.042163824568323412,
          0.342518740669662,
          0.53526591273934654,
          -0.23622387912766404,
          -0.18502934903335971,
          1.1481176365335921,
          0.14480072828747603,
          -0.19888467987832792,
          0.33602600425835027,
          -1.0125022699469899,
          -0.53497852731861228,
          -0.4620670911641559,
          -0.45098712470713576,
          -0.068287333647723783,
          -0.40835200327310833,
          0.63092399909946506,
          -0.13938979055116052,
          -0.16178921211938269,
          -0.0073600306623527187,
          0.3368542170371705,
          -1.2795771536694993,
          0.658545269397385,
          -1.1409269074710782,
          0.15591121103382333,
          0.044564069422090756,
          -0.25232007282825775,
          -0.37100239415093539,
          0.033125338657559934,
          0.034268249086010776,
          0.38819810373189689,
          0.8087391606826283,
          -0.08185738515522277,
          -0.22364051781411765,
          0.34233108754013547,
          0.27345439085096335,
          -0.34748139211739038,
          -0.23692351551796292,
          0.45951640991486914,
          0.2368261561726952,
          -0.94706360727376859,
          0.32994722612503774,
          0.22248804702777139,
          -1.1184836155332354,
          -0.22120204973797045,
          -0.12188280715588848,
          -1.0316153254167964,
          0.31516888022880535,
          1.0645615074215811,
          -1.0288551611070678,
          0.324934964964215,
          -0.31972893911617817,
          -0.2589488955431215,
          0.13010358661204402,
          -0.20886588101753933,
          -0.31042457821496877,
          0.60593989410831139,
          -0.20815057647312213,
          -0.39382484700037562,
          -0.62832016515010169,
          -0.17111668932082405,
          -0.7691738033176605,
          -0.20786117834182855,
          0.76554402535881294,
          0.31725112610379042,
          0.26361365044948143,
          -0.38868263093597993,
          -0.40038098056006727,
          -0.33815066854245668,
          1.2092908895055898,
          -0.31219222345756409,
          -0.64117844146392333,
          -0.017937732291515806,
          0.55320412506542027,
          -0.016535874840542187,
          0.74687701077543778,
          0.459696501017381,
          0.016529123130591905,
          -0.49172205706197608,
          -0.30262397691019671,
          0.12317080117145322,
          0.92315080495491342,
          0.10903526886912686,
          -0.13554879458824878,
          -0.856157611852891,
          -0.18548334746836603,
          0.73870028882620853,
          0.23152104657750031,
          0.889110314301461,
          0.29817322704686655,
          0.24060801637268758,
          0.090794132439788386,
          0.56094310578439566,
          0.514231272848365,
          -0.37763259539888949,
          -0.72734410173227182,
          0.63671105720660992,
          -0.38852397619927059,
          -0.721604917898587,
          -0.27950849908965558,
          0.581907858064552,
          0.1798312174341353,
          -0.4358204877346683,
          -0.19603883819948764,
          -0.2211078654534826,
          0.09344490649241019,
          -0.13162658963741059,
          0.10594513528499781,
          0.15049178899760082,
          0.19576144792694136,
          0.27949417022284623,
          -1.6419872807945626,
          0.54072796840944737,
          0.062543708117188956,
          0.79755178602494869,
          0.19629747959619545,
          -0.26455225619747552,
          0.099667267041247343,
          -0.59684430742509376,
          -0.39951624519129481,
          -0.61193518593765972,
          -0.15215143201079334,
          -0.26374560681012521,
          -0.21678276146170855,
          -0.29360506713881285,
          -0.2909364423321667,
          -0.28531593778172637,
          0.53602945557394344,
          0.019475733550168909,
          -0.69733497497566077,
          -1.0164787089870215,
          0.25753629201453782,
          0.17707907124506575,
          0.40598603300237979,
          0.81253834447130435,
          0.25188516076872769,
          -0.073357256001992638,
          -0.0059051330478423879,
          -0.51790153115757176,
          -0.099205069950192418,
          0.38259372992073637,
          0.11520696756058942,
          -0.52218627994011557,
          0.76226649630034615,
          0.27693136410569696,
          0.43550738661759691,
          -0.15498175147945054,
          -0.030608315933037662,
          -0.40722464191123869,
          0.60516569721349578,
          0.36051038135073776,
          0.25226190614314387,
          0.5374417804839684,
          -0.17233970990846059,
          0.10694577386370043,
          0.72488537038488543,
          0.2361193836610499,
          -0.50780394889570424,
          0.043938729299914804,
          -0.13678850216387142,
          0.52559542046852037,
          -0.32302914920289566,
          -0.43683734500227639,
          -0.32475792247865004,
          -0.11785378815303053,
          0.54148502533216314,
          -0.17962644050965773,
          -0.19882728283204137,
          0.19426378366011429,
          0.081407884118970444,
          -0.70073595872172423,
          0.63421270078852809,
          0.35978231117108178,
          -0.73519966573968176,
          -0.43068335512332884,
          0.38969659835894588,
          -0.69659257770412819,
          0.83964293791234124,
          0.30075075414972718,
          -0.82130736647036462,
          0.49745241270486934,
          0.77373515581519581,
          -0.27684884728334208,
          -0.16462342842272421,
          0.5443906378253287,
          0.10635219322964221,
          -0.31786804510102179,
          0.046594179627047011,
          0.6133927399177076,
          -0.59048412518717508,
          -0.12321685727932923,
          -0.36942555345891359,
          -0.39683569675866631,
          -0.053234642257770609,
          -0.10701668555651606,
          -0.26186431455278275,
          -0.31205643689260443,
          -0.60307681466744911,
          0.65257134295923958,
          -0.33059497039947827,
          0.20118401850299775,
          0.75302221119125212,
          -0.23426405830318625,
          0.73156057629313065,
          -0.37109662792982756,
          -0.035369074515310149,
          -0.24248998747343797,
          0.33654643039011967,
          -0.53045053604346259,
          -0.41555482614061579,
          -0.020245915244649082,
          -0.021970872163438931,
          0.57412830538724158,
          0.02891381062881733,
          -0.50562990629176852,
          -0.60523298907230672,
          0.94359019362184571,
          -0.25138054894153933,
          0.45147164773962406,
          0.39147326153195738,
          -0.41728230405540667,
          0.138635785917052,
          0.5921202444655741,
          -0.21070059508738515,
          -0.14580729025508638,
          0.10809271506441845,
          -0.519956454836814,
          -0.43211014135812575,
          0.33207210431285322,
          1.0910990334179107,
          0.50604662298269,
          1.1028672620922742,
          0.35597053041878224,
          -0.11040941387283058,
          -0.5132154351547461,
          -0.03673124637219901,
          -0.22791632726131691,
          0.25509470165806014,
          -0.060747049046778058,
          -0.6161086537170084,
          -0.39864758634520558,
          0.9033936007256318,
          -0.32327285479500417,
          -0.536086688425248,
          0.62223612791869387,
          0.67513184599445519,
          -0.54515952062333339,
          -0.90654934091312844,
          0.13102753797072925,
          -0.78312543819196923,
          -0.1962181983958938,
          0.65648209088424037,
          1.1669993075669534,
          -0.68753361439951111,
          -0.17373188353010735,
          0.69796233944910779,
          0.17151339232594481,
          -0.42037475970802807,
          -0.26550406656570874,
          -0.46163053498039236,
          0.16619763198914078,
          -0.14095762605770576,
          0.57050682714166523,
          -0.34883604970951065,
          -0.478086170029487,
          -0.28980890698109746,
          0.62039114364509462,
          -0.23741647650356437,
          -0.52940910619190507,
          0.21868684658453957,
          0.59527681199815563,
          0.01181596232478759,
          -0.3840145058461954,
          0.94632100815163434,
          -0.0990897755934685,
          -0.4825548957087018,
          -0.10162466927124395,
          0.32941831514268033,
          0.070567048713525551,
          0.51573632900304422,
          0.48772678244896733,
          -0.13200896880311641,
          -0.24581854596601543,
          0.11561249518856932,
          0.28447412837018266,
          0.072284690446193539,
          -0.00617193796256822,
          0.65812118163099564,
          0.7351836293041768,
          -0.18288645886435923,
          -0.36516720180919443,
          -0.8148400529767762,
          0.012929264617574467,
          -0.21703403797344453,
          0.28862470558129938,
          0.74457794667598909,
          0.0024608159758564832,
          -0.58706528894211407,
          0.43194909499891854,
          -1.0861376585701241,
          -0.57730413541530745,
          0.56984136810991293,
          -0.095830038980203189,
          0.69491271562925361,
          0.26814417121939976,
          -0.21347284455301724,
          -0.52401658988290378,
          0.77546117748737475,
          0.22029793854757798,
          0.12102220582485165,
          -0.38897055550095389,
          -0.061256871188461438,
          -0.60416977428493357,
          0.75562022982761345,
          -0.80479980966156661,
          0.49403060741701194,
          0.22539611182274308,
          -0.045836306799132,
          0.42451975337618536,
          0.28951334817949503,
          -0.69753816099688792,
          0.30835607121052544,
          -0.14813787709887938,
          -0.469121927653664,
          -0.39548154791188461,
          -0.090331306868624367,
          0.0423459885733918,
          0.36034042883270312,
          -0.32988193666870641,
          -0.16520306524389222,
          0.3665092569234577,
          -0.28522405238440696,
          -0.37487880033414239,
          -0.46374577829084129,
          -0.31447128956388043,
          -0.86725448739582178,
          -0.93657686822330655,
          0.29798117829724169,
          0.12157933757816751,
          0.18068148767591541,
          -0.2316172478273846,
          -0.5005760945905704,
          -0.72377909227492732,
          -0.10293216715267249,
          -0.27686242677251716,
          -0.54588500573547216,
          -0.64175009962711149,
          0.86561908260101794,
          0.16143093085165475,
          -0.8410058751243199,
          -0.065449225730739274,
          0.61779240415763714,
          0.15015829436617831,
          1.1944102841615785,
          0.26316603465447785,
          -0.10535969102455912,
          0.28293621169644634,
          0.20361712587897679,
          -0.5654004912035866,
          -0.27465835673495553,
          -0.21465738991682642,
          0.09860207804701894,
          1.0572293120555736,
          0.63713715476945587,
          -0.21716437051924345,
          -0.8669956150263648,
          -0.23994753871987848,
          -0.039162976272633362,
          0.73519580999960066,
          0.99244840204108431,
          0.48408368057542611,
          0.57844978061830321,
          -0.762655063123873,
          0.266599146919543,
          0.339161053842462,
          -0.075059011846005344,
          0.090132709150676074,
          0.33775901864670088,
          0.9855900624529117,
          -0.015253996620260498,
          -0.49141918772126908,
          0.38134279759693251,
          0.18775346218945677,
          0.22083949533986508,
          -0.17665924599769164,
          0.36650584516389789,
          0.099234307994823079,
          -0.22948407167574114,
          0.078998252889165885,
          -0.19929171891499672,
          -0.13092378785562875,
          -0.34691052556619395,
          -0.47283355003931776,
          0.1341900703345362,
          0.88925282100581937,
          0.92638217449386828,
          -0.37834597305601664,
          0.0903725290315732,
          0.49326060312490261,
          -0.092880143073743815,
          0.99550016142580977,
          0.14333634050312716,
          -0.48225650999016778,
          0.435904746643674,
          0.093035836884819534,
          -0.12502185402064031,
          0.63757445233571486,
          0.035185584966986587,
          0.51634871697161211,
          0.11713336290092459,
          -0.0557096995944818,
          -0.35060586864618304,
          -0.11438662378380431,
          0.34075638814675396,
          0.14163748922858618,
          -0.53309078618668082,
          -1.0312739973928862,
          -0.29852182189206783,
          0.06722919395045078,
          -0.34546545492560676,
          -0.53683584953188956,
          0.36792472702822432,
          0.643961918584388,
          0.10757479238854437,
          -0.030554701611736519,
          -0.19108441665691836,
          0.78540928044912828,
          0.15298550754459159,
          -0.40412322238221959,
          -0.10336257135760758,
          -0.0035577055079641317,
          -0.36892346987342933,
          0.066486474875076765,
          0.65258622734184668,
          -0.0957282190493728,
          0.54596779932536521,
          0.81907267974570885,
          0.10958924602416006,
          -0.3162134719500726,
          -0.49688555042658561,
          0.68125957590420938,
          0.60522823046010976,
          -0.0028304553537099653,
          0.18621533431722553,
          -0.5490926918252057,
          -0.23923743260066563,
          -0.643389426777686,
          -0.17760167444933983,
          -0.65486667123825426,
          0.19600641388060167,
          0.4349418228390145,
          -0.20857070907298519,
          0.27958452293939551,
          -0.043992421974437187,
          -0.0878657547809288,
          -0.30513450237936063,
          0.3825170620884652,
          0.15724960476328947,
          0.36813827457568421,
          0.73979633289661983,
          0.56626296960836653,
          0.10831947707874297,
          0.12122898416638055,
          1.0826805567447146,
          0.15191349492146011,
          -0.42438339520384483,
          0.36532480585582977,
          0.24359223000752125,
          -0.15065320586235412,
          -0.28163327098844465,
          0.024050913637581883,
          -0.24613437270522356,
          0.0742945114019596,
          0.23965172414769712,
          0.18153299006667534,
          0.23609079753416667,
          0.10106852966675964,
          -0.34336633357807916,
          0.082205037380915086,
          0.75723812743139784,
          -0.35552899308833669,
          9.04809680588528E-05,
          -0.039445965110888763,
          0.036261462454234616,
          -0.29137976473701949,
          0.43769083150475663,
          0.20117776658112177,
          0.31502615476448642,
          -0.73060697528264062,
          -0.18771165224899639,
          0.063548425263557917,
          -0.020269315944669263,
          0.45541879945410652,
          -0.67617696677635486,
          0.61512116379689441,
          0.765008049214559,
          0.54204555104240715,
          0.2558415228530298,
          -0.085732694712807228,
          -0.29718091925277484,
          -0.13645701088178044,
          -0.42985038455083163,
          -0.35201105720412562,
          -0.30399226028954385,
          0.050749486543368541,
          -0.1261290651040147,
          -0.73447780182811306,
          0.053082962783788851,
          0.30867646807987037,
          -0.04006787818285059,
          0.1747306421893006,
          1.6439926533839591,
          -0.10134429234430931,
          -0.20931859535713629,
          0.24188245293304816,
          -0.070614285935024224,
          -0.268878827438351,
          -0.19309049941494105,
          0.51064658928871809,
          -0.012414042470800978,
          -0.83152728895102046,
          -0.88468676352837672,
          0.16134579505922278,
          0.287452376807302,
          -0.28401342272906022,
          -0.43461628055192975,
          0.40376720764626395,
          0.12310594109118482,
          -0.18655526279915718,
          -0.4460871439589067,
          -0.267612990926691,
          0.02076951381038921,
          0.40449097667199885,
          0.64558783219180083,
          -0.32784987921696862,
          -0.34585614331867154,
          -0.986936327098667,
          0.19857600764916344,
          0.51444702584449109,
          -0.0055193625985872014,
          -0.5359959881215195,
          -0.0042217452566857992,
          0.0808024510930879,
          -0.2802298756723941,
          -0.33532034170765879,
          0.38996626858306771,
          -0.41864072708864769,
          -0.40772666629944859,
          0.23761322373324334,
          0.010709692339460068,
          0.28398529346848089,
          -0.20173189474530637,
          0.72286083607653162,
          0.32096015607269657,
          -0.078442970957230476,
          -0.038749006491901605,
          0.44446323330447068,
          0.59425697149638368,
          0.034302760951658164,
          0.28247818953181508,
          0.29558804730838489,
          -0.24226623633589262,
          -0.61128286068060655,
          0.99463197514135659,
          -0.76421945169114336,
          -0.7089639003682463,
          0.1875932908588524,
          -0.17719613738677476,
          0.24641566520703795,
          -0.030175824619114232,
          0.75661316306054816,
          0.37471332014205694,
          0.35487768663992736,
          -0.11195043113545852,
          0.072142840455304891,
          0.066406347207486408,
          -0.26728650709721319,
          -0.35264290444887864,
          0.72879152106102063,
          -0.73549954398112583,
          -0.25941221292126643,
          -0.38489505040009947,
          0.072853094338368,
          -0.86969921237621617,
          0.25722366962533921,
          0.059929040369500468,
          -0.339947309158845,
          -0.0077037937652556865,
          -0.61618525677652691,
          0.29810830678757516,
          0.28857292237980259,
          0.13391025161496706,
          -0.51259002927021546,
          -0.328874130942354,
          -0.2056030432068966,
          -0.49798617671143314,
          0.18843091705325396,
          0.564445737769636,
          0.73379950720810039,
          0.05750730491405736,
          -0.38261469501372075,
          -0.14978691304618064,
          -0.36719235571417286,
          0.41165465982733718,
          0.61613601802634865,
          0.13093428027486598,
          -0.16872608771319034,
          -0.59671790009605852,
          0.41025561786123277,
          -0.83352260740022555,
          0.47334093570491503,
          -0.511464293531675,
          -0.18937509068389125,
          0.022044461225657407,
          -0.51987419167771964,
          -0.42860252101529261,
          -0.080132218785609916,
          -0.61453820794256242,
          0.779472154797546,
          1.1524807253368448,
          1.3235336937343436,
          -0.42107936953640118,
          0.031667968662956986,
          -0.27081245967520068,
          -0.71262538286602628,
          -0.012759563131602739,
          0.45162843996556989,
          -0.88045899164445462,
          0.06269162702391097,
          0.66331107615272678,
          0.24293850670810707,
          0.37617606485914468,
          0.14177320356175982,
          -0.38631066778615059,
          -0.7364418613084035,
          0.63371002093732653,
          0.24187400756387939,
          -0.10996755813516641,
          0.28065157586257067,
          -0.09358667067319601,
          -0.051120055170363374,
          -0.19448016054032286,
          -0.18553163135618969,
          -0.19203624071733219,
          0.1060113704824466,
          0.24013362788378395,
          -0.70788505127426449,
          -0.17562684276478729,
          -0.19050323453278448,
          0.13046094237630793,
          -0.52292727960484919,
          0.62049934402097151,
          -0.26095751788371768,
          0.37823330445822334,
          -0.30708057628099455,
          0.44372789748287911,
          0.40142136159501657,
          0.30707063320570466,
          0.228167625396166,
          0.465828741928044,
          0.038566260879864374,
          -1.3382513318552833,
          -0.29160822228965022,
          -0.2139516293520434,
          -0.18320679701486692,
          -1.0983726919356824,
          -0.47073255201669645,
          -1.0366724754316623,
          -0.62652343959561052,
          -0.14894442950061224,
          0.17188739996907032,
          -0.314466327964333,
          -0.21214242523832785,
          -0.14894638629823417,
          -0.03111342494252441,
          -0.283834396553955,
          0.050269112597752436,
          0.22118549639936347,
          -0.15413300840205585,
          -0.43311721424529687,
          -0.963591183173677,
          0.5980060453733812,
          -0.44639005216685146,
          -0.6281858145104442,
          0.25667346613165071,
          -0.698174733844437,
          -0.17168627098573353,
          0.44537832728731191,
          0.54303969324667356,
          0.069472819538713593,
          -0.4298724025469019,
          0.15759296629534716,
          -0.500371529433749,
          -0.26176003959200395,
          0.6686767567651416,
          -0.31647565287175417,
          -0.16155339117549661,
          -0.607133918459933,
          -0.44520028572843207,
          0.35307142224119781,
          0.038511063546104611,
          0.76478895352611342,
          -0.46770422519951677,
          0.016124343549233429,
          0.41220638891873335,
          0.35143643744186714,
          0.411372331635186,
          0.32291768742736826,
          -0.35458191327699096,
          0.205476103993925,
          -0.41790796116244322,
          -0.40503279948958465,
          0.25682408340775736,
          0.120095480517635,
          0.19377088219014771,
          -0.48548232884271542,
          0.32087537432249208,
          -0.49014417245391761,
          -0.061234443705020063,
          -0.04720885133768625,
          0.15158432844144612,
          -0.48030727667987749,
          -0.37606093583626715,
          -0.22696977735363147,
          0.25645948306195226,
          -0.91631014746323758,
          -0.42627700313472683,
          0.778560115771283,
          -0.37204585299164844,
          -0.85842481671606818,
          0.95945721557069374,
          -0.33632191728130739,
          0.51604352880993443,
          -0.10375136727900587,
          -0.14125118644598175,
          0.36828235106892593,
          0.18961667722194342,
          -0.14303464388497919,
          -0.46294281933809861,
          -0.8127879392290499,
          0.5086028881892819,
          0.62257558558224924,
          0.12195669357792389,
          0.429428311200174,
          -0.17898565988761858,
          -0.56299169902568857,
          -0.12015890575616836,
          -0.94432565824203363,
          -0.10315671864561632,
          -0.32461409662454982,
          -0.20348572108908988,
          0.2012581912314961,
          0.31364175088368823,
          0.30597744903195212,
          -0.586702987400668,
          -0.28520959641523941,
          -0.46137443533182204,
          0.34405397225817341,
          0.74282962831886146,
          -0.025543332862549496,
          -0.3792416909352499,
          0.038424052445772558,
          0.25019073115005752,
          0.068788048221026687,
          -0.098704812224331168,
          -0.042503151210668465,
          0.29521036801004497,
          0.085840230356076047,
          -0.65516821214981469,
          0.32425471629428931,
          0.03824332074468146,
          0.41683401822195254,
          -0.16382691722987366,
          -0.60945454690001122,
          -0.70118774187241706,
          0.91892562535931177,
          0.6453722385922529,
          0.378037165921561,
          0.48318370109697073,
          0.045004847942648675,
          0.13727765184806617,
          0.42287015433207531,
          -0.26110201511340236,
          -0.1652240514252985,
          0.13176816059750776,
          0.34611536810108839,
          -0.94643969332071154,
          -0.12482127161203843,
          -0.38432128151980216,
          -0.28335686745808014,
          -0.696507848751941,
          0.30033066773883077,
          -0.080448833770435838,
          -0.3028094021332588,
          0.35752303456309836,
          -0.0832936426140378,
          0.38851958130545111,
          0.00678747223191328,
          0.47609737649556233,
          -0.43294072811383744,
          0.12655226852733725,
          0.23625390105076427,
          -0.15902577939115326,
          -0.18388571924284725,
          0.75770373410342484,
          0.45572657533338745,
          0.69040770127929818,
          -0.18309487150015194,
          -0.31973973139574258,
          -0.13664760458017597,
          0.11891143037935872,
          0.17687318654683124,
          -0.3414418354529799,
          0.276666691769218,
          0.021084817105077647,
          -0.32782340733849141,
          0.71712964255480993,
          -0.62062759018551927,
          -0.5998322790276267,
          0.729215848467462,
          -0.60471450182763176,
          -0.76353586479926583,
          0.33057887518846946,
          -0.4015934999284167,
          -0.29493127989592405,
          -0.21831166453537487,
          -0.0839498942631295,
          -0.60992706611598013,
          0.56361146252162608,
          0.22642611337970137,
          0.065457310142019928,
          0.057586064521996896,
          -0.013032295089725577,
          -0.23577918726123875,
          0.886081381074958,
          0.28617147245407271,
          -0.75327136228485359,
          -0.29651277619909389,
          0.629738959518691,
          0.82580603076003556,
          0.050519605501941622,
          -0.58987076150819162,
          1.0740578903945885,
          0.32106751257507971,
          -0.21301691430371664,
          -0.029945470486232757,
          -1.0326192973048118,
          -0.05844904055203945,
          -0.14317376667500337,
          0.55934102340051162,
          0.36224163593336672,
          -0.63939173149757234,
          0.18272230047318794,
          0.3585073633268947,
          -1.9258227155717396,
          -0.70292604100136213,
          0.6301917080722631,
          0.42197436028138585,
          0.46169994263668979,
          0.71917175670335665,
          0.46690204721072021,
          -0.30877275428593759,
          -0.085070992233991782,
          -0.56790526507307715,
          -0.44732183753198473,
          0.41699086254762568,
          1.1321135523185832,
          0.26290154238751995,
          0.18726190621211744,
          0.82619545049223619,
          0.041543447954090977,
          -0.96290681920522248,
          -0.32586067138106234,
          0.415656694324439,
          0.15763002205382573,
          -0.33077708957805935,
          -0.4201577165874571,
          0.13468924664215734,
          -0.47013082683751145,
          -0.9860233823642186,
          0.18703736358938064,
          0.19079936833459171,
          -0.42632313680966044,
          0.66546759679326828,
          -0.12319332653653056,
          0.29766243795803543,
          0.81455409642548848,
          -0.093995766087657751,
          -0.58740320220076636,
          0.12842553642065502,
          -0.26311471391105451,
          -0.73529007220955023,
          0.613474473941439,
          -0.054956031843608734,
          -0.06911778209929903,
          0.45714505588958793,
          0.85933842045966835,
          -1.2344982975600338,
          0.12862881063843296,
          -0.79058780161714637,
          -0.098384545616828842,
          -0.8244604354358851,
          -0.0073942926915941953,
          -0.089933824147596125,
          -0.12211494116908839,
          0.85005393251917039,
          -0.30053413772352561,
          0.32721100964078864,
          0.55889735497828241,
          0.10669291121303547,
          -0.383301523674262,
          0.5469265088478148,
          0.4376426543048087,
          0.088629588608776011,
          0.22290191333148371,
          0.22322691564118691,
          -0.099763640048969968,
          -0.46544761084871444,
          0.9334735633440624,
          0.30972081290964382,
          -0.28573942385497675,
          -0.69769573888612868,
          0.78553786700686246,
          0.31391950657177514,
          0.817009833528679,
          0.18813391816517677,
          -0.411118034988053,
          -1.2762911150653451,
          -0.17883307870496606,
          -0.66944328713676349,
          -0.67365331220347224,
          -0.5822444434837275,
          -0.81286838992511379,
          0.71012855043238554,
          1.0724020353544694,
          -0.768939830399157,
          0.5550589352697809,
          0.3649009125390768,
          -0.037545060914294333,
          -0.60326003284233343,
          -0.30691051781258488,
          0.42800187620383323,
          -0.83688823683692126,
          -0.34599244565184117,
          0.21022050739426082,
          0.07126727421356803,
          0.26874516597357384,
          0.6574382558868539,
          -0.74899585262478052,
          -0.253848452500139,
          0.18116395242161637,
          0.66693966661462289,
          0.439421486173376,
          0.038987936512208506,
          0.7676332535611432,
          0.04458569727726483,
          0.03035632646783817,
          0.23426831414783739,
          0.05042012593077811,
          0.24207696515557758,
          0.56818160517111338,
          0.59847217660939422,
          0.019260114368196087,
          0.056196570239613074,
          -0.24286049944473523,
          -0.84016683256407509,
          0.14164819490908087,
          0.31894949403380063,
          -0.5155542999670687,
          0.27556512901422836,
          -0.81683150893551459,
          -0.22040343173002588,
          -0.062372174417170009,
          0.0076074987104191825,
          -0.15972365171955921,
          0.71912778087507279,
          -0.906246332302506,
          0.52771505645065619,
          -0.5940233499438069,
          0.053405720419095519,
          -0.22272352532979281,
          -0.90509371946455441,
          0.56681991761064121,
          0.33294245554762408,
          0.6076377683952161,
          0.34132425645915548,
          -0.0043374523335555784,
          -0.53430863766786485,
          -0.37457635961346369,
          0.57933628507368373,
          -0.46433323452527847,
          0.53840701334994567,
          -0.4059283305247553,
          0.19609164229646597,
          0.29838606467254897,
          0.097867622263983253,
          -0.078540113523009658,
          -0.17713589344369476,
          -0.099482093215698758,
          -0.64261654598321183,
          -0.048966276413560154,
          0.24301992044826029,
          0.19712906050182838,
          0.7571807924470475,
          -0.40263744686701597,
          0.531410235516044,
          -0.031255147806208645,
          0.17998138630472943,
          -0.37017015943648651,
          -1.1989593219775518,
          0.21741659061638605,
          0.19001265981762344,
          -0.19781257552995313,
          -0.23611746452180255,
          0.63749854373569825,
          -0.22788696055633906,
          -0.18051189229794748,
          -1.494047053184262,
          0.11051821986870032,
          -0.32553246200275177,
          -0.28645773130514157,
          0.21479802258088193,
          0.78047924978227645,
          -0.0096792197009631688,
          -1.3425058105371195,
          0.00021508862294442564,
          -0.27722940399714557,
          0.759894281676959,
          0.28403873968239168,
          -0.28334532083274233,
          0.013507607436307044,
          -0.92570518664592638,
          0.23737581327837851,
          0.4066941386440156,
          -0.46622664462198082,
          0.54931781877808217,
          -0.048402355416622821,
          -0.82979077683216007,
          -0.54153197614179638,
          0.78788013784899225,
          -0.22111574195191353,
          0.24619682184386058,
          0.55044669400509849,
          -0.38167610915458883,
          -0.49839430099860177,
          -0.6544723552782582,
          0.011523503050795986,
          0.35939937360725732,
          -0.0475905128894174,
          0.081391635087746481,
          0.5679163815866376,
          -0.20451945983755587,
          -1.1791800194429585,
          -0.51861400219093179,
          -0.6585342112724234,
          0.10973771392217019,
          1.04465692818017,
          -0.07409063981549957,
          -0.49461190319461051,
          0.22763018839684235,
          -0.70338872728570512,
          -0.943528880220557,
          -0.59481327501702186,
          -0.12575213144737912,
          -0.43845709755530643,
          -0.42016676864383651,
          0.89162698531311513,
          -0.36948633056770708,
          -0.64789445191854778,
          0.50337008525498306,
          0.14432463808545404,
          -0.17701449465409047,
          0.4424442156472676,
          -0.68228858474031573,
          -0.40729369080503047,
          -0.30533793886561128,
          -0.89240555875396377,
          -0.23318409344313612,
          -0.48993953519430294,
          -0.29302624470985622,
          0.050488561941223059,
          -0.39928248270109845,
          -0.095911407746628777,
          -0.098401792801376911,
          0.21370059818209541,
          0.028868410449254436,
          0.5974946587595299,
          -0.39817872892090467,
          0.093501936570975552,
          -0.59197057922252816,
          -0.64692560581630754,
          0.06748118531031233,
          -0.28681860030319867,
          -0.58768574836167875,
          -0.16263498328350678,
          -0.038288795269779158,
          0.71392515557642233,
          -1.3445756115556433,
          -0.38285380921919809,
          0.1169154217290518,
          -0.2698977025895869,
          0.3629604385019356,
          0.12797588358445783,
          0.95384726284948773,
          -0.589027683836632,
          -0.34183386646157005,
          -0.78225298335647786,
          -0.45056293831867344,
          0.0342148759269059,
          0.27557484465553295,
          -1.1180134656963481,
          -0.79815190885022091,
          0.0760410131098303,
          -0.038059836239375706,
          -0.092694896408188593,
          -0.87124012133362316,
          -0.18822016714565337,
          0.39779667940325436,
          0.27264694241936949,
          -0.69784993333708556,
          -0.19858456765037907,
          0.712542668988951,
          0.68240304027789556,
          0.068813960856850973,
          0.4863299133580648,
          -0.90883903979159542,
          0.029570858742825432,
          -0.441022795364522,
          -0.47761647626726483,
          0.39495562130692768,
          -0.283352366947343,
          -0.48230307368117886,
          -0.44123026343295679,
          1.1578169263602478,
          -0.19127221858702836,
          -0.53568694819003315,
          -0.30815758050836939,
          0.044025092692056136,
          -0.081225107086010259,
          0.19766982397832889,
          -0.93736211963662441,
          0.12016110562137519,
          0.320828515749897,
          1.1454431256198909,
          -0.25109526347710853,
          0.2552136143656285,
          -0.39292519402801573,
          -0.34344403714030042,
          -0.068179627311597046,
          -0.0060658718816234943,
          -0.22259182910687275,
          -0.59621618619950412,
          0.59549867470174322,
          -0.20341287067135394,
          0.16673589113081605,
          -0.55956754983306889,
          0.25843762728027792,
          -0.41223714554140789,
          -0.7251092981869961,
          0.043272703228142792,
          0.015603829369392995,
          0.90996465036142038,
          0.041972960897209075,
          -0.16399727362302216,
          0.69682140917389712,
          -0.16756523094901532,
          0.31576880759614545,
          -1.0772402211845644,
          -0.82266717602240458,
          -0.20283131193704113,
          0.78250059604899225,
          0.18867855056033839,
          -0.035559053212693113,
          0.24051139047765638,
          0.58944610344677628,
          0.56615010050009362,
          0.34914379318458988,
          -0.13652895871692872,
          0.42570044862958273,
          -0.24615012688049265,
          0.30610992432759027,
          -0.41076698791850946,
          -0.31135680049056613,
          -0.27294500771826508,
          -0.41213786781951867,
          -0.059321623933819817,
          -0.63420802967918044,
          -0.30610739731384468,
          -0.58780512092483106,
          -0.059390051484931455,
          -0.22797624766861577,
          -0.058981707836367789,
          0.39430897309263929,
          0.95384768985808088,
          -0.15882173732316024,
          -0.50186822702192324,
          0.4178314147961068,
          -0.84284892480070817,
          -0.36088992987826995,
          0.31861627112810864,
          -0.31534116986922017,
          0.24603796870537853,
          -0.57679611090102889,
          0.21232744672233578,
          -0.53924937239309634,
          0.23143357735853443,
          -0.69378643992867772,
          -0.16276256087464278,
          0.082527764090459657,
          -0.0713554214052437,
          0.050138883487522885,
          -0.78947651808132668,
          -0.16169838632389597,
          0.83513411028884765,
          0.12349757018321941,
          0.15959401629015405,
          -0.42564690996724264,
          -0.45080236180093664,
          -0.24958901901281572,
          -0.39409153796842772,
          0.76389612171292842,
          0.54980115659503637,
          -0.13257388067856735,
          -0.030179820507911057,
          1.0137995801160693,
          -0.7398908896801778,
          -0.11424076425796795,
          -0.6277717913848524,
          -0.28909597086601774,
          1.0479524165907175,
          0.22794475048766091,
          -0.1433958926522953,
          -1.1518035614980411,
          -0.32101945452084546,
          0.2753386803279837,
          0.13231305636764759,
          -0.48159321767131447,
          0.10724194706767078,
          -0.40608934778977179,
          -0.29674649690489213,
          -0.041365700333720432,
          0.52304963907691415,
          -0.26651977954898115,
          -0.23422400383403821,
          -0.07864676510147843,
          0.11381281854564347,
          -0.094067320822510569,
          -0.030502162882673312,
          -0.1169680254769348,
          -0.28980723611966464,
          -0.69732311985787732,
          -0.28038932277196,
          0.10994736551049618,
          -0.091924732323109909,
          0.11490333295330243,
          -0.11050932159390332,
          0.69807698029124332,
          -0.85600689379776462,
          0.82136500441527227,
          -0.074681662383048936,
          -0.21181944916846834,
          0.17593970586484495,
          -0.42919078105951863,
          0.65687682774640821,
          -0.539870504865879,
          0.11308489251773971,
          -0.5424390795510976,
          0.21813106016253414,
          -0.27352139241161111,
          1.236945270900903,
          0.17180819066390657,
          -0.1835408435503921,
          0.0457497884033717,
          -0.38305717609470341,
          -0.538609885438494,
          0.054103699783101158,
          0.44322190264767714,
          -0.6978285219875453,
          0.72245994388193235,
          -0.588065197433142,
          -0.31384480729022546,
          -0.38397386738980394,
          -0.21215056528541162,
          -0.059641468678144925,
          0.059981291882355056,
          0.00086897304183149952,
          -0.11457068807609538,
          0.30317233943069133,
          -0.41076183941083017,
          1.2419063803212387,
          -0.21127137515663369,
          -0.25816216188634888,
          0.29302786753910542,
          -0.017476572664783509,
          -0.077519997922540371,
          1.0054627166867773,
          0.3206934801225878,
          -0.25059687182722495,
          0.053142654303687482,
          -0.349188545194639,
          0.077056553978633091,
          -0.054772730462531616,
          0.47531639639527368,
          -0.9196422172107378,
          0.89681073925801824,
          0.44036411211920856,
          -0.23420817978029318,
          -0.21857979443335343,
          -0.088829155778498842,
          0.14845192743809696,
          0.0098161882508642669,
          -0.29295164428396908,
          0.25072140044706182,
          -0.19277082564659298,
          -0.23848491322898915,
          -0.73189354849560873,
          -0.3471682129560662,
          0.41270516234104132,
          0.10084945409314224,
          -0.75598481773275672,
          -0.11277446438236277,
          0.32208979758523093,
          -0.0084293131875074513,
          -0.15265951743364017,
          0.25452386979786967,
          -0.77912303004158256,
          -1.2311501482222282,
          0.094221448126595372,
          -0.5889191102265432,
          -0.44417305582396316,
          0.50674160370042443,
          -0.0990155056939717,
          0.15726838688197317,
          -0.043902649375240341,
          -0.017227151296312446,
          0.36489652386590166,
          -0.34742697886597085,
          -0.22176583374159514,
          0.055235155738390572,
          0.16825643430776163,
          0.15520693109630493,
          -0.68076613114327633,
          -0.47333803633543381,
          -0.081418564962550607,
          0.77187991309545312,
          0.56216706233063,
          0.25270841767926605,
          0.36390404325721493,
          -0.51397687873311515,
          -0.66642471608411868,
          -0.36878635216948608,
          -0.65382170338047474,
          -1.0152779872709423,
          -0.53948697241529864,
          -0.56171935830877107,
          -0.44878621738908575,
          -0.46887432532880274,
          -0.43779599256635882,
          -0.47806868126456242,
          0.25243619071259016,
          -0.10993922308120449,
          0.02012201438190047,
          0.13050731785002673,
          -0.086778261579105342,
          -0.39948548540377349,
          0.078827243465040817,
          -0.56072622549750928,
          -0.86968000010791868,
          0.40175912870936192,
          -0.61684563052902841,
          0.01375746940443877,
          -0.10635600178212613,
          0.15203082244382821,
          0.21816180827142612,
          0.018624918654025182,
          -0.3480043512847249,
          -0.5536590612143264,
          -0.073589959845881556,
          0.22405409575790455,
          -0.042212785473061919,
          0.70307510569199738,
          -1.1212482577596885,
          0.090323051055833853,
          -1.1571584413291263,
          -0.045519953326091406,
          0.32961176307756362,
          -0.6045060370691473,
          0.43332302081766866,
          -0.3983705648864993,
          0.04475527528809093,
          0.23030423551760076,
          0.82592328738625187,
          -0.45909377650547289,
          -0.59750207856370152,
          -0.3291089708225805,
          -0.39492782129129628,
          0.36627742954693449,
          -0.78061053059675667,
          0.23401475486884557,
          -0.571347882558861,
          0.20718896316407903,
          0.43124256405561689,
          0.0717198618710475,
          -0.84891707559541552,
          0.27986045123540021,
          -1.1514023725607478,
          0.079890797012235282,
          -0.94160623033820412,
          -0.0097013849083651248,
          0.59284993488246862,
          0.73073036290657623,
          -0.19971534427868681,
          -0.022539273174351969,
          0.30178121917513751,
          -0.1096876500723926,
          -0.69695018440226042,
          0.13638794158743395,
          1.0319213861806083,
          -0.95233273240849881,
          0.46002204078369652,
          -0.37793746062769196,
          0.20445289260596439,
          0.52639388734120152,
          0.33029811116039026,
          0.580175951706273,
          -1.2545112493393713,
          0.20400179387720716,
          -0.81175928264198094,
          -0.094733486362059527,
          0.21891755740769292,
          -0.41931906319756929,
          -0.43046787060840425,
          0.28663703603383744,
          0.80566655198032511,
          0.088475784551123288,
          0.070478637663963145,
          -0.444743121956186,
          0.05670526189127225,
          -1.4271619059940495,
          0.12949449209441238,
          0.46181156716456462,
          0.054668060179133782,
          0.059906555204308064,
          1.0315765895099007,
          -0.14100533727588588,
          0.46482587794247932,
          0.42334909683096422,
          0.030953423489721073,
          -0.013735147228184905,
          0.44483505134474305,
          -0.14560687213230017,
          -0.66039733048734028,
          0.26934883605330884,
          0.17882027411641713,
          0.29188954106001513,
          0.68835847071464806,
          -0.3549418670595183,
          0.18831397943746875,
          -0.042606440732969236,
          -0.39666554752914412,
          0.56282371482367854,
          0.283780197754661,
          -0.5586014722005701,
          0.25788063243993381,
          0.13685765276931075,
          -0.23995278959999425,
          -0.66024005667608654,
          -0.41974672536573404,
          0.32213727301627104,
          0.46522876872916663,
          -0.1202742530565058,
          0.50539660175745149,
          -0.019145412577522655,
          -1.2415713934735968,
          0.33599997400949733,
          0.041057279735664316,
          -0.78440241497308116,
          -0.49070662483748062,
          0.4573136474791627,
          -0.25072369043441112,
          0.2382940654291435,
          0.10166036596299317,
          0.00075874232586687555,
          0.28528878772313765,
          0.54071791324309082,
          -0.52315366350120851,
          -0.25965380713709574,
          -0.73966021965026829,
          0.57185900456471617,
          -0.046874410783618974,
          -0.27876427885028454,
          -0.62528584435885448,
          -0.025436505438095659,
          -0.2186779531236708,
          0.08516797431983926,
          -0.17980003291385102,
          -0.21303937633912368,
          0.52369469451002826,
          0.19437129479819443,
          0.37732726308352643,
          0.17765792182556375,
          -0.4514019164859906,
          -0.62298778900813123,
          0.40953037463351438,
          -0.12140321725830655,
          0.745083363920019,
          0.3044291257423698,
          0.25658423188569923,
          0.36209602456193368,
          0.94661616932299142,
          -0.99664643164314171,
          1.0898497567234811,
          0.32564355240808368,
          -0.26596739591606616,
          -0.14449464595487768,
          -0.075471367122704289,
          0.35247930956306334,
          0.31228676328015703,
          -0.72256865303202111,
          -0.50243533745486912,
          0.049933606973328666,
          0.23392164285009168,
          0.87700158410669349,
          0.59463737013213036,
          0.10468857203694987,
          -0.22406175871831,
          -0.11997000412041854,
          0.064373721355958577,
          0.28139852606180549,
          0.11057945854176265,
          0.26122924403664316,
          0.37711127533856703,
          0.056181534521852587,
          -0.23723357598568326,
          -0.56618052730057478,
          0.058690002286278485,
          -0.33599875823985575,
          -0.29102713356067778,
          -0.51210799891499259,
          -0.053349573956702749,
          0.031241806793134052,
          0.78177657355762742,
          -0.95617983474027046,
          0.788134217091602,
          0.9180809771448184,
          0.89362472553587613,
          -0.2756354899856141,
          0.79471665174880524,
          0.38580136577940455,
          -0.21109516512180646,
          0.22813001538520056,
          0.41666479313220534,
          -0.13596256568290133,
          -0.64126947341887919,
          0.10897179136612241,
          -0.029785720781260031,
          0.30528738482587175,
          0.014701092796081769,
          0.81581014200337909,
          -0.9268082253240536,
          0.30030157452058326,
          -0.017550285249288863,
          0.52672818744537764,
          -0.681106361380541,
          -0.21779485027548184,
          0.20446867530024659,
          -0.074977554925886009,
          -0.54386834455686894,
          0.34714131115158531,
          0.21123528596884375,
          0.46178503190339265,
          -0.19210703264450457,
          -0.67723964580112384,
          -0.12990781313043842,
          -0.20726839739346037,
          -0.20189859743976515,
          -0.083531540945419161,
          0.14749439566060557,
          0.25136151908206394,
          -0.4704213161446345,
          -0.95349812624850994,
          -0.53468626300020272,
          -0.53150544692516333,
          -0.069185087844264831,
          0.42498470442610053,
          0.47898218099759116,
          -0.56594140116882585,
          -0.014389244461121133,
          -0.93250016334278873,
          0.22505606645144968,
          0.019689584345409031,
          -1.0651462742327638,
          -0.97723529281997745,
          -0.50009022886081822,
          -0.092258265625670979,
          -0.0415349075490894,
          0.20228888117123178,
          -0.028631072562494496,
          -0.35122517209434895,
          0.542120071706141,
          -1.1733788528752502,
          -0.20063452300386903,
          -1.1430521065619086,
          0.055469980335759159,
          -0.31413301724165604,
          -0.17815708478955664,
          0.49191130100439723,
          -0.35006181937156522,
          0.05708256778539067,
          -0.68280379877268937,
          -0.46999284071416914,
          -0.7721951170960184,
          -0.22413243207920294,
          -0.13227163583652782,
          -0.4449136362117449,
          -0.62360149216752525,
          0.256103791299979,
          0.51477947001005686,
          0.47180004973774375,
          0.73177306135175413,
          0.21542914361540036,
          -0.37408730182034222,
          0.43448236773960253,
          -0.573894751261651,
          -0.78336604382014885,
          0.1095595544866587,
          -0.14823243659643942,
          0.13169380414867968,
          0.38394817760303074,
          -1.6036307576019178,
          0.26295250303694317,
          -0.5917739263074242,
          0.32004836914689327,
          -0.050398363671620428,
          0.4774411661254232,
          -0.74395717813985907,
          -0.585729905423964,
          -0.33239717622265413,
          -0.096124609379787423,
          -0.30165405742860912,
          -0.079373591476589539,
          -0.2695394083199823,
          0.67832001595100944,
          -0.1436308586001496,
          -0.0569974805657212,
          0.22915798817222058,
          -0.34475625963703449,
          0.24499059161158646,
          0.0830280317562856,
          0.325466955713435,
          -0.36000168176456304,
          -0.89464809183686944,
          -0.95013336776470059,
          0.00624844496656602,
          -0.054058816005772371,
          -0.937323020261403,
          -0.34406706233273493,
          -0.22363515464794789,
          -0.93964817980266657,
          -0.30478512453200923,
          0.92622189921382292,
          0.44170563170059374,
          0.11141261145213137,
          0.2703405376957268,
          -0.18064957230132653,
          0.15183564097597718,
          0.34178300469581574,
          0.20355015663869447,
          -0.46008874394719707,
          0.34600963902583903,
          0.29441223182827664,
          0.019889246710634703,
          -0.077349339484680465,
          -0.37682821282461976,
          -0.32829156355648881,
          -0.57363544404862155,
          0.32486871212898011,
          0.42590295856377886,
          -0.079226078100088415,
          -0.32920887057928361,
          0.83795798909214947,
          0.70958738781435693,
          -0.050373494317549554,
          0.056279730703629322,
          0.43710819590549183,
          -0.24404326786808187,
          -0.26163555243247849,
          -1.2550284332889361,
          -0.70275186293444969,
          -0.60961493631242325,
          0.3831029496208529,
          -0.96474821924694154,
